{"learner":{"attributes":{"scikit_learn":"{\"_estimator_type\": \"classifier\"}"},"feature_names":[],"feature_types":[],"gradient_booster":{"model":{"gbtree_model_param":{"num_parallel_tree":"1","num_trees":"100"},"iteration_indptr":[0,1,2,3,4,5,6,7,8,9,10,11,12,13,14,15,16,17,18,19,20,21,22,23,24,25,26,27,28,29,30,31,32,33,34,35,36,37,38,39,40,41,42,43,44,45,46,47,48,49,50,51,52,53,54,55,56,57,58,59,60,61,62,63,64,65,66,67,68,69,70,71,72,73,74,75,76,77,78,79,80,81,82,83,84,85,86,87,88,89,90,91,92,93,94,95,96,97,98,99,100],"tree_info":[0,0,0,0,0,0,0,0,0,0,0,0,0,0,0,0,0,0,0,0,0,0,0,0,0,0,0,0,0,0,0,0,0,0,0,0,0,0,0,0,0,0,0,0,0,0,0,0,0,0,0,0,0,0,0,0,0,0,0,0,0,0,0,0,0,0,0,0,0,0,0,0,0,0,0,0,0,0,0,0,0,0,0,0,0,0,0,0,0,0,0,0,0,0,0,0,0,0,0,0],"trees":[{"base_weights":[-7.292487E-2,-2.7846044E-1,1.6317991E0,-4.5511606E-1,9.55988E-1,4.1334695E-1,2.2565649E0,8.659752E-2,-7.67619E-1,2.9276034E-1,2.5364149E0,3.6167982E-1,-2.5264743E-1,5.470114E-1,2.6418319E0,-1.7009133E-1,1.2452503E0,-8.5718197E-1,1.9709943E-1,-3.7489188E-1,1.2399321E0,6.346019E-2,6.0029495E-1,1.352048E-1,-9.30576E-1,2.9219982E-1,-1.341666E-1,2.3130584E-1,2.9732337E0,1.4590245E-1,-8.965148E-2,5.029553E-1,1.03561714E-1,-1.05540216E-1,-2.075074E-1,2.4322267E-1,-1.1855089E-1,-1.8265158E-1,9.427991E-2,-1.79429E-2,4.254168E-1,-2.4689002E-1,-6.8291E-2,6.297265E-1,2.940248E-1],"categories":[],"categories_nodes":[],"categories_segments":[],"categories_sizes":[],"default_left":[0,0,0,0,0,0,0,0,0,0,0,0,0,0,0,0,0,0,0,0,0,0,0,0,0,0,0,0,0,0,0,0,0,0,0,0,0,0,0,0,0,0,0,0,0],"id":0,"left_children":[1,3,5,7,9,11,13,15,17,19,21,-1,23,25,27,29,31,33,35,37,39,-1,-1,-1,41,-1,-1,-1,43,-1,-1,-1,-1,-1,-1,-1,-1,-1,-1,-1,-1,-1,-1,-1,-1],"loss_changes":[3.038448E2,1.6913031E2,7.010025E1,1.1474303E2,1.0110527E2,3.0980026E1,3.9033813E1,7.4184135E1,3.7295425E1,4.446222E1,2.8555115E1,0E0,1.51811285E1,1.4965319E1,2.1121063E1,5.1498596E1,4.0466446E1,2.2828156E1,3.0755371E1,1.937333E1,3.43965E1,0E0,0E0,0E0,2.0456476E0,0E0,0E0,0E0,5.9580994E0,0E0,0E0,0E0,0E0,0E0,0E0,0E0,0E0,0E0,0E0,0E0,0E0,0E0,0E0,0E0,0E0],"parents":[2147483647,0,0,1,1,2,2,3,3,4,4,5,5,6,6,7,7,8,8,9,9,10,10,12,12,13,13,14,14,15,15,16,16,17,17,18,18,19,19,20,20,24,24,28,28],"right_children":[2,4,6,8,10,12,14,16,18,20,22,-1,24,26,28,30,32,34,36,38,40,-1,-1,-1,42,-1,-1,-1,44,-1,-1,-1,-1,-1,-1,-1,-1,-1,-1,-1,-1,-1,-1,-1,-1],"split_conditions":[6.1623764E-1,6.798144E-1,4.6319988E-1,5.162892E-1,6.420046E-1,4.0896145E-1,5.254129E-1,6.4074415E-1,6.971862E-1,4.805567E-1,5.2587557E-1,3.6167982E-1,4.1519916E-1,5.0300753E-1,4.361654E-1,4.133437E-1,3.7351632E-1,4.9967492E-1,5.1987493E-1,5.272669E-1,3.736294E-1,6.346019E-2,6.0029495E-1,1.352048E-1,4.8710942E-1,2.9219982E-1,-1.341666E-1,2.3130584E-1,6.4887977E-1,1.4590245E-1,-8.965148E-2,5.029553E-1,1.03561714E-1,-1.05540216E-1,-2.075074E-1,2.4322267E-1,-1.1855089E-1,-1.8265158E-1,9.427991E-2,-1.79429E-2,4.254168E-1,-2.4689002E-1,-6.8291E-2,6.297265E-1,2.940248E-1],"split_indices":[27,299,698,596,607,666,401,147,653,492,589,0,380,145,413,731,450,31,419,698,629,0,0,0,526,0,0,0,42,0,0,0,0,0,0,0,0,0,0,0,0,0,0,0,0],"split_type":[0,0,0,0,0,0,0,0,0,0,0,0,0,0,0,0,0,0,0,0,0,0,0,0,0,0,0,0,0,0,0,0,0,0,0,0,0,0,0,0,0,0,0,0,0],"sum_hessian":[8.6488617E2,7.725748E2,9.231133E1,6.7640875E2,9.616609E1,3.1852482E1,6.045885E1,2.4771898E2,4.286898E2,6.8574135E1,2.7591959E1,9.738338E0,2.2114143E1,1.1564277E1,4.8894573E1,2.0349069E2,4.4228287E1,3.923739E2,3.6315887E1,4.057641E1,2.7997723E1,5.072051E0,2.2519907E1,9.332575E0,1.27815695E1,6.4922256E0,5.072051E0,9.738338E0,3.9156235E1,4.767728E1,1.5581342E2,1.5216154E1,2.9012133E1,1.401915E2,2.5218239E2,1.5621918E1,2.069397E1,2.475161E1,1.58248005E1,1.1564277E1,1.6433447E1,7.709518E0,5.072051E0,3.4084183E1,5.072051E0],"tree_param":{"num_deleted":"0","num_feature":"768","num_nodes":"45","size_leaf_vector":"1"}},{"base_weights":[-6.313706E-2,-4.389334E-1,6.5861315E-1,-5.24182E-1,3.7648794E-1,9.129527E-2,1.4070657E0,-6.907864E-1,1.24285534E-1,-2.4222699E-1,9.0945786E-1,1.9760623E0,5.654725E-1,-7.2305465E-1,2.1513903E-1,-8.449723E-1,5.697274E-1,1.0689738E0,-4.6455708E-1,1.2045841E0,-1.6628352E-1,2.3030736E0,1.0411494E0,1.317923E0,9.491735E-3,9.4874045E-3,-1.5838043E-1,3.260925E-2,-2.3205452E-1,2.194332E-2,3.593109E-1,-2.9963007E-2,3.6026388E-1,2.5620005E-1,-1.1922536E-1,-1.097991E-1,3.1028923E-1,2.022517E-1,4.9235296E-1,3.4057924E-1,-4.9554493E-2,5.8377415E-2,3.851368E-1,3.1790996E-1,-8.697898E-2],"categories":[],"categories_nodes":[],"categories_segments":[],"categories_sizes":[],"default_left":[0,0,0,0,0,0,0,0,0,0,0,0,0,0,0,0,0,0,0,0,0,0,0,0,0,0,0,0,0,0,0,0,0,0,0,0,0,0,0,0,0,0,0,0,0],"id":1,"left_children":[1,3,5,7,-1,9,11,13,15,17,19,21,23,25,-1,27,29,31,33,35,-1,37,39,41,43,-1,-1,-1,-1,-1,-1,-1,-1,-1,-1,-1,-1,-1,-1,-1,-1,-1,-1,-1,-1],"loss_changes":[2.3202614E2,1.12292015E2,1.24257E2,5.8783554E1,0E0,4.5982365E1,5.93329E1,2.5425476E1,4.879495E1,3.5457596E1,2.606173E1,2.0505768E1,2.1876165E1,2.2595413E1,0E0,1.1515631E1,4.3407784E1,1.6059355E1,2.4473297E1,2.6467796E1,0E0,8.719299E0,1.8536987E1,1.3297321E1,2.2525784E1,0E0,0E0,0E0,0E0,0E0,0E0,0E0,0E0,0E0,0E0,0E0,0E0,0E0,0E0,0E0,0E0,0E0,0E0,0E0,0E0],"parents":[2147483647,0,0,1,1,2,2,3,3,5,5,6,6,7,7,8,8,9,9,10,10,11,11,12,12,13,13,15,15,16,16,17,17,18,18,19,19,21,21,22,22,23,23,24,24],"right_children":[2,4,6,8,-1,10,12,14,16,18,20,22,24,26,-1,28,30,32,34,36,-1,38,40,42,44,-1,-1,-1,-1,-1,-1,-1,-1,-1,-1,-1,-1,-1,-1,-1,-1,-1,-1,-1,-1],"split_conditions":[5.9688854E-1,9.0460277E-1,6.0658705E-1,5.7755524E-1,3.7648794E-1,5.6700504E-1,4.8716536E-1,7.213626E-1,3.4986705E-1,3.408509E-1,6.045273E-1,5.1725227E-1,5.123948E-1,3.1033975E-1,2.1513903E-1,4.1736126E-1,5.3326684E-1,4.208102E-1,3.029315E-1,3.7170458E-1,-1.6628352E-1,3.0465308E-1,5.5793643E-1,4.6664402E-1,4.4301975E-1,9.4874045E-3,-1.5838043E-1,3.260925E-2,-2.3205452E-1,2.194332E-2,3.593109E-1,-2.9963007E-2,3.6026388E-1,2.5620005E-1,-1.1922536E-1,-1.097991E-1,3.1028923E-1,2.022517E-1,4.9235296E-1,3.4057924E-1,-4.9554493E-2,5.8377415E-2,3.851368E-1,3.1790996E-1,-8.697898E-2],"split_indices":[26,283,270,509,0,392,124,27,496,749,473,512,699,70,0,70,720,27,75,110,0,216,577,492,743,0,0,0,0,0,0,0,0,0,0,0,0,0,0,0,0,0,0,0,0],"split_type":[0,0,0,0,0,0,0,0,0,0,0,0,0,0,0,0,0,0,0,0,0,0,0,0,0,0,0,0,0,0,0,0,0,0,0,0,0,0,0,0,0,0,0,0,0],"sum_hessian":[8.533896E2,5.6144946E2,2.9194012E2,5.423083E2,1.9141188E1,1.6670316E2,1.2523697E2,4.3140613E2,1.1090218E2,1.1892683E2,4.7776333E1,7.391526E1,5.1321705E1,4.242471E2,7.1590242E0,3.4636993E1,7.626519E1,1.6689829E1,1.0223699E2,4.1114372E1,6.661959E0,5.367689E1,2.0238373E1,2.1225372E1,3.0096334E1,3.4824757E1,3.8942233E2,8.36783E0,2.6269161E1,5.6259552E1,2.0005638E1,6.5629783E0,1.0126851E1,6.553558E0,9.568344E1,6.693296E0,3.4421078E1,6.679041E0,4.699785E1,1.3160464E1,7.077908E0,8.446339E0,1.2779033E1,6.0407906E0,2.4055544E1],"tree_param":{"num_deleted":"0","num_feature":"768","num_nodes":"45","size_leaf_vector":"1"}},{"base_weights":[-7.272894E-2,-5.466483E-1,3.318205E-1,4.2381588E-1,-6.898588E-1,8.7328726E-1,-1.4091419E-1,-3.3422583E-1,1.5795113E0,-7.4858993E-1,3.6326668E-1,1.4252822E0,4.093972E-1,7.499308E-1,-3.449305E-1,-8.147759E-1,1.4791454E-1,4.009068E-1,7.844422E-2,-2.9456878E-1,-9.077672E-1,-1.12562954E-1,2.4463654E-1,5.4861224E-1,1.7833916E0,-2.3948966E-1,9.0739244E-1,1.5598298E0,-1.8352663E-2,-5.70566E-1,3.214584E-1,5.8320582E-2,-2.4704388E-1,1.2773222E-1,-1.1000172E-1,5.9352845E-2,-1.8793932E-1,1.977973E-1,-1.4761165E-1,1.6010804E-1,3.8686442E-1,-1.7945051E-1,3.8638376E-2,2.475568E-1,-8.753012E-2,1.6710624E-2,3.9986202E-1,-1.7691772E-1,1.4426874E-1,-1.3393682E-1,1.7191873E-1,-8.536189E-2,2.0096807E-1],"categories":[],"categories_nodes":[],"categories_segments":[],"categories_sizes":[],"default_left":[0,0,0,0,0,0,0,0,0,0,0,0,0,0,0,0,0,0,0,0,0,0,0,0,0,0,0,0,0,0,0,0,0,0,0,0,0,0,0,0,0,0,0,0,0,0,0,0,0,0,0,0,0],"id":2,"left_children":[1,3,5,7,9,11,13,15,17,19,21,23,25,27,29,31,-1,-1,-1,33,35,-1,-1,37,39,41,43,45,47,49,51,-1,-1,-1,-1,-1,-1,-1,-1,-1,-1,-1,-1,-1,-1,-1,-1,-1,-1,-1,-1,-1,-1],"loss_changes":[1.5893417E2,5.334108E1,1.14626144E2,4.407108E1,2.0868118E1,5.284349E1,4.382045E1,1.6516863E1,9.236805E0,2.2550537E1,1.5232172E1,2.8806244E1,3.7305595E1,2.801518E1,2.9609962E1,1.0492382E1,0E0,0E0,0E0,2.0242004E1,9.251312E0,0E0,0E0,1.7138641E1,8.377563E0,1.4582124E1,2.9491962E1,1.4046383E1,1.6061127E1,2.1351654E1,2.6069645E1,0E0,0E0,0E0,0E0,0E0,0E0,0E0,0E0,0E0,0E0,0E0,0E0,0E0,0E0,0E0,0E0,0E0,0E0,0E0,0E0,0E0,0E0],"parents":[2147483647,0,0,1,1,2,2,3,3,4,4,5,5,6,6,7,7,8,8,9,9,10,10,11,11,12,12,13,13,14,14,15,15,19,19,20,20,23,23,24,24,25,25,26,26,27,27,28,28,29,29,30,30],"right_children":[2,4,6,8,10,12,14,16,18,20,22,24,26,28,30,32,-1,-1,-1,34,36,-1,-1,38,40,42,44,46,48,50,52,-1,-1,-1,-1,-1,-1,-1,-1,-1,-1,-1,-1,-1,-1,-1,-1,-1,-1,-1,-1,-1,-1],"split_conditions":[5.2866626E-1,3.8739938E-1,4.5880997E-1,5.2096266E-1,7.0361304E-1,4.336909E-1,4.06703E-1,5.677385E-1,4.651618E-1,4.4712925E-1,4.3284222E-1,3.8505054E-1,4.783215E-1,4.664907E-1,6.1985505E-1,3.86308E-1,1.4791454E-1,4.009068E-1,7.844422E-2,4.4326693E-1,2.4718192E-1,-1.12562954E-1,2.4463654E-1,6.392284E-1,4.669361E-1,4.6100596E-1,6.9705313E-1,4.7718763E-1,5.441217E-1,7.302324E-1,5.1538765E-1,5.8320582E-2,-2.4704388E-1,1.2773222E-1,-1.1000172E-1,5.9352845E-2,-1.8793932E-1,1.977973E-1,-1.4761165E-1,1.6010804E-1,3.8686442E-1,-1.7945051E-1,3.8638376E-2,2.475568E-1,-8.753012E-2,1.6710624E-2,3.9986202E-1,-1.7691772E-1,1.4426874E-1,-1.3393682E-1,1.7191873E-1,-8.536189E-2,2.0096807E-1],"split_indices":[26,229,247,110,717,512,229,147,202,592,720,429,509,452,212,231,0,0,0,31,154,0,0,599,151,425,229,462,113,589,235,0,0,0,0,0,0,0,0,0,0,0,0,0,0,0,0,0,0,0,0,0,0],"split_type":[0,0,0,0,0,0,0,0,0,0,0,0,0,0,0,0,0,0,0,0,0,0,0,0,0,0,0,0,0,0,0,0,0,0,0,0,0,0,0,0,0,0,0,0,0,0,0,0,0,0,0,0,0],"sum_hessian":[8.2702844E2,3.8069855E2,4.4632993E2,4.87031E1,3.3199545E2,2.0764621E2,2.3868372E2,2.9840786E1,1.8862314E1,3.1473248E2,1.7262955E1,9.387245E1,1.1377375E2,4.397768E1,1.9470604E2,2.0781704E1,9.05908E0,1.3383132E1,5.4791822E0,8.243987E1,2.3229262E2,8.47806E0,8.784896E0,2.7959112E1,6.591334E1,4.962785E1,6.4145905E1,2.0907454E1,2.3070227E1,1.4556302E2,4.9143017E1,5.8070755E0,1.4974629E1,1.7393568E1,6.504631E1,5.784352E0,2.2650826E2,2.1002264E1,6.9568486E0,9.613665E0,5.6299675E1,1.9265982E1,3.0361868E1,5.156051E1,1.2585394E1,5.069247E0,1.5838206E1,1.053598E1,1.2534246E1,1.3662582E2,8.937196E0,2.3637081E1,2.5505934E1],"tree_param":{"num_deleted":"0","num_feature":"768","num_nodes":"53","size_leaf_vector":"1"}},{"base_weights":[-7.0809394E-2,-4.5497024E-1,3.298502E-1,-6.734255E-1,3.4865156E-2,-2.0124562E-2,9.2919064E-1,-1.12938605E-1,-7.7516836E-1,-5.8794755E-1,4.0191492E-1,5.758494E-1,-3.961058E-1,2.0451567E-1,1.3414849E0,-4.103024E-1,2.0798616E-1,-8.258416E-1,7.870125E-2,-9.6265745E-1,3.1089973E-1,-1.5282717E-1,1.0066108E0,-4.3546999E-1,8.641225E-1,4.4323593E-1,-5.785085E-1,6.137844E-1,-7.156298E-1,-4.1229263E-2,1.466001E0,1.7764611E-2,-2.1182597E-1,-1.8415956E-1,-7.423699E-2,2.187264E-1,-1.9684601E-1,-2.2694258E-1,1.1424683E-3,2.0764525E-1,-1.2868683E-1,-1.1886038E-1,1.549431E-1,2.732016E-1,-6.444227E-2,-1.9413409E-1,8.047149E-2,3.996242E-1,1.1507741E-1,2.0968507E-3,3.469825E-1,-1.3661668E-4,-1.5285534E-1,2.626832E-1,-2.9910887E-2,-2.3973589E-1,-1.0721921E-2,5.081295E-2,3.1560865E-1],"categories":[],"categories_nodes":[],"categories_segments":[],"categories_sizes":[],"default_left":[0,0,0,0,0,0,0,0,0,0,0,0,0,0,0,0,0,0,0,0,0,0,0,0,0,0,0,0,0,0,0,0,0,0,0,0,0,0,0,0,0,0,0,0,0,0,0,0,0,0,0,0,0,0,0,0,0,0,0],"id":3,"left_children":[1,3,5,7,9,11,13,15,17,19,21,23,25,27,29,31,-1,33,35,37,39,41,43,45,47,49,51,53,55,-1,57,-1,-1,-1,-1,-1,-1,-1,-1,-1,-1,-1,-1,-1,-1,-1,-1,-1,-1,-1,-1,-1,-1,-1,-1,-1,-1,-1,-1],"loss_changes":[1.23595726E2,4.3881676E1,8.248587E1,1.6079163E1,2.93519E1,5.6066967E1,4.3037926E1,1.575989E1,1.043956E1,1.6342535E1,2.7234612E1,2.8598293E1,2.3740576E1,2.0679874E1,1.8072815E1,1.1840818E1,0E0,9.43364E0,1.6552082E1,5.648445E0,1.0920562E1,1.8056915E1,1.8949768E1,1.0317312E1,2.3625473E1,1.5605171E1,1.3572041E1,2.0351362E1,5.3747797E0,0E0,1.1205261E1,0E0,0E0,0E0,0E0,0E0,0E0,0E0,0E0,0E0,0E0,0E0,0E0,0E0,0E0,0E0,0E0,0E0,0E0,0E0,0E0,0E0,0E0,0E0,0E0,0E0,0E0,0E0,0E0],"parents":[2147483647,0,0,1,1,2,2,3,3,4,4,5,5,6,6,7,7,8,8,9,9,10,10,11,11,12,12,13,13,14,14,15,15,17,17,18,18,19,19,20,20,21,21,22,22,23,23,24,24,25,25,26,26,27,27,28,28,30,30],"right_children":[2,4,6,8,10,12,14,16,18,20,22,24,26,28,30,32,-1,34,36,38,40,42,44,46,48,50,52,54,56,-1,58,-1,-1,-1,-1,-1,-1,-1,-1,-1,-1,-1,-1,-1,-1,-1,-1,-1,-1,-1,-1,-1,-1,-1,-1,-1,-1,-1,-1],"split_conditions":[4.7296837E-1,6.024746E-1,5.9366345E-1,3.4620667E-1,4.3646428E-1,4.4868898E-1,4.7712377E-1,5.204991E-1,7.0517266E-1,5.3787124E-1,4.815307E-1,4.6795142E-1,3.6505494E-1,4.830948E-1,3.137802E-1,5.2197206E-1,2.0798616E-1,6.8234736E-1,5.2154243E-1,5.4898715E-1,4.8423687E-1,6.044251E-1,6.258848E-1,4.0636662E-1,3.894428E-1,6.584779E-1,4.2261153E-1,4.7706845E-1,5.215715E-1,-4.1229263E-2,3.4261176E-1,1.7764611E-2,-2.1182597E-1,-1.8415956E-1,-7.423699E-2,2.187264E-1,-1.9684601E-1,-2.2694258E-1,1.1424683E-3,2.0764525E-1,-1.2868683E-1,-1.1886038E-1,1.549431E-1,2.732016E-1,-6.444227E-2,-1.9413409E-1,8.047149E-2,3.996242E-1,1.1507741E-1,2.0968507E-3,3.469825E-1,-1.3661668E-4,-1.5285534E-1,2.626832E-1,-2.9910887E-2,-2.3973589E-1,-1.0721921E-2,5.081295E-2,3.1560865E-1],"split_indices":[191,26,147,529,203,541,221,209,282,264,110,26,626,381,706,67,0,504,731,674,489,182,103,720,242,29,333,44,133,0,325,0,0,0,0,0,0,0,0,0,0,0,0,0,0,0,0,0,0,0,0,0,0,0,0,0,0,0,0],"split_type":[0,0,0,0,0,0,0,0,0,0,0,0,0,0,0,0,0,0,0,0,0,0,0,0,0,0,0,0,0,0,0,0,0,0,0,0,0,0,0,0,0,0,0,0,0,0,0,0,0,0,0,0,0,0,0,0,0,0,0],"sum_hessian":[8.010237E2,4.0886234E2,3.9216138E2,2.8249933E2,1.2636298E2,2.481972E2,1.4396416E2,4.372648E1,2.3877286E2,4.663335E1,7.972963E1,9.5804436E1,1.5239278E2,5.27476E1,9.121655E1,3.527259E1,8.453884E0,2.254276E2,1.3345266E1,3.286264E1,1.3770711E1,4.19721E1,3.775753E1,2.113789E1,7.466655E1,2.6950005E1,1.25442764E2,3.673936E1,1.600824E1,6.743607E0,8.4472946E1,2.0424036E1,1.48485565E1,1.8563252E2,3.979507E1,6.8120017E0,6.533264E0,2.7758808E1,5.1038337E0,7.7649226E0,6.005788E0,2.8680538E1,1.3291563E1,2.9697477E1,8.060055E0,1.2801679E1,8.336212E0,1.3951655E1,6.0714893E1,2.0941927E1,6.008077E0,3.0762083E1,9.468069E1,1.8793613E1,1.7945747E1,8.786468E0,7.2217717E0,7.4250803E0,7.704787E1],"tree_param":{"num_deleted":"0","num_feature":"768","num_nodes":"59","size_leaf_vector":"1"}},{"base_weights":[-5.874548E-2,3.468311E-1,-3.5629663E-1,4.0910322E-2,9.756168E-1,4.1234645E-1,-4.825304E-1,-2.2640276E-1,8.3230215E-1,-1.6990636E-1,1.1822304E0,1.0480479E0,-3.715193E-1,-1.6961563E-1,-7.116376E-1,-3.9119974E-1,6.155415E-1,3.400232E-1,1.6162937E0,1.928967E-1,-7.4241805E-1,1.4293008E0,4.5213675E-1,3.6522849E-3,1.494599E0,9.838172E-2,-7.6199067E-1,6.757324E-2,-6.981342E-1,-7.5788367E-1,1.9832028E-1,1.8717162E-1,-9.783002E-2,2.9295215E-1,-1.9240635E-2,-5.568648E-2,1.8313712E-1,1.2370703E-1,3.9695162E-1,-2.4533017E-1,-2.9473716E-2,1.1707647E-1,3.1088224E-1,2.1307483E-1,-1.18026495E-1,1.8787299E-1,-1.8663225E-1,7.570373E-2,3.7015674E-1,-2.1374749E-1,2.445966E-2,9.534641E-2,-9.148367E-2,1.5325934E-3,-1.7608535E-1,-1.6387235E-1,6.82307E-2],"categories":[],"categories_nodes":[],"categories_segments":[],"categories_sizes":[],"default_left":[0,0,0,0,0,0,0,0,0,0,0,0,0,0,0,0,0,0,0,0,0,0,0,0,0,0,0,0,0,0,0,0,0,0,0,0,0,0,0,0,0,0,0,0,0,0,0,0,0,0,0,0,0,0,0,0,0],"id":4,"left_children":[1,3,5,7,9,11,13,15,17,19,21,23,25,27,29,31,33,35,37,-1,39,41,43,45,47,-1,49,51,53,55,-1,-1,-1,-1,-1,-1,-1,-1,-1,-1,-1,-1,-1,-1,-1,-1,-1,-1,-1,-1,-1,-1,-1,-1,-1,-1,-1],"loss_changes":[9.3619385E1,6.312376E1,4.360756E1,4.7139156E1,2.5626709E1,3.21053E1,2.7461067E1,2.3368519E1,2.116006E1,1.19448805E1,1.5793472E1,1.6507565E1,1.023311E1,2.0597843E1,1.8221962E1,1.86574E1,1.686787E1,1.3007808E1,6.6510353E0,0E0,3.2929673E0,6.2307587E0,1.6292059E1,1.1051289E1,9.158169E0,0E0,5.698763E0,2.4719887E1,6.551689E0,1.490773E1,0E0,0E0,0E0,0E0,0E0,0E0,0E0,0E0,0E0,0E0,0E0,0E0,0E0,0E0,0E0,0E0,0E0,0E0,0E0,0E0,0E0,0E0,0E0,0E0,0E0,0E0,0E0],"parents":[2147483647,0,0,1,1,2,2,3,3,4,4,5,5,6,6,7,7,8,8,9,9,10,10,11,11,12,12,13,13,14,14,15,15,16,16,17,17,18,18,20,20,21,21,22,22,23,23,24,24,26,26,27,27,28,28,29,29],"right_children":[2,4,6,8,10,12,14,16,18,20,22,24,26,28,30,32,34,36,38,-1,40,42,44,46,48,-1,50,52,54,56,-1,-1,-1,-1,-1,-1,-1,-1,-1,-1,-1,-1,-1,-1,-1,-1,-1,-1,-1,-1,-1,-1,-1,-1,-1,-1,-1],"split_conditions":[4.1732678E-1,5.553523E-1,3.740434E-1,6.0649997E-1,4.0097967E-1,4.3390024E-1,4.9319857E-1,7.088272E-1,5.93299E-1,3.673907E-1,4.7753456E-1,4.695549E-1,3.9187896E-1,6.215978E-1,7.442707E-1,2.5259995E-1,3.7601036E-1,4.2777127E-1,4.9101853E-1,1.928967E-1,3.9405274E-1,4.1989237E-1,4.502976E-1,5.5202276E-1,4.1884762E-1,9.838172E-2,6.349424E-1,5.468095E-1,4.3676287E-1,7.4368405E-1,1.9832028E-1,1.8717162E-1,-9.783002E-2,2.9295215E-1,-1.9240635E-2,-5.568648E-2,1.8313712E-1,1.2370703E-1,3.9695162E-1,-2.4533017E-1,-2.9473716E-2,1.1707647E-1,3.1088224E-1,2.1307483E-1,-1.18026495E-1,1.8787299E-1,-1.8663225E-1,7.570373E-2,3.7015674E-1,-2.1374749E-1,2.445966E-2,9.534641E-2,-9.148367E-2,1.5325934E-3,-1.7608535E-1,-1.6387235E-1,6.82307E-2],"split_indices":[503,48,657,582,238,204,626,653,552,508,179,285,162,229,720,533,161,706,345,0,708,282,765,51,481,0,347,503,678,310,0,0,0,0,0,0,0,0,0,0,0,0,0,0,0,0,0,0,0,0,0,0,0,0,0,0,0],"split_type":[0,0,0,0,0,0,0,0,0,0,0,0,0,0,0,0,0,0,0,0,0,0,0,0,0,0,0,0,0,0,0,0,0,0,0,0,0,0,0,0,0,0,0,0,0,0,0,0,0,0,0,0,0,0,0,0,0],"sum_hessian":[7.73743E2,3.2736417E2,4.4637878E2,2.2093738E2,1.0642679E2,6.2647682E1,3.837311E2,1.6568642E2,5.525096E1,1.6289717E1,9.013708E1,3.4407097E1,2.8240583E1,1.6293489E2,2.2079622E2,1.3901236E2,2.6674059E1,3.482044E1,2.0430521E1,5.2340927E0,1.1055624E1,6.6630875E1,2.3506203E1,1.0607173E1,2.3799925E1,8.713381E0,1.9527203E1,1.1306545E2,4.9869434E1,2.1550005E2,5.2961826E0,8.967252E0,1.300451E2,1.1680029E1,1.499403E1,1.7035208E1,1.7785233E1,6.2324524E0,1.4198069E1,5.510182E0,5.5454416E0,9.33585E0,5.729502E1,1.4785013E1,8.7211895E0,5.3053417E0,5.301831E0,6.256938E0,1.7542988E1,1.4343182E1,5.18402E0,6.3594334E1,4.947112E1,1.04330225E1,3.9436413E1,2.0432495E2,1.1175082E1],"tree_param":{"num_deleted":"0","num_feature":"768","num_nodes":"57","size_leaf_vector":"1"}},{"base_weights":[-3.98714E-2,-3.228595E-1,3.4551212E-1,-4.435187E-1,4.1934732E-1,6.114429E-1,-3.6085716E-1,-1.6073628E-1,-7.172107E-1,8.413217E-1,-3.045427E-1,9.967693E-1,2.4439369E-1,8.335562E-1,-6.047086E-1,-4.676411E-1,2.508217E-1,-8.980558E-1,-2.770176E-1,-6.838439E-2,1.1010134E0,1.0706216E-1,-7.4533665E-1,3.7741536E-1,1.2884247E0,8.7175363E-1,-1.2330903E-1,2.7710804E-1,-4.7422834E-2,-1.0983745E0,-2.3634058E-1,-1.3399664E-1,1.9995827E-2,-1.067515E-1,1.1396163E-1,-1.9258055E-1,3.2080695E-2,5.60891E-2,-1.1917508E-1,2.8016824E-1,2.4963565E-2,-1.6326858E-2,-2.3014842E-1,-8.485087E-2,1.7826228E-1,2.7799928E-1,2.2523377E-2,2.5739935E-1,-1.2853724E-2,1.2992178E-1,-8.9915596E-2,-2.4710083E-1,-6.715914E-2,-1.4231202E-1,7.937031E-2],"categories":[],"categories_nodes":[],"categories_segments":[],"categories_sizes":[],"default_left":[0,0,0,0,0,0,0,0,0,0,0,0,0,0,0,0,0,0,0,0,0,0,0,0,0,0,0,0,0,0,0,0,0,0,0,0,0,0,0,0,0,0,0,0,0,0,0,0,0,0,0,0,0,0,0],"id":5,"left_children":[1,3,5,7,9,11,13,15,17,19,21,23,25,27,29,31,33,35,37,-1,39,-1,41,43,45,47,49,-1,-1,51,53,-1,-1,-1,-1,-1,-1,-1,-1,-1,-1,-1,-1,-1,-1,-1,-1,-1,-1,-1,-1,-1,-1,-1,-1],"loss_changes":[8.151376E1,3.8774387E1,5.96757E1,2.860817E1,1.881871E1,3.233056E1,2.5900932E1,2.3335545E1,1.4741623E1,1.2254515E1,8.955362E0,1.9751442E1,2.7623075E1,9.314143E0,1.3014139E1,1.2200954E1,2.0118874E1,9.285042E0,1.0171015E1,0E0,9.172398E0,0E0,4.0969095E0,1.5737253E1,8.890564E0,1.7262558E1,1.9477438E1,0E0,0E0,2.8182144E0,1.3243927E1,0E0,0E0,0E0,0E0,0E0,0E0,0E0,0E0,0E0,0E0,0E0,0E0,0E0,0E0,0E0,0E0,0E0,0E0,0E0,0E0,0E0,0E0,0E0,0E0],"parents":[2147483647,0,0,1,1,2,2,3,3,4,4,5,5,6,6,7,7,8,8,9,9,10,10,11,11,12,12,13,13,14,14,15,15,16,16,17,17,18,18,20,20,22,22,23,23,24,24,25,25,26,26,29,29,30,30],"right_children":[2,4,6,8,10,12,14,16,18,20,22,24,26,28,30,32,34,36,38,-1,40,-1,42,44,46,48,50,-1,-1,52,54,-1,-1,-1,-1,-1,-1,-1,-1,-1,-1,-1,-1,-1,-1,-1,-1,-1,-1,-1,-1,-1,-1,-1,-1],"split_conditions":[4.802229E-1,6.756284E-1,5.4538435E-1,4.4026738E-1,5.567003E-1,4.6267554E-1,3.4018105E-1,5.802937E-1,4.465574E-1,3.3247772E-1,4.0133557E-1,5.655077E-1,4.3807966E-1,4.6340677E-1,4.4668782E-1,5.696206E-1,5.874064E-1,7.080671E-1,4.1390136E-1,-6.838439E-2,5.9689987E-1,1.0706216E-1,5.7670146E-1,4.728561E-1,5.998028E-1,5.559118E-1,4.1718316E-1,2.7710804E-1,-4.7422834E-2,5.5595636E-1,4.4243214E-1,-1.3399664E-1,1.9995827E-2,-1.067515E-1,1.1396163E-1,-1.9258055E-1,3.2080695E-2,5.60891E-2,-1.1917508E-1,2.8016824E-1,2.4963565E-2,-1.6326858E-2,-2.3014842E-1,-8.485087E-2,1.7826228E-1,2.7799928E-1,2.2523377E-2,2.5739935E-1,-1.2853724E-2,1.2992178E-1,-8.9915596E-2,-2.4710083E-1,-6.715914E-2,-1.4231202E-1,7.937031E-2],"split_indices":[110,364,503,339,419,412,229,474,115,91,529,420,626,522,422,764,695,83,355,0,166,0,101,571,541,506,657,0,0,157,640,0,0,0,0,0,0,0,0,0,0,0,0,0,0,0,0,0,0,0,0,0,0,0,0],"split_type":[0,0,0,0,0,0,0,0,0,0,0,0,0,0,0,0,0,0,0,0,0,0,0,0,0,0,0,0,0,0,0,0,0,0,0,0,0,0,0,0,0,0,0,0,0,0,0,0,0,0,0,0,0,0,0],"sum_hessian":[7.4540564E2,4.2989493E2,3.1551068E2,3.7012656E2,5.976837E1,2.2931396E2,8.6196724E1,1.8282083E2,1.8730574E2,3.7655674E1,2.21127E1,1.1103469E2,1.1827928E2,1.4204266E1,7.1992455E1,1.0464743E2,7.817339E1,1.3202544E2,5.5280308E1,6.7200756E0,3.0935598E1,7.5373025E0,1.4575397E1,3.628167E1,7.475302E1,4.320086E1,7.507842E1,9.178305E0,5.0259604E0,2.9917286E1,4.2075172E1,7.701369E1,2.7633745E1,2.240146E1,5.577193E1,1.2448885E2,7.5365777E0,2.0158104E1,3.5122204E1,2.3333858E1,7.6017394E0,5.9825444E0,8.592853E0,1.4240754E1,2.2040916E1,6.8641304E1,6.1117105E0,2.9665522E1,1.3535338E1,2.1991182E1,5.3087242E1,2.483178E1,5.085506E0,2.3965195E1,1.8109978E1],"tree_param":{"num_deleted":"0","num_feature":"768","num_nodes":"55","size_leaf_vector":"1"}},{"base_weights":[-3.890863E-2,-1.5160672E-1,7.392145E-1,-3.7558192E-1,1.9256939E-1,-7.419514E-3,9.4924474E-1,-4.6056533E-1,4.51856E-1,-1.2742212E-1,6.9138914E-1,1.3600093E-1,-5.2770877E-1,1.0985026E0,7.0525594E-2,7.545899E-2,-5.8343226E-1,1.0695587E0,-2.7409345E-1,3.8906687E-1,-4.6101505E-1,1.6612452E-2,1.0281237E0,3.845941E-2,-2.2022036E-1,5.240014E-1,1.3311361E0,1.3371006E-1,-1.1162601E-1,1.7870967E-1,-7.4985445E-2,-1.4701547E-1,-4.701517E-2,-1.665952E-2,2.9943857E-1,-1.6081429E-1,1.3615666E-1,-1.8199926E-2,2.0524614E-1,3.0106714E-2,-1.4563446E-1,-1.2776382E-1,1.1797164E-1,-4.797608E-2,2.3757122E-1,2.0218371E-1,-3.7482154E-2,2.998899E-1,9.765524E-2],"categories":[],"categories_nodes":[],"categories_segments":[],"categories_sizes":[],"default_left":[0,0,0,0,0,0,0,0,0,0,0,0,0,0,0,0,0,0,0,0,0,0,0,0,0,0,0,0,0,0,0,0,0,0,0,0,0,0,0,0,0,0,0,0,0,0,0,0,0],"id":6,"left_children":[1,3,5,7,9,11,13,15,17,19,21,-1,23,25,27,29,31,33,35,37,39,41,43,-1,-1,45,47,-1,-1,-1,-1,-1,-1,-1,-1,-1,-1,-1,-1,-1,-1,-1,-1,-1,-1,-1,-1,-1,-1],"loss_changes":[6.2812813E1,4.8280735E1,1.4218536E1,2.687159E1,3.954501E1,7.82983E0,9.200066E0,2.2723434E1,1.635647E1,2.6271347E1,2.1968742E1,0E0,5.352792E0,7.3745117E0,4.6361666E0,2.4321522E1,1.46323395E1,9.766771E0,9.284103E0,1.8436924E1,1.5216764E1,1.2861344E1,1.3355278E1,0E0,0E0,6.7908077E0,5.274475E0,0E0,0E0,0E0,0E0,0E0,0E0,0E0,0E0,0E0,0E0,0E0,0E0,0E0,0E0,0E0,0E0,0E0,0E0,0E0,0E0,0E0,0E0],"parents":[2147483647,0,0,1,1,2,2,3,3,4,4,5,5,6,6,7,7,8,8,9,9,10,10,12,12,13,13,14,14,15,15,16,16,17,17,18,18,19,19,20,20,21,21,22,22,25,25,26,26],"right_children":[2,4,6,8,10,12,14,16,18,20,22,-1,24,26,28,30,32,34,36,38,40,42,44,-1,-1,46,48,-1,-1,-1,-1,-1,-1,-1,-1,-1,-1,-1,-1,-1,-1,-1,-1,-1,-1,-1,-1,-1,-1],"split_conditions":[6.192736E-1,5.6012106E-1,4.7721335E-1,6.618765E-1,5.281898E-1,4.662505E-1,5.5863976E-1,4.0628517E-1,4.7960156E-1,4.5799702E-1,4.124297E-1,1.3600093E-1,4.891768E-1,4.88375E-1,4.4883233E-1,4.2428756E-1,5.570638E-1,4.9455377E-1,5.5718935E-1,5.18874E-1,3.9194855E-1,5.6544864E-1,4.289178E-1,3.845941E-2,-2.2022036E-1,4.4862005E-1,6.205659E-1,1.3371006E-1,-1.1162601E-1,1.7870967E-1,-7.4985445E-2,-1.4701547E-1,-4.701517E-2,-1.665952E-2,2.9943857E-1,-1.6081429E-1,1.3615666E-1,-1.8199926E-2,2.0524614E-1,3.0106714E-2,-1.4563446E-1,-1.2776382E-1,1.1797164E-1,-4.797608E-2,2.3757122E-1,2.0218371E-1,-3.7482154E-2,2.998899E-1,9.765524E-2],"split_indices":[27,713,147,157,294,765,84,731,411,205,395,0,45,352,368,144,294,147,125,445,185,253,553,0,0,380,42,0,0,0,0,0,0,0,0,0,0,0,0,0,0,0,0,0,0,0,0,0,0],"split_type":[0,0,0,0,0,0,0,0,0,0,0,0,0,0,0,0,0,0,0,0,0,0,0,0,0,0,0,0,0,0,0,0,0,0,0,0,0,0,0,0,0,0,0,0,0,0,0,0,0],"sum_hessian":[7.140028E2,6.243774E2,8.9625435E1,3.781816E2,2.4619577E2,1.988855E1,6.9736885E1,3.4335965E2,3.482195E1,1.5043602E2,9.575975E1,8.435845E0,1.1452705E1,5.9397587E1,1.0339303E1,6.410003E1,2.792596E2,1.8557901E1,1.6264048E1,5.8969517E1,9.146651E1,3.222799E1,6.3531765E1,5.371891E0,6.0808144E0,1.8057085E1,4.13405E1,5.266218E0,5.073085E0,2.2410057E1,4.1689976E1,1.9378973E2,8.54699E1,5.239088E0,1.3318814E1,1.0560606E1,5.703441E0,3.411956E1,2.4849957E1,2.7941734E1,6.3524773E1,1.4982764E1,1.7245222E1,7.0516686E0,5.6480095E1,1.0470015E1,7.5870714E0,3.38099E1,7.530602E0],"tree_param":{"num_deleted":"0","num_feature":"768","num_nodes":"49","size_leaf_vector":"1"}},{"base_weights":[-3.768439E-2,3.066856E-1,-2.5471243E-1,-1.6679187E-1,6.316053E-1,-4.4471055E-1,1.913285E-1,8.131804E-1,-3.926491E-1,9.033537E-1,1.520757E-1,-5.759535E-1,1.3398519E-1,-5.662843E-1,3.913344E-1,1.3006883E0,-6.530066E-2,-6.211552E-1,1.97091E-1,1.06938444E-1,1.1046481E0,5.87939E-1,-4.5026737E-1,-6.4557016E-1,2.1793923E-1,-1.7718157E-1,2.8573036E-1,-8.2533914E-1,4.6054102E-2,-6.260647E-3,9.196487E-1,1.511139E-1,3.6741388E-1,1.1085202E-1,-1.4833502E-1,1.7781399E-1,-8.0001876E-2,-8.736413E-2,2.1489115E-1,2.611721E-1,7.457807E-2,2.5337845E-1,2.866754E-3,-1.5840156E-1,1.5587178E-1,-1.4752491E-1,-2.2483462E-2,2.2064893E-1,-7.921686E-2,-1.5847452E-1,1.1367315E-1,-3.439731E-2,-2.204E-1,-5.409609E-2,1.3829474E-1,2.4361813E-1,-5.3117055E-2],"categories":[],"categories_nodes":[],"categories_segments":[],"categories_sizes":[],"default_left":[0,0,0,0,0,0,0,0,0,0,0,0,0,0,0,0,0,0,0,0,0,0,0,0,0,0,0,0,0,0,0,0,0,0,0,0,0,0,0,0,0,0,0,0,0,0,0,0,0,0,0,0,0,0,0,0,0],"id":7,"left_children":[1,3,5,7,9,11,13,15,17,19,21,23,25,27,29,31,-1,33,35,37,39,41,43,45,47,49,-1,51,-1,53,55,-1,-1,-1,-1,-1,-1,-1,-1,-1,-1,-1,-1,-1,-1,-1,-1,-1,-1,-1,-1,-1,-1,-1,-1,-1,-1],"loss_changes":[5.190838E1,4.1419327E1,3.6182663E1,2.4683867E1,2.0643005E1,2.2786709E1,1.9607672E1,1.206139E1,1.2269138E1,1.6167068E1,1.5724102E1,1.3621719E1,2.2848322E1,5.7882557E0,2.1391163E1,2.9598198E0,0E0,9.648151E0,1.1069798E1,1.1834204E1,1.1436569E1,1.3455619E1,1.1243269E1,1.0935692E1,1.1533246E1,2.1598349E1,0E0,3.5503054E0,0E0,1.10795E1,1.5789856E1,0E0,0E0,0E0,0E0,0E0,0E0,0E0,0E0,0E0,0E0,0E0,0E0,0E0,0E0,0E0,0E0,0E0,0E0,0E0,0E0,0E0,0E0,0E0,0E0,0E0,0E0],"parents":[2147483647,0,0,1,1,2,2,3,3,4,4,5,5,6,6,7,7,8,8,9,9,10,10,11,11,12,12,13,13,14,14,15,15,17,17,18,18,19,19,20,20,21,21,22,22,23,23,24,24,25,25,27,27,29,29,30,30],"right_children":[2,4,6,8,10,12,14,16,18,20,22,24,26,28,30,32,-1,34,36,38,40,42,44,46,48,50,-1,52,-1,54,56,-1,-1,-1,-1,-1,-1,-1,-1,-1,-1,-1,-1,-1,-1,-1,-1,-1,-1,-1,-1,-1,-1,-1,-1,-1,-1],"split_conditions":[5.099597E-1,4.8567453E-1,5.4689664E-1,3.740434E-1,5.5134034E-1,5.9217334E-1,3.646586E-1,4.5442015E-1,5.961333E-1,4.8410445E-1,4.5184436E-1,6.7996883E-1,6.7681557E-1,5.7585883E-1,5.3897893E-1,5.369046E-1,-6.530066E-2,2.4228862E-1,4.479475E-1,5.631186E-1,5.821E-1,4.249261E-1,6.293143E-1,6.694677E-1,4.4817638E-1,4.5377448E-1,2.8573036E-1,4.0877542E-1,4.6054102E-2,6.7588615E-1,4.8221368E-1,1.511139E-1,3.6741388E-1,1.1085202E-1,-1.4833502E-1,1.7781399E-1,-8.0001876E-2,-8.736413E-2,2.1489115E-1,2.611721E-1,7.457807E-2,2.5337845E-1,2.866754E-3,-1.5840156E-1,1.5587178E-1,-1.4752491E-1,-2.2483462E-2,2.2064893E-1,-7.921686E-2,-1.5847452E-1,1.1367315E-1,-3.439731E-2,-2.204E-1,-5.409609E-2,1.3829474E-1,2.4361813E-1,-5.3117055E-2],"split_indices":[100,299,392,657,103,203,246,540,420,401,719,717,132,131,352,246,0,154,550,328,412,512,190,188,766,682,0,10,0,491,696,0,0,0,0,0,0,0,0,0,0,0,0,0,0,0,0,0,0,0,0,0,0,0,0,0,0],"split_type":[0,0,0,0,0,0,0,0,0,0,0,0,0,0,0,0,0,0,0,0,0,0,0,0,0,0,0,0,0,0,0,0,0,0,0,0,0,0,0,0,0,0,0,0,0,0,0,0,0,0,0,0,0,0,0,0,0],"sum_hessian":[6.924933E2,2.675478E2,4.249455E2,1.0908066E2,1.5846715E2,2.980075E2,1.26937996E2,1.9944223E1,8.913644E1,1.005831E2,5.7884045E1,2.4292017E2,5.5087345E1,2.6129473E1,1.0080852E2,1.3869972E1,6.0742517E0,6.420551E1,2.4930923E1,2.060224E1,7.998086E1,3.3596844E1,2.4287203E1,2.2350755E2,1.9412619E1,4.510881E1,9.978536E0,1.9689829E1,6.4396443E0,5.8084126E1,4.2724392E1,8.073549E0,5.796423E0,5.636316E0,5.8569195E1,1.13214855E1,1.3609437E1,1.3540687E1,7.061553E0,6.211616E1,1.7864697E1,1.4832074E1,1.8764769E1,1.9283724E1,5.003479E0,1.9027168E2,3.3235874E1,7.6238E0,1.1788819E1,2.4680664E1,2.0428144E1,6.33975E0,1.3350078E1,4.257432E1,1.5509807E1,3.410822E1,8.616173E0],"tree_param":{"num_deleted":"0","num_feature":"768","num_nodes":"57","size_leaf_vector":"1"}},{"base_weights":[-3.384905E-2,3.495325E-1,-1.976666E-1,8.503257E-1,9.1706105E-2,-3.0372524E-1,5.427671E-1,1.2275407E0,3.096858E-1,-4.6437016E-1,3.4128892E-1,1.9871911E-1,-4.3674463E-1,1.1903642E0,1.7025308E-1,1.4877985E0,7.426327E-2,8.60875E-1,-3.656806E-1,-7.8500706E-1,1.9567232E-1,8.312524E-1,-9.6271195E-2,-5.926544E-1,6.480754E-1,3.2835245E-1,-5.09492E-1,2.913034E-1,1.0250534E-1,-2.4482594E-1,7.83044E-1,3.4373263E-1,1.1564008E-1,9.3597075E-4,2.5302175E-1,4.386009E-2,-1.589315E-1,-1.9710968E-1,1.7951269E-2,-8.4193304E-2,1.845547E-1,2.04926E-1,-8.467807E-2,-1.1782986E-1,1.169064E-1,-1.5935995E-1,8.137723E-2,-3.9620806E-2,2.2473465E-1,-6.7684874E-2,2.0286404E-1,6.42959E-2,-1.1329233E-1,-2.0848672E-1,2.6741186E-2,3.3248086E-2,2.6826862E-1],"categories":[],"categories_nodes":[],"categories_segments":[],"categories_sizes":[],"default_left":[0,0,0,0,0,0,0,0,0,0,0,0,0,0,0,0,0,0,0,0,0,0,0,0,0,0,0,0,0,0,0,0,0,0,0,0,0,0,0,0,0,0,0,0,0,0,0,0,0,0,0,0,0,0,0,0,0],"id":8,"left_children":[1,3,5,7,9,11,13,15,17,19,21,23,25,27,29,31,-1,33,35,37,39,41,43,45,47,49,51,-1,-1,53,55,-1,-1,-1,-1,-1,-1,-1,-1,-1,-1,-1,-1,-1,-1,-1,-1,-1,-1,-1,-1,-1,-1,-1,-1,-1,-1],"loss_changes":[4.212997E1,2.5856009E1,3.706225E1,1.3516624E1,1.8716127E1,2.7597797E1,1.4085388E1,8.316593E0,1.1237566E1,9.009682E0,1.9989609E1,3.1269283E1,1.8299545E1,3.1252975E0,1.0052218E1,5.345978E0,0E0,5.68904E0,3.6592793E0,5.0642433E0,6.8817E0,1.1088179E1,1.7106264E1,6.8492594E0,2.2708668E1,1.355907E1,1.4283821E1,0E0,0E0,7.3472433E0,5.2499523E0,0E0,0E0,0E0,0E0,0E0,0E0,0E0,0E0,0E0,0E0,0E0,0E0,0E0,0E0,0E0,0E0,0E0,0E0,0E0,0E0,0E0,0E0,0E0,0E0,0E0,0E0],"parents":[2147483647,0,0,1,1,2,2,3,3,4,4,5,5,6,6,7,7,8,8,9,9,10,10,11,11,12,12,13,13,14,14,15,15,17,17,18,18,19,19,20,20,21,21,22,22,23,23,24,24,25,25,26,26,29,29,30,30],"right_children":[2,4,6,8,10,12,14,16,18,20,22,24,26,28,30,32,-1,34,36,38,40,42,44,46,48,50,52,-1,-1,54,56,-1,-1,-1,-1,-1,-1,-1,-1,-1,-1,-1,-1,-1,-1,-1,-1,-1,-1,-1,-1,-1,-1,-1,-1,-1,-1],"split_conditions":[4.0478277E-1,4.2722413E-1,6.1623764E-1,5.767706E-1,4.5395935E-1,3.9654714E-1,3.7816823E-1,5.31567E-1,3.3778214E-1,5.1405036E-1,5.2070695E-1,5.1617885E-1,3.126914E-1,6.4341956E-1,5.0299525E-1,5.520179E-1,7.426327E-2,4.5973688E-1,4.4588393E-1,6.883701E-1,5.087456E-1,6.79121E-1,5.940383E-1,7.4142635E-1,5.226742E-1,6.6464156E-1,2.6715845E-1,2.913034E-1,1.0250534E-1,4.369505E-1,5.4237443E-1,3.4373263E-1,1.1564008E-1,9.3597075E-4,2.5302175E-1,4.386009E-2,-1.589315E-1,-1.9710968E-1,1.7951269E-2,-8.4193304E-2,1.845547E-1,2.04926E-1,-8.467807E-2,-1.1782986E-1,1.169064E-1,-1.5935995E-1,8.137723E-2,-3.9620806E-2,2.2473465E-1,-6.7684874E-2,2.0286404E-1,6.42959E-2,-1.1329233E-1,-2.0848672E-1,2.6741186E-2,3.3248086E-2,2.6826862E-1],"split_indices":[550,670,27,448,661,731,368,61,550,325,624,745,512,109,717,205,0,706,505,553,517,322,663,190,331,580,357,0,0,316,413,0,0,0,0,0,0,0,0,0,0,0,0,0,0,0,0,0,0,0,0,0,0,0,0,0,0],"split_type":[0,0,0,0,0,0,0,0,0,0,0,0,0,0,0,0,0,0,0,0,0,0,0,0,0,0,0,0,0,0,0,0,0,0,0,0,0,0,0,0,0,0,0,0,0,0,0,0,0,0,0,0,0,0,0,0,0],"sum_hessian":[6.687099E2,1.9985541E2,4.688545E2,6.714235E1,1.3271306E2,4.106267E2,5.822778E1,3.880018E1,2.8342169E1,4.08462E1,9.186685E1,8.5851654E1,3.2477505E2,2.0461315E1,3.7766464E1,2.9189972E1,9.610206E0,1.545453E1,1.288764E1,2.736395E1,1.3482249E1,4.291382E1,4.8953037E1,3.0977478E1,5.4874176E1,2.7894108E1,2.9688095E2,1.3867481E1,6.5938334E0,2.287343E1,1.4893035E1,2.257161E1,6.6183624E0,5.2808657E0,1.0173664E1,5.659185E0,7.2284546E0,2.2157621E1,5.2063284E0,7.5231028E0,5.9591465E0,3.734169E1,5.5721307E0,2.847369E1,2.0479345E1,2.5892128E1,5.085351E0,1.9954596E1,3.491958E1,1.4401833E1,1.3492275E1,1.874977E1,2.781312E2,6.7971706E0,1.607626E1,7.6923547E0,7.2006803E0],"tree_param":{"num_deleted":"0","num_feature":"768","num_nodes":"57","size_leaf_vector":"1"}},{"base_weights":[-6.95475E-3,-2.995952E-1,2.109006E-1,-4.5621875E-1,3.4615687E-1,5.4243535E-1,-1.5439666E-2,-1.5329895E-2,-6.384809E-1,2.8951183E-1,1.06981866E-1,1.0133239E0,1.928844E-1,-1.7476241E-1,7.320788E-1,-4.4286585E-1,4.975658E-1,1.6010836E-1,-6.9756466E-1,3.8805947E-1,-1.7625923E-1,5.768506E-1,1.4119688E0,4.410596E-1,-5.3136027E-1,4.5900324E-1,-3.5174918E-1,1.0449984E0,-6.2204476E-2,2.6975183E-2,-1.5301847E-1,2.2683874E-1,-3.1610135E-2,-1.5780003E-1,3.3645757E-2,-1.2985145E-1,1.461523E-1,-1.5693054E-2,2.5299725E-1,1.4590783E-1,3.246989E-1,-9.670339E-3,1.9647823E-1,1.2865107E-1,-1.8192099E-1,1.6948265E-1,-1.0616181E-1,-1.1963425E-1,5.6563405E-4,5.040418E-2,3.120397E-1],"categories":[],"categories_nodes":[],"categories_segments":[],"categories_sizes":[],"default_left":[0,0,0,0,0,0,0,0,0,0,0,0,0,0,0,0,0,0,0,0,0,0,0,0,0,0,0,0,0,0,0,0,0,0,0,0,0,0,0,0,0,0,0,0,0,0,0,0,0,0,0],"id":9,"left_children":[1,3,5,7,9,11,13,15,17,-1,19,21,23,25,27,29,31,-1,33,35,-1,37,39,41,43,45,47,49,-1,-1,-1,-1,-1,-1,-1,-1,-1,-1,-1,-1,-1,-1,-1,-1,-1,-1,-1,-1,-1,-1,-1],"loss_changes":[4.0761154E1,2.7752718E1,2.7512585E1,1.7669735E1,1.4024524E1,2.42863E1,2.6185541E1,1.4555769E1,1.3791103E1,0E0,1.292638E1,1.01707E1,1.5800025E1,2.048196E1,1.2934937E1,6.8392034E0,1.2780604E1,0E0,1.2009972E1,1.3259905E1,0E0,1.4451917E1,3.479042E0,1.728033E1,1.06063E1,1.5820716E1,1.2424757E1,1.1841377E1,0E0,0E0,0E0,0E0,0E0,0E0,0E0,0E0,0E0,0E0,0E0,0E0,0E0,0E0,0E0,0E0,0E0,0E0,0E0,0E0,0E0,0E0,0E0],"parents":[2147483647,0,0,1,1,2,2,3,3,4,4,5,5,6,6,7,7,8,8,10,10,11,11,12,12,13,13,14,14,15,15,16,16,18,18,19,19,21,21,22,22,23,23,24,24,25,25,26,26,27,27],"right_children":[2,4,6,8,10,12,14,16,18,-1,20,22,24,26,28,30,32,-1,34,36,-1,38,40,42,44,46,48,50,-1,-1,-1,-1,-1,-1,-1,-1,-1,-1,-1,-1,-1,-1,-1,-1,-1,-1,-1,-1,-1,-1,-1],"split_conditions":[5.5973625E-1,6.1374533E-1,5.099597E-1,4.95153E-1,3.300374E-1,5.018293E-1,6.24976E-1,4.7661316E-1,1.9635019E-1,2.8951183E-1,5.824882E-1,4.3503127E-1,5.635411E-1,4.5601687E-1,5.796718E-1,4.2877996E-1,4.588169E-1,1.6010836E-1,6.3865894E-1,3.9416906E-1,-1.7625923E-1,5.253601E-1,4.8654646E-1,5.662171E-1,3.8148418E-1,4.3989527E-1,5.124899E-1,4.7507757E-1,-6.2204476E-2,2.6975183E-2,-1.5301847E-1,2.2683874E-1,-3.1610135E-2,-1.5780003E-1,3.3645757E-2,-1.2985145E-1,1.461523E-1,-1.5693054E-2,2.5299725E-1,1.4590783E-1,3.246989E-1,-9.670339E-3,1.9647823E-1,1.2865107E-1,-1.8192099E-1,1.6948265E-1,-1.0616181E-1,-1.1963425E-1,5.6563405E-4,5.040418E-2,3.120397E-1],"split_indices":[420,698,100,656,613,463,294,191,38,0,529,740,470,175,144,450,758,0,445,585,0,108,118,147,243,432,392,140,0,0,0,0,0,0,0,0,0,0,0,0,0,0,0,0,0,0,0,0,0,0,0],"split_type":[0,0,0,0,0,0,0,0,0,0,0,0,0,0,0,0,0,0,0,0,0,0,0,0,0,0,0,0,0,0,0,0,0,0,0,0,0,0,0,0,0,0,0,0,0,0,0,0,0,0,0],"sum_hessian":[6.373666E2,2.7183765E2,3.6552893E2,2.1901122E2,5.2826443E1,1.4773528E2,2.1779366E2,6.437453E1,1.5463669E2,8.523478E0,4.4302963E1,6.2134056E1,8.560122E1,1.8016112E2,3.7632526E1,3.5183258E1,2.9191269E1,5.60378E0,1.4903291E2,3.4965664E1,9.337298E0,3.0827875E1,3.130618E1,6.404581E1,2.1555414E1,3.8981216E1,1.411799E2,2.8946928E1,8.685601E0,1.2805262E1,2.2377995E1,1.4439761E1,1.4751509E1,1.3487737E2,1.4155544E1,8.460936E0,2.650473E1,1.62443E1,1.4583574E1,8.460295E0,2.2845884E1,3.4114227E1,2.9931578E1,5.0797944E0,1.647562E1,2.8098867E1,1.0882349E1,8.288794E1,5.829197E1,1.1986659E1,1.6960268E1],"tree_param":{"num_deleted":"0","num_feature":"768","num_nodes":"51","size_leaf_vector":"1"}},{"base_weights":[-1.3364763E-2,-1.2379572E-1,4.8846304E-1,-3.505075E-1,1.1807121E-1,1.0458359E0,1.238616E-1,-6.847551E-1,-1.9455925E-1,6.687121E-1,-9.609893E-2,-2.5717525E-2,1.2415959E0,8.104171E-1,-1.5500027E-1,-8.292675E-1,1.2220441E-1,-4.1848898E-1,2.1570835E-1,3.0262193E-1,1.205274E0,-5.232534E-1,9.280415E-2,1.432471E0,6.7361267E-3,-5.1905323E-2,1.1872119E0,-5.178374E-1,4.8594794E-1,-1.8776375E-1,-1.275258E-2,2.384785E-1,-1.3803598E-1,5.602998E-3,-1.2868418E-1,-1.9403068E-2,1.6152474E-1,-1.8326977E-1,1.3241315E-1,2.760969E-1,7.142951E-2,-1.55753E-1,4.3569144E-2,-3.4236368E-2,1.1599719E-1,3.3340195E-1,1.136871E-1,3.1594804E-1,1.0725065E-1,4.3016408E-2,-1.8287943E-1,1.8884885E-1,-1.1941495E-1],"categories":[],"categories_nodes":[],"categories_segments":[],"categories_sizes":[],"default_left":[0,0,0,0,0,0,0,0,0,0,0,0,0,0,0,0,0,0,0,0,0,0,0,0,0,0,0,0,0,0,0,0,0,0,0,0,0,0,0,0,0,0,0,0,0,0,0,0,0,0,0,0,0],"id":10,"left_children":[1,3,5,7,9,11,13,15,17,19,21,-1,23,25,27,29,31,33,35,37,39,41,43,45,-1,-1,47,49,51,-1,-1,-1,-1,-1,-1,-1,-1,-1,-1,-1,-1,-1,-1,-1,-1,-1,-1,-1,-1,-1,-1,-1,-1],"loss_changes":[3.4345394E1,2.7890453E1,2.2588135E1,1.3544693E1,2.9131186E1,1.0292374E1,1.3281515E1,9.790123E0,1.6656605E1,1.3217583E1,1.4438023E1,0E0,8.683224E0,8.3747835E0,1.181138E1,5.860176E0,1.2551627E1,1.1767841E1,1.1986191E1,1.920075E1,3.6244469E0,1.0552585E1,1.6110682E1,5.6747437E0,0E0,0E0,2.979845E0,9.562247E0,9.737855E0,0E0,0E0,0E0,0E0,0E0,0E0,0E0,0E0,0E0,0E0,0E0,0E0,0E0,0E0,0E0,0E0,0E0,0E0,0E0,0E0,0E0,0E0,0E0,0E0],"parents":[2147483647,0,0,1,1,2,2,3,3,4,4,5,5,6,6,7,7,8,8,9,9,10,10,12,12,13,13,14,14,15,15,16,16,17,17,18,18,19,19,20,20,21,21,22,22,23,23,26,26,27,27,28,28],"right_children":[2,4,6,8,10,12,14,16,18,20,22,-1,24,26,28,30,32,34,36,38,40,42,44,46,-1,-1,48,50,52,-1,-1,-1,-1,-1,-1,-1,-1,-1,-1,-1,-1,-1,-1,-1,-1,-1,-1,-1,-1,-1,-1,-1,-1],"split_conditions":[6.0190505E-1,5.028876E-1,3.991695E-1,3.8513556E-1,4.5714387E-1,4.0094522E-1,4.496104E-1,5.8062494E-1,5.464822E-1,5.826344E-1,4.342308E-1,-2.5717525E-2,6.1180514E-1,4.5204434E-1,6.074412E-1,6.7809284E-1,4.3598405E-1,4.459935E-1,5.786337E-1,4.8700973E-1,6.001172E-1,5.9044504E-1,5.918814E-1,4.5255214E-1,6.7361267E-3,-5.1905323E-2,4.15201E-1,3.8818234E-1,6.081934E-1,-1.8776375E-1,-1.275258E-2,2.384785E-1,-1.3803598E-1,5.602998E-3,-1.2868418E-1,-1.9403068E-2,1.6152474E-1,-1.8326977E-1,1.3241315E-1,2.760969E-1,7.142951E-2,-1.55753E-1,4.3569144E-2,-3.4236368E-2,1.1599719E-1,3.3340195E-1,1.136871E-1,3.1594804E-1,1.0725065E-1,4.3016408E-2,-1.8287943E-1,1.8884885E-1,-1.1941495E-1],"split_indices":[509,698,226,209,599,492,377,457,294,456,552,0,528,1,232,571,44,541,7,607,588,717,236,408,0,0,381,467,252,0,0,0,0,0,0,0,0,0,0,0,0,0,0,0,0,0,0,0,0,0,0,0,0],"split_type":[0,0,0,0,0,0,0,0,0,0,0,0,0,0,0,0,0,0,0,0,0,0,0,0,0,0,0,0,0,0,0,0,0,0,0,0,0,0,0,0,0,0,0,0,0,0,0,0,0,0,0,0,0],"sum_hessian":[6.1766797E2,5.0687885E2,1.1078916E2,2.614045E2,2.4547433E2,4.3073494E1,6.771567E1,8.2083046E1,1.7932147E2,6.814589E1,1.7732843E2,6.202993E0,3.6870502E1,1.9009148E1,4.870652E1,6.959258E1,1.2490462E1,1.1599161E2,6.332986E1,4.143753E1,2.670836E1,5.383188E1,1.2349655E2,3.1678715E1,5.1917872E0,5.031881E0,1.3977267E1,3.1223276E1,1.7483242E1,6.068198E1,8.9106E0,5.188139E0,7.302323E0,3.9150623E1,7.684099E1,4.1984497E1,2.1345362E1,9.08352E0,3.235401E1,2.1615274E1,5.0930862E0,3.9992638E1,1.3839242E1,8.051633E1,4.2980225E1,2.4184587E1,7.494127E0,7.8293657E0,6.1479015E0,1.1123156E1,2.010012E1,1.2374808E1,5.108434E0],"tree_param":{"num_deleted":"0","num_feature":"768","num_nodes":"53","size_leaf_vector":"1"}},{"base_weights":[-2.0318046E-2,2.1264493E-1,-2.3787354E-1,-1.9436322E-1,4.6132654E-1,-4.272094E-1,9.870189E-2,4.8998725E-2,-8.446477E-1,-8.786682E-2,6.5146416E-1,-5.344608E-1,3.974984E-1,-3.5140854E-1,4.3535107E-1,7.0123196E-1,-1.9416717E-1,-1.0031049E0,-9.848363E-3,7.6084864E-1,-3.6381942E-1,3.9588118E-1,1.1035036E0,-2.3553574E-1,-7.327273E-1,2.872688E-1,1.0099028E-2,1.5994956E-1,-5.428349E-1,-2.8160298E-1,6.56889E-1,2.2358553E-1,-7.735219E-2,2.2462506E-2,-1.3587807E-1,-2.2264512E-1,-9.527247E-2,2.6353389E-2,2.3971629E-1,-1.4370936E-1,9.268158E-2,-7.1957976E-2,1.1948949E-1,2.846993E-1,6.068175E-2,8.612188E-3,-1.4776556E-1,-9.51438E-2,-1.9943099E-1,-1.0001879E-1,1.9941959E-1,-1.6523865E-1,3.2336805E-2,4.2933043E-2,-1.878589E-1,4.464398E-2,2.2921143E-1],"categories":[],"categories_nodes":[],"categories_segments":[],"categories_sizes":[],"default_left":[0,0,0,0,0,0,0,0,0,0,0,0,0,0,0,0,0,0,0,0,0,0,0,0,0,0,0,0,0,0,0,0,0,0,0,0,0,0,0,0,0,0,0,0,0,0,0,0,0,0,0,0,0,0,0,0,0],"id":11,"left_children":[1,3,5,7,9,11,13,15,17,19,21,23,25,27,29,31,33,35,-1,37,39,41,43,45,47,-1,49,-1,51,53,55,-1,-1,-1,-1,-1,-1,-1,-1,-1,-1,-1,-1,-1,-1,-1,-1,-1,-1,-1,-1,-1,-1,-1,-1,-1,-1],"loss_changes":[3.0492634E1,2.9500748E1,1.9865015E1,1.7593498E1,1.8923054E1,1.78376E1,1.7245525E1,1.3086255E1,3.7643242E0,1.1365161E1,1.5082054E1,1.0303375E1,9.4451E0,1.1192147E1,1.0505985E1,1.0583746E1,9.03775E0,9.3029404E-1,0E0,3.1300159E0,1.1015509E1,1.3522568E1,1.1846104E1,1.0121801E1,6.7157288E0,0E0,9.627037E0,0E0,8.608875E0,5.4366407E0,1.0338594E1,0E0,0E0,0E0,0E0,0E0,0E0,0E0,0E0,0E0,0E0,0E0,0E0,0E0,0E0,0E0,0E0,0E0,0E0,0E0,0E0,0E0,0E0,0E0,0E0,0E0,0E0],"parents":[2147483647,0,0,1,1,2,2,3,3,4,4,5,5,6,6,7,7,8,8,9,9,10,10,11,11,12,12,13,13,14,14,15,15,16,16,17,17,19,19,20,20,21,21,22,22,23,23,24,24,26,26,28,28,29,29,30,30],"right_children":[2,4,6,8,10,12,14,16,18,20,22,24,26,28,30,32,34,36,-1,38,40,42,44,46,48,-1,50,-1,52,54,56,-1,-1,-1,-1,-1,-1,-1,-1,-1,-1,-1,-1,-1,-1,-1,-1,-1,-1,-1,-1,-1,-1,-1,-1,-1,-1],"split_conditions":[5.1603615E-1,4.3536362E-1,6.089528E-1,6.256288E-1,4.0959084E-1,6.212174E-1,3.984897E-1,4.3187052E-1,7.2846115E-1,3.5097253E-1,5.305244E-1,4.700343E-1,4.0078586E-1,3.3318445E-1,4.1454604E-1,4.7514772E-1,5.408139E-1,6.6457504E-1,-9.848363E-3,4.9717116E-1,5.5596304E-1,5.1623714E-1,5.5312335E-1,5.7375157E-1,4.9647403E-1,2.872688E-1,5.4887027E-1,1.5994956E-1,6.312768E-1,4.3156895E-1,4.6937802E-1,2.2358553E-1,-7.735219E-2,2.2462506E-2,-1.3587807E-1,-2.2264512E-1,-9.527247E-2,2.6353389E-2,2.3971629E-1,-1.4370936E-1,9.268158E-2,-7.1957976E-2,1.1948949E-1,2.846993E-1,6.068175E-2,8.612188E-3,-1.4776556E-1,-9.51438E-2,-1.9943099E-1,-1.0001879E-1,1.9941959E-1,-1.6523865E-1,3.2336805E-2,4.2933043E-2,-1.878589E-1,4.464398E-2,2.2921143E-1],"split_indices":[252,203,359,229,318,110,640,716,92,578,662,626,116,439,27,204,750,177,0,161,509,420,731,322,439,0,82,0,251,286,110,0,0,0,0,0,0,0,0,0,0,0,0,0,0,0,0,0,0,0,0,0,0,0,0,0,0],"split_type":[0,0,0,0,0,0,0,0,0,0,0,0,0,0,0,0,0,0,0,0,0,0,0,0,0,0,0,0,0,0,0,0,0,0,0,0,0,0,0,0,0,0,0,0,0,0,0,0,0,0,0,0,0,0,0,0,0],"sum_hessian":[5.9964374E2,2.89579E2,3.1006473E2,1.0991066E2,1.7966837E2,1.9826448E2,1.1180023E2,8.065213E1,2.9258535E1,4.634458E1,1.3332378E2,1.7575932E2,2.250516E1,4.7819817E1,6.398042E1,2.139133E1,5.9260796E1,2.4180317E1,5.0782194E0,1.0940127E1,3.5404453E1,8.6367424E1,4.6956356E1,7.0960556E1,1.0479876E2,5.3774357E0,1.7127724E1,6.3650846E0,4.145473E1,1.5039047E1,4.8941372E1,1.5447503E1,5.943828E0,3.6791103E1,2.246969E1,1.9078382E1,5.101933E0,5.022759E0,5.9173684E0,2.4870844E1,1.0533608E1,1.8021168E1,6.834626E1,3.298504E1,1.3971317E1,4.6265045E1,2.4695513E1,5.456439E1,5.023437E1,1.161638E1,5.511344E0,2.9440872E1,1.2013858E1,8.955321E0,6.083726E0,2.6714294E1,2.2227077E1],"tree_param":{"num_deleted":"0","num_feature":"768","num_nodes":"57","size_leaf_vector":"1"}},{"base_weights":[5.4231063E-3,2.4602737E-1,-2.1219611E-1,-1.2946075E-1,4.737448E-1,-4.7466516E-1,2.5255913E-2,6.310043E-1,-3.042705E-1,8.354867E-1,1.6776495E-1,-7.136236E-2,-6.478069E-1,-3.8524643E-1,2.9739842E-1,1.0256461E0,-8.168488E-2,5.7572156E-1,-4.5696518E-1,9.641338E-1,-6.7119285E-2,-2.4083978E-1,5.2759653E-1,-5.5253065E-1,4.382134E-1,4.336404E-2,-7.234189E-1,2.3947269E-1,-6.4702815E-1,4.7798444E-2,1.0278971E0,2.830935E-2,3.014809E-1,-3.5608325E-2,2.6489124E-1,-1.2885033E-1,6.979158E-2,-2.5469488E-2,2.2397335E-1,9.225145E-2,-8.7450765E-2,1.4188538E-1,-1.0336652E-1,4.6776086E-2,-1.6133393E-1,2.859423E-1,-2.0466713E-2,-7.323626E-3,-1.6639705E-1,-1.2545268E-1,1.2279707E-1,2.823155E-2,-1.8310092E-1,3.658716E-2,-1.7325309E-1,1.994247E-2,2.8190956E-1],"categories":[],"categories_nodes":[],"categories_segments":[],"categories_sizes":[],"default_left":[0,0,0,0,0,0,0,0,0,0,0,0,0,0,0,0,0,0,0,0,0,0,0,0,0,0,0,0,0,0,0,0,0,0,0,0,0,0,0,0,0,0,0,0,0,0,0,0,0,0,0,0,0,0,0,0,0],"id":12,"left_children":[1,3,5,7,9,11,13,15,17,19,21,23,25,27,29,31,-1,33,35,37,-1,39,41,43,45,-1,47,49,51,53,55,-1,-1,-1,-1,-1,-1,-1,-1,-1,-1,-1,-1,-1,-1,-1,-1,-1,-1,-1,-1,-1,-1,-1,-1,-1,-1],"loss_changes":[3.0330812E1,2.358361E1,1.8969555E1,1.4102241E1,1.8837963E1,1.0046013E1,1.8061562E1,8.574926E0,1.1786014E1,1.2122852E1,1.3968425E1,1.1161671E1,6.759468E0,1.0700016E1,1.7668028E1,6.0460587E0,0E0,7.6416726E0,1.1338831E1,1.2181465E1,0E0,6.3754377E0,9.932593E0,4.8549705E0,1.2037237E1,0E0,6.911625E0,6.802767E0,9.801762E0,9.234077E0,8.608252E0,0E0,0E0,0E0,0E0,0E0,0E0,0E0,0E0,0E0,0E0,0E0,0E0,0E0,0E0,0E0,0E0,0E0,0E0,0E0,0E0,0E0,0E0,0E0,0E0,0E0,0E0],"parents":[2147483647,0,0,1,1,2,2,3,3,4,4,5,5,6,6,7,7,8,8,9,9,10,10,11,11,12,12,13,13,14,14,15,15,17,17,18,18,19,19,21,21,22,22,23,23,24,24,26,26,27,27,28,28,29,29,30,30],"right_children":[2,4,6,8,10,12,14,16,18,20,22,24,26,28,30,32,-1,34,36,38,-1,40,42,44,46,-1,48,50,52,54,56,-1,-1,-1,-1,-1,-1,-1,-1,-1,-1,-1,-1,-1,-1,-1,-1,-1,-1,-1,-1,-1,-1,-1,-1,-1,-1],"split_conditions":[4.9007994E-1,4.8896477E-1,5.380969E-1,3.227173E-1,4.7606903E-1,5.212321E-1,4.948176E-1,5.878377E-1,3.7607753E-1,6.3303864E-1,4.9028155E-1,4.9741325E-1,2.4311294E-1,4.234594E-1,4.5309874E-1,4.0655717E-1,-8.168488E-2,5.537404E-1,6.4355206E-1,3.4491044E-1,-6.7119285E-2,4.5883876E-1,6.2291443E-1,4.254699E-1,3.3435553E-1,4.336404E-2,3.881143E-1,3.7974507E-1,4.5006382E-1,7.059729E-1,4.777198E-1,2.830935E-2,3.014809E-1,-3.5608325E-2,2.6489124E-1,-1.2885033E-1,6.979158E-2,-2.5469488E-2,2.2397335E-1,9.225145E-2,-8.7450765E-2,1.4188538E-1,-1.0336652E-1,4.6776086E-2,-1.6133393E-1,2.859423E-1,-2.0466713E-2,-7.323626E-3,-1.6639705E-1,-1.2545268E-1,1.2279707E-1,2.823155E-2,-1.8310092E-1,3.658716E-2,-1.7325309E-1,1.994247E-2,2.8190956E-1],"split_indices":[31,299,253,503,103,419,552,702,52,550,221,457,337,626,115,248,0,224,509,334,0,573,490,69,381,0,701,373,660,624,760,0,0,0,0,0,0,0,0,0,0,0,0,0,0,0,0,0,0,0,0,0,0,0,0,0,0],"split_type":[0,0,0,0,0,0,0,0,0,0,0,0,0,0,0,0,0,0,0,0,0,0,0,0,0,0,0,0,0,0,0,0,0,0,0,0,0,0,0,0,0,0,0,0,0,0,0,0,0,0,0,0,0,0,0,0,0],"sum_hessian":[5.7727625E2,2.740977E2,3.0317853E2,1.036381E2,1.7045958E2,1.4352895E2,1.596496E2,1.8882957E1,8.475514E1,7.7319176E1,9.31404E1,4.3534725E1,9.9994225E1,6.3480057E1,9.616953E1,1.3696169E1,5.1867895E0,1.2122392E1,7.263275E1,6.9825356E1,7.493814E0,4.376921E1,4.9371193E1,2.2348139E1,2.1186586E1,7.8911386E0,9.210309E1,1.8770683E1,4.4709373E1,7.247231E1,2.3697222E1,5.2871904E0,8.408978E0,6.420739E0,5.7016525E0,5.9099396E1,1.3533357E1,8.741474E0,6.1083885E1,9.273169E0,3.449604E1,4.23236E1,7.0475955E0,5.477672E0,1.6870466E1,6.8948236E0,1.4291762E1,1.2754463E1,7.9348625E1,5.459911E0,1.3310772E1,1.1480236E1,3.3229137E1,6.38347E1,8.637608E0,7.2722297E0,1.6424992E1],"tree_param":{"num_deleted":"0","num_feature":"768","num_nodes":"57","size_leaf_vector":"1"}},{"base_weights":[-2.403062E-2,1.9304596E-1,-2.4720906E-1,-4.169797E-2,4.2289832E-1,-4.2313632E-1,1.3724858E-1,1.6235222E-1,-5.143723E-1,3.02019E-2,6.4570755E-1,1.9325441E-1,-5.2817816E-1,6.3014495E-1,-3.2693377E-1,-1.6002856E-1,5.2523404E-1,7.413852E-2,-7.205662E-1,5.805344E-1,-3.5376576E-1,9.7696483E-1,3.490699E-1,-5.706071E-1,6.6718614E-1,-6.246976E-1,3.627517E-2,1.0227387E0,-1.5125993E-1,-6.055503E-1,4.0098998E-1,1.1918712E-1,-7.401447E-2,-7.9014085E-2,1.5905216E-1,3.2139704E-2,-1.7478137E-1,-9.612197E-2,1.8532954E-1,1.4954492E-1,-1.1807754E-1,2.5094694E-1,6.7880034E-2,-8.317578E-2,1.2987676E-1,-1.9416244E-1,-1.6569896E-2,2.3889564E-1,-1.39874695E-2,-1.5569207E-1,-5.030766E-2,-1.2197919E-1,1.3435814E-1,9.358093E-3,2.4842401E-1,-1.723601E-1,9.165665E-2,2.9257426E-2,-1.7163824E-1,2.1764114E-1,-9.821833E-2],"categories":[],"categories_nodes":[],"categories_segments":[],"categories_sizes":[],"default_left":[0,0,0,0,0,0,0,0,0,0,0,0,0,0,0,0,0,0,0,0,0,0,0,0,0,0,0,0,0,0,0,0,0,0,0,0,0,0,0,0,0,0,0,0,0,0,0,0,0,0,0,0,0,0,0,0,0,0,0,0,0],"id":13,"left_children":[1,3,5,7,9,11,13,15,17,19,21,23,25,27,29,31,33,-1,35,37,39,41,43,45,47,49,51,53,55,57,59,-1,-1,-1,-1,-1,-1,-1,-1,-1,-1,-1,-1,-1,-1,-1,-1,-1,-1,-1,-1,-1,-1,-1,-1,-1,-1,-1,-1,-1,-1],"loss_changes":[2.7067833E1,1.5302965E1,1.86877E1,1.3689033E1,1.251227E1,1.2352901E1,2.0162743E1,1.1699558E1,8.073227E0,1.1382832E1,8.633377E0,1.0619163E1,8.844711E0,1.3237427E1,9.486927E0,8.691022E0,1.1980134E1,0E0,4.8744183E0,8.56849E0,8.724176E0,7.116905E0,1.1696297E1,2.1385605E0,7.046346E0,7.7417793E0,1.0508113E1,6.04681E0,6.94883E0,6.462371E0,8.637969E0,0E0,0E0,0E0,0E0,0E0,0E0,0E0,0E0,0E0,0E0,0E0,0E0,0E0,0E0,0E0,0E0,0E0,0E0,0E0,0E0,0E0,0E0,0E0,0E0,0E0,0E0,0E0,0E0,0E0,0E0],"parents":[2147483647,0,0,1,1,2,2,3,3,4,4,5,5,6,6,7,7,8,8,9,9,10,10,11,11,12,12,13,13,14,14,15,15,16,16,18,18,19,19,20,20,21,21,22,22,23,23,24,24,25,25,26,26,27,27,28,28,29,29,30,30],"right_children":[2,4,6,8,10,12,14,16,18,20,22,24,26,28,30,32,34,-1,36,38,40,42,44,46,48,50,52,54,56,58,60,-1,-1,-1,-1,-1,-1,-1,-1,-1,-1,-1,-1,-1,-1,-1,-1,-1,-1,-1,-1,-1,-1,-1,-1,-1,-1,-1,-1,-1,-1],"split_conditions":[4.9319857E-1,5.360962E-1,5.74515E-1,5.2954155E-1,4.7735214E-1,3.766262E-1,5.4706955E-1,6.0658705E-1,3.812167E-1,3.8990542E-1,4.5707935E-1,4.753862E-1,6.455744E-1,5.229893E-1,5.543857E-1,4.2140985E-1,4.638722E-1,7.413852E-2,3.2842848E-1,3.6646983E-1,4.0255803E-1,5.779208E-1,4.5049798E-1,5.5379784E-1,5.206976E-1,5.5853355E-1,4.7422457E-1,3.279912E-1,4.9607408E-1,3.5031226E-1,4.6481946E-1,1.1918712E-1,-7.401447E-2,-7.9014085E-2,1.5905216E-1,3.2139704E-2,-1.7478137E-1,-9.612197E-2,1.8532954E-1,1.4954492E-1,-1.1807754E-1,2.5094694E-1,6.7880034E-2,-8.317578E-2,1.2987676E-1,-1.9416244E-1,-1.6569896E-2,2.3889564E-1,-1.39874695E-2,-1.5569207E-1,-5.030766E-2,-1.2197919E-1,1.3435814E-1,9.358093E-3,2.4842401E-1,-1.723601E-1,9.165665E-2,2.9257426E-2,-1.7163824E-1,2.1764114E-1,-9.821833E-2],"split_indices":[626,285,108,84,253,252,229,270,670,204,204,264,223,239,445,353,254,0,208,141,145,248,191,1,122,457,248,335,552,204,390,0,0,0,0,0,0,0,0,0,0,0,0,0,0,0,0,0,0,0,0,0,0,0,0,0,0,0,0,0,0],"split_type":[0,0,0,0,0,0,0,0,0,0,0,0,0,0,0,0,0,0,0,0,0,0,0,0,0,0,0,0,0,0,0,0,0,0,0,0,0,0,0,0,0,0,0,0,0,0,0,0,0,0,0,0,0,0,0,0,0,0,0,0,0],"sum_hessian":[5.567273E2,2.8229016E2,2.7443713E2,1.4006401E2,1.4222617E2,1.8821132E2,8.622583E1,9.82896E1,4.1774406E1,5.189605E1,9.033012E1,2.7281618E1,1.609297E2,4.164605E1,4.4579784E1,5.2345425E1,4.5944176E1,7.742555E0,3.4031853E1,2.1117237E1,3.0778812E1,4.159133E1,4.873879E1,1.0367603E1,1.6914015E1,1.3733856E2,2.3591131E1,2.7513737E1,1.413231E1,3.2361404E1,1.2218379E1,1.0982248E1,4.136318E1,1.0317391E1,3.562678E1,5.036805E0,2.8995047E1,5.0981865E0,1.601905E1,5.0607414E0,2.5718071E1,2.8295662E1,1.3295668E1,1.3631728E1,3.510706E1,5.1509175E0,5.2166853E0,9.498747E0,7.415268E0,9.64922E1,4.0846363E1,1.1717489E1,1.1873642E1,5.2723293E0,2.2241407E1,6.3344436E0,7.797867E0,8.245244E0,2.411616E1,6.777487E0,5.440892E0],"tree_param":{"num_deleted":"0","num_feature":"768","num_nodes":"61","size_leaf_vector":"1"}},{"base_weights":[-1.917409E-3,-2.4238388E-1,1.4285177E-1,-3.8574082E-1,1.8978253E-1,-8.016264E-3,5.0363487E-1,1.5029278E-1,-4.9412367E-1,6.5994525E-1,-3.3415192E-1,-1.3751683E-1,4.93731E-1,2.9475681E-2,7.81677E-1,1.6999714E-1,-2.9151282E-1,4.139389E-1,-5.768656E-1,9.9795735E-1,-7.887619E-2,1.018099E-1,-5.983865E-1,3.1811848E-1,-2.9080147E-1,7.808297E-1,-2.6740804E-2,1.9408542E-1,-2.4772312E-1,3.5458243E-1,1.0797787E0,-1.5733777E-1,1.0308683E-1,2.2245276E-1,-7.151785E-2,-8.50141E-3,-1.4119191E-1,1.6560283E-2,2.627947E-1,-1.7898467E-1,4.0792465E-2,-8.535849E-2,1.2385811E-1,1.4477949E-1,-7.172411E-2,2.102813E-1,7.447207E-3,6.9847696E-2,-1.392714E-1,1.3448672E-1,-9.528255E-2,1.6744296E-1,-6.288329E-2,2.4741004E-1,1.8791495E-2],"categories":[],"categories_nodes":[],"categories_segments":[],"categories_sizes":[],"default_left":[0,0,0,0,0,0,0,0,0,0,0,0,0,0,0,0,0,0,0,0,0,0,0,0,0,0,0,0,0,0,0,0,0,0,0,0,0,0,0,0,0,0,0,0,0,0,0,0,0,0,0,0,0,0,0],"id":14,"left_children":[1,3,5,7,9,11,13,15,17,19,21,23,25,27,29,-1,31,33,35,37,-1,-1,39,41,43,45,47,-1,49,51,53,-1,-1,-1,-1,-1,-1,-1,-1,-1,-1,-1,-1,-1,-1,-1,-1,-1,-1,-1,-1,-1,-1,-1,-1],"loss_changes":[1.8943518E1,1.27422285E1,1.8492983E1,9.014431E0,1.2933043E1,1.5695007E1,1.3183672E1,8.485474E0,9.87376E0,1.0206448E1,5.8906155E0,1.3498425E1,7.4260616E0,1.0169624E1,7.6518135E0,0E0,7.2298717E0,6.4811563E0,8.106098E0,6.0032043E0,0E0,0E0,4.8337693E0,1.1211664E1,1.0179415E1,6.393648E0,4.922173E0,0E0,6.675723E0,9.119878E0,5.570282E0,0E0,0E0,0E0,0E0,0E0,0E0,0E0,0E0,0E0,0E0,0E0,0E0,0E0,0E0,0E0,0E0,0E0,0E0,0E0,0E0,0E0,0E0,0E0,0E0],"parents":[2147483647,0,0,1,1,2,2,3,3,4,4,5,5,6,6,7,7,8,8,9,9,10,10,11,11,12,12,13,13,14,14,16,16,17,17,18,18,19,19,22,22,23,23,24,24,25,25,26,26,28,28,29,29,30,30],"right_children":[2,4,6,8,10,12,14,16,18,20,22,24,26,28,30,-1,32,34,36,38,-1,-1,40,42,44,46,48,-1,50,52,54,-1,-1,-1,-1,-1,-1,-1,-1,-1,-1,-1,-1,-1,-1,-1,-1,-1,-1,-1,-1,-1,-1,-1,-1],"split_conditions":[4.906736E-1,5.726976E-1,5.856938E-1,3.932569E-1,5.7558864E-1,6.4074415E-1,4.1554752E-1,3.4970012E-1,3.384587E-1,5.872227E-1,3.5848653E-1,4.3838358E-1,5.5730224E-1,5.0356996E-1,5.169958E-1,1.6999714E-1,5.827871E-1,5.308201E-1,2.9578188E-1,4.5062238E-1,-7.887619E-2,1.018099E-1,4.1932604E-1,3.8006645E-1,2.353251E-1,5.819905E-1,4.610105E-1,1.9408542E-1,3.7374568E-1,5.1563585E-1,5.2700204E-1,-1.5733777E-1,1.0308683E-1,2.2245276E-1,-7.151785E-2,-8.50141E-3,-1.4119191E-1,1.6560283E-2,2.627947E-1,-1.7898467E-1,4.0792465E-2,-8.535849E-2,1.2385811E-1,1.4477949E-1,-7.172411E-2,2.102813E-1,7.447207E-3,6.9847696E-2,-1.392714E-1,1.3448672E-1,-9.528255E-2,1.6744296E-1,-6.288329E-2,2.4741004E-1,1.8791495E-2],"split_indices":[422,640,108,229,166,147,110,535,25,127,533,252,735,63,661,0,428,458,381,40,0,0,115,496,738,557,630,0,226,139,258,0,0,0,0,0,0,0,0,0,0,0,0,0,0,0,0,0,0,0,0,0,0,0,0],"split_type":[0,0,0,0,0,0,0,0,0,0,0,0,0,0,0,0,0,0,0,0,0,0,0,0,0,0,0,0,0,0,0,0,0,0,0,0,0,0,0,0,0,0,0,0,0,0,0,0,0,0,0,0,0,0,0],"sum_hessian":[5.421696E2,2.0349062E2,3.3867902E2,1.5288387E2,5.060675E1,2.3950386E2,9.917514E1,2.5648134E1,1.27235725E2,2.6535242E1,2.4071507E1,1.9094662E2,4.8557247E1,3.706772E1,6.210742E1,9.569271E0,1.6078863E1,1.0291164E1,1.16944565E2,2.0133877E1,6.401364E0,5.522405E0,1.8549103E1,4.7796677E1,1.4314995E2,3.0972303E1,1.7584944E1,7.8659425E0,2.9201777E1,2.6430098E1,3.5677322E1,9.979893E0,6.09897E0,5.1700325E0,5.1211324E0,2.301361E1,9.3930954E1,5.49188E0,1.4641997E1,1.3459341E1,5.0897613E0,1.3640794E1,3.4155884E1,8.362184E0,1.3478777E2,2.24055E1,8.566802E0,1.1568088E1,6.0168552E0,5.4266605E0,2.3775116E1,1.520755E1,1.1222548E1,3.0548906E1,5.128417E0],"tree_param":{"num_deleted":"0","num_feature":"768","num_nodes":"55","size_leaf_vector":"1"}},{"base_weights":[-1.2445323E-2,-2.797017E-1,1.2090888E-1,-6.862593E-2,-5.79843E-1,-1.3334706E-1,3.2201958E-1,1.2831335E-1,-7.4648124E-1,-6.699623E-1,6.1237134E-2,-4.345412E-1,2.8151283E-1,8.225253E-2,7.354419E-1,-3.8852143E-1,4.3394792E-1,-1.9560281E-2,-2.0908526E-1,-8.802113E-1,-1.9941007E-1,-6.714127E-1,-4.2000245E-2,-1.4024086E-1,6.988096E-1,2.0780943E-1,-5.5693126E-1,8.4070927E-1,-9.944128E-2,-1.896764E-1,6.194021E-3,-5.646753E-2,1.2990229E-1,1.0798382E-2,-2.0030288E-1,1.18861966E-1,-1.0638156E-1,-1.5703817E-1,3.2068696E-2,-1.5116255E-1,6.5424055E-2,-1.255246E-1,6.381525E-2,2.029739E-3,2.0227885E-1,1.1703769E-1,-1.47192925E-2,2.376357E-2,-1.9615202E-1,2.8248832E-1,1.1821087E-1],"categories":[],"categories_nodes":[],"categories_segments":[],"categories_sizes":[],"default_left":[0,0,0,0,0,0,0,0,0,0,0,0,0,0,0,0,0,0,0,0,0,0,0,0,0,0,0,0,0,0,0,0,0,0,0,0,0,0,0,0,0,0,0,0,0,0,0,0,0,0,0],"id":15,"left_children":[1,3,5,7,9,11,13,15,17,19,-1,21,23,25,27,29,31,-1,-1,33,35,37,39,41,43,45,47,49,-1,-1,-1,-1,-1,-1,-1,-1,-1,-1,-1,-1,-1,-1,-1,-1,-1,-1,-1,-1,-1,-1,-1],"loss_changes":[1.8658895E1,1.100009E1,1.7905518E1,1.3905295E1,5.939533E0,1.948859E1,1.9302954E1,1.2965153E1,4.442232E0,6.304571E0,0E0,8.357677E0,1.167848E1,1.012858E1,9.70594E0,7.22337E0,8.116496E0,0E0,0E0,5.1511497E0,5.995701E0,5.4425697E0,9.471253E0,7.712618E0,7.1454945E0,1.1194639E1,6.0610523E0,8.631256E0,0E0,0E0,0E0,0E0,0E0,0E0,0E0,0E0,0E0,0E0,0E0,0E0,0E0,0E0,0E0,0E0,0E0,0E0,0E0,0E0,0E0,0E0,0E0],"parents":[2147483647,0,0,1,1,2,2,3,3,4,4,5,5,6,6,7,7,8,8,9,9,11,11,12,12,13,13,14,14,15,15,16,16,19,19,20,20,21,21,22,22,23,23,24,24,25,25,26,26,27,27],"right_children":[2,4,6,8,10,12,14,16,18,20,-1,22,24,26,28,30,32,-1,-1,34,36,38,40,42,44,46,48,50,-1,-1,-1,-1,-1,-1,-1,-1,-1,-1,-1,-1,-1,-1,-1,-1,-1,-1,-1,-1,-1,-1,-1],"split_conditions":[4.3630052E-1,5.096979E-1,5.351956E-1,6.0718936E-1,6.9948596E-1,5.1715785E-1,5.472908E-1,4.151946E-1,4.7419882E-1,6.053835E-1,6.1237134E-2,4.9111807E-1,4.7732866E-1,6.3522786E-1,6.8589556E-1,4.169047E-1,4.523366E-1,-1.9560281E-2,-2.0908526E-1,4.3198273E-1,3.6213198E-1,6.797215E-1,4.281561E-1,6.0676754E-1,4.469876E-1,4.51946E-1,4.1389453E-1,4.3354756E-1,-9.944128E-2,-1.896764E-1,6.194021E-3,-5.646753E-2,1.2990229E-1,1.0798382E-2,-2.0030288E-1,1.18861966E-1,-1.0638156E-1,-1.5703817E-1,3.2068696E-2,-1.5116255E-1,6.5424055E-2,-1.255246E-1,6.381525E-2,2.029739E-3,2.0227885E-1,1.1703769E-1,-1.47192925E-2,2.376357E-2,-1.9615202E-1,2.8248832E-1,1.1821087E-1],"split_indices":[643,550,190,624,531,227,347,299,483,212,0,325,11,353,631,318,715,0,0,579,370,700,301,736,746,541,337,686,0,0,0,0,0,0,0,0,0,0,0,0,0,0,0,0,0,0,0,0,0,0,0],"split_type":[0,0,0,0,0,0,0,0,0,0,0,0,0,0,0,0,0,0,0,0,0,0,0,0,0,0,0,0,0,0,0,0,0,0,0,0,0,0,0,0,0,0,0,0,0,0,0,0,0,0,0],"sum_hessian":[5.215926E2,1.7326108E2,3.4833154E2,1.0244488E2,7.08162E1,1.5398792E2,1.9434361E2,8.001004E1,2.2434843E1,6.4499695E1,6.316503E0,8.918842E1,6.479949E1,1.2376452E2,7.05791E1,2.9631433E1,5.0378605E1,7.496143E0,1.49387E1,4.3978794E1,2.05209E1,5.5180412E1,3.400801E1,3.2557846E1,3.224165E1,1.0400865E2,1.9755867E1,6.531888E1,5.260226E0,1.2152162E1,1.747927E1,1.1582365E1,3.8796238E1,5.117998E0,3.8860798E1,5.825998E0,1.4694903E1,4.8589684E1,6.590728E0,1.1234639E1,2.277337E1,1.5618551E1,1.6939297E1,1.0388041E1,2.1853607E1,4.3967102E1,6.0041546E1,7.8922257E0,1.1863641E1,1.8437582E1,4.6881294E1],"tree_param":{"num_deleted":"0","num_feature":"768","num_nodes":"51","size_leaf_vector":"1"}},{"base_weights":[-2.333566E-2,1.7419133E-1,-1.6599177E-1,6.031484E-1,-2.7127901E-2,8.010565E-2,-3.956741E-1,1.925715E-1,9.039105E-1,-3.303052E-1,2.1205361E-1,-1.796905E-1,4.0246403E-1,-5.754269E-1,-6.4575985E-2,-1.295445E-1,5.1766264E-1,1.0680268E0,-4.616314E-3,-8.7247735E-1,6.513533E-2,5.951367E-1,-1.4809835E-1,4.3183893E-2,-5.604478E-1,7.0312226E-1,-5.1830452E-2,-7.309582E-1,-2.258171E-1,5.180089E-1,-3.4334406E-1,1.9978811E-1,-5.106343E-2,6.2448252E-2,2.6004326E-1,-3.9066255E-2,-2.0323956E-1,-1.0630741E-1,6.9556676E-2,-5.4593023E-2,1.6913679E-1,-1.00651994E-1,1.4637256E-1,-5.5681147E-2,1.3700472E-1,3.2145288E-2,-1.569842E-1,2.1440502E-1,3.6559533E-2,1.8183331E-1,-7.738733E-2,4.9052414E-2,-1.6274403E-1,1.03598E-1,-9.610738E-2,-2.1719983E-2,2.1630405E-1,1.03785895E-1,-1.09761275E-1],"categories":[],"categories_nodes":[],"categories_segments":[],"categories_sizes":[],"default_left":[0,0,0,0,0,0,0,0,0,0,0,0,0,0,0,0,0,0,0,0,0,0,0,0,0,0,0,0,0,0,0,0,0,0,0,0,0,0,0,0,0,0,0,0,0,0,0,0,0,0,0,0,0,0,0,0,0,0,0],"id":16,"left_children":[1,3,5,7,9,11,13,15,17,19,21,23,25,27,29,-1,31,33,-1,35,37,39,41,43,45,47,49,51,53,55,57,-1,-1,-1,-1,-1,-1,-1,-1,-1,-1,-1,-1,-1,-1,-1,-1,-1,-1,-1,-1,-1,-1,-1,-1,-1,-1,-1,-1],"loss_changes":[1.4307454E1,1.8408825E1,1.669152E1,8.23189E0,1.0650528E1,1.205793E1,9.046244E0,8.544779E0,5.960907E0,1.3936256E1,1.1425209E1,6.807952E0,8.802156E0,5.2067986E0,9.082466E0,0E0,8.523112E0,5.415203E0,0E0,2.4653912E0,6.6549816E0,8.934663E0,1.3855229E1,1.0790332E1,4.915827E0,7.229988E0,8.882376E0,5.687702E0,6.2861137E0,6.523963E0,6.9613767E0,0E0,0E0,0E0,0E0,0E0,0E0,0E0,0E0,0E0,0E0,0E0,0E0,0E0,0E0,0E0,0E0,0E0,0E0,0E0,0E0,0E0,0E0,0E0,0E0,0E0,0E0,0E0,0E0],"parents":[2147483647,0,0,1,1,2,2,3,3,4,4,5,5,6,6,7,7,8,8,9,9,10,10,11,11,12,12,13,13,14,14,16,16,17,17,19,19,20,20,21,21,22,22,23,23,24,24,25,25,26,26,27,27,28,28,29,29,30,30],"right_children":[2,4,6,8,10,12,14,16,18,20,22,24,26,28,30,-1,32,34,-1,36,38,40,42,44,46,48,50,52,54,56,58,-1,-1,-1,-1,-1,-1,-1,-1,-1,-1,-1,-1,-1,-1,-1,-1,-1,-1,-1,-1,-1,-1,-1,-1,-1,-1,-1,-1],"split_conditions":[4.662894E-1,3.7293458E-1,4.1323176E-1,5.231629E-1,5.101017E-1,5.339334E-1,5.3642267E-1,3.8782236E-1,6.526259E-1,3.984102E-1,4.3194258E-1,3.9103585E-1,4.508502E-1,6.3076144E-1,4.3533257E-1,-1.295445E-1,4.077532E-1,3.637699E-1,-4.616314E-3,3.9285797E-1,4.837324E-1,3.4598577E-1,5.760168E-1,5.6696063E-1,5.019246E-1,5.503313E-1,2.8991926E-1,2.2671491E-1,4.0168554E-1,3.9863658E-1,4.075694E-1,1.9978811E-1,-5.106343E-2,6.2448252E-2,2.6004326E-1,-3.9066255E-2,-2.0323956E-1,-1.0630741E-1,6.9556676E-2,-5.4593023E-2,1.6913679E-1,-1.00651994E-1,1.4637256E-1,-5.5681147E-2,1.3700472E-1,3.2145288E-2,-1.569842E-1,2.1440502E-1,3.6559533E-2,1.8183331E-1,-7.738733E-2,4.9052414E-2,-1.6274403E-1,1.03598E-1,-9.610738E-2,-2.1719983E-2,2.1630405E-1,1.03785895E-1,-1.09761275E-1],"split_indices":[103,351,185,453,745,552,729,209,243,27,178,383,414,359,380,0,368,141,0,691,92,72,32,645,655,107,684,59,380,321,463,0,0,0,0,0,0,0,0,0,0,0,0,0,0,0,0,0,0,0,0,0,0,0,0,0,0,0,0],"split_type":[0,0,0,0,0,0,0,0,0,0,0,0,0,0,0,0,0,0,0,0,0,0,0,0,0,0,0,0,0,0,0,0,0,0,0,0,0,0,0,0,0,0,0,0,0,0,0,0,0,0,0,0,0,0,0,0,0,0,0],"sum_hessian":[5.0571872E2,2.1198094E2,2.937378E2,6.707218E1,1.4490875E2,1.4211609E2,1.516217E2,2.9052399E1,3.8019787E1,6.373709E1,8.117166E1,7.893949E1,6.31766E1,9.77924E1,5.38293E1,7.827495E0,2.1224905E1,3.217188E1,5.8479075E0,2.63725E1,3.736459E1,3.9017467E1,4.2154194E1,5.0352497E1,2.8586996E1,3.768707E1,2.5489532E1,6.69275E1,3.0864902E1,1.7143553E1,3.668575E1,1.2900429E1,8.324475E0,8.11195E0,2.4059929E1,5.0304403E0,2.134206E1,1.1727396E1,2.5637196E1,8.7188225E0,3.0298647E1,3.0337675E1,1.1816519E1,3.3922222E1,1.6430273E1,6.8532524E0,2.1733744E1,2.1431873E1,1.6255196E1,6.147381E0,1.9342152E1,5.077089E0,6.1850407E1,7.6098413E0,2.3255062E1,8.499559E0,8.643993E0,6.7657847E0,2.9919964E1],"tree_param":{"num_deleted":"0","num_feature":"768","num_nodes":"59","size_leaf_vector":"1"}},{"base_weights":[-2.2988193E-2,-2.2470883E-1,1.4250033E-1,-3.5684213E-2,-4.2890713E-1,-1.2641181E-1,3.3716938E-1,-5.2076346E-1,1.4451405E-1,-4.9700782E-1,1.5274689E-1,1.4130956E-1,-4.0775612E-1,7.2143555E-1,1.2850039E-1,-7.267427E-1,9.024352E-2,-5.165466E-1,3.1031504E-1,-5.7182914E-1,7.850617E-2,3.198641E-1,-6.42841E-1,1.1207352E-1,-5.532342E-1,9.4063437E-1,4.849928E-2,5.681896E-1,-1.1160512E-1,-1.9328848E-1,5.007232E-2,8.7321974E-2,-1.8708597E-1,1.2166976E-1,-2.3474725E-2,-1.4958665E-1,-3.4301747E-2,-4.9893986E-2,1.1649239E-1,-3.995004E-2,-1.9484143E-1,-1.3484661E-1,6.445335E-2,2.2054107E-1,-1.6292086E-2,1.21217266E-1,-1.0501065E-1,-5.530522E-2,1.6733648E-1,1.8723471E-1,-5.0818898E-2],"categories":[],"categories_nodes":[],"categories_segments":[],"categories_sizes":[],"default_left":[0,0,0,0,0,0,0,0,0,0,0,0,0,0,0,0,0,0,0,0,0,0,0,0,0,0,0,0,0,0,0,0,0,0,0,0,0,0,0,0,0,0,0,0,0,0,0,0,0,0,0],"id":17,"left_children":[1,3,5,7,9,11,13,15,17,19,-1,21,23,25,27,29,-1,31,33,35,-1,37,39,-1,41,43,45,47,49,-1,-1,-1,-1,-1,-1,-1,-1,-1,-1,-1,-1,-1,-1,-1,-1,-1,-1,-1,-1,-1,-1],"loss_changes":[1.6424387E1,8.5414505E0,1.4195724E1,1.0233317E1,9.027462E0,8.66379E0,1.2504478E1,6.6733828E0,9.533307E0,6.9685936E0,0E0,8.506942E0,8.192763E0,8.077835E0,1.0940574E1,6.4568357E0,0E0,7.4046593E0,8.865736E0,6.4897137E0,0E0,7.465205E0,1.468749E0,0E0,5.425104E0,6.962082E0,4.9827676E0,8.522038E0,1.0311851E1,0E0,0E0,0E0,0E0,0E0,0E0,0E0,0E0,0E0,0E0,0E0,0E0,0E0,0E0,0E0,0E0,0E0,0E0,0E0,0E0,0E0,0E0],"parents":[2147483647,0,0,1,1,2,2,3,3,4,4,5,5,6,6,7,7,8,8,9,9,11,11,12,12,13,13,14,14,15,15,17,17,18,18,19,19,21,21,22,22,24,24,25,25,26,26,27,27,28,28],"right_children":[2,4,6,8,10,12,14,16,18,20,-1,22,24,26,28,30,-1,32,34,36,-1,38,40,-1,42,44,46,48,50,-1,-1,-1,-1,-1,-1,-1,-1,-1,-1,-1,-1,-1,-1,-1,-1,-1,-1,-1,-1,-1,-1],"split_conditions":[4.8484778E-1,5.2711153E-1,4.6396008E-1,5.0902975E-1,7.576562E-1,4.9319857E-1,3.934292E-1,6.5722114E-1,4.0011993E-1,7.529176E-1,1.5274689E-1,6.0481125E-1,3.5387954E-1,7.003955E-1,4.2758206E-1,6.857892E-1,9.024352E-2,3.793651E-1,4.979121E-1,5.909013E-1,7.850617E-2,4.3647292E-1,4.878185E-1,1.1207352E-1,5.9989524E-1,6.40798E-1,5.5782276E-1,3.177203E-1,3.766262E-1,-1.9328848E-1,5.007232E-2,8.7321974E-2,-1.8708597E-1,1.2166976E-1,-2.3474725E-2,-1.4958665E-1,-3.4301747E-2,-4.9893986E-2,1.1649239E-1,-3.995004E-2,-1.9484143E-1,-1.3484661E-1,6.445335E-2,2.2054107E-1,-1.6292086E-2,1.21217266E-1,-1.0501065E-1,-5.530522E-2,1.6733648E-1,1.8723471E-1,-5.0818898E-2],"split_indices":[643,100,191,420,517,626,44,539,318,675,0,56,139,342,165,500,0,716,21,147,0,505,411,0,316,145,51,323,252,0,0,0,0,0,0,0,0,0,0,0,0,0,0,0,0,0,0,0,0,0,0],"split_type":[0,0,0,0,0,0,0,0,0,0,0,0,0,0,0,0,0,0,0,0,0,0,0,0,0,0,0,0,0,0,0,0,0,0,0,0,0,0,0,0,0,0,0,0,0,0,0,0,0,0,0],"sum_hessian":[4.900474E2,2.206862E2,2.6936118E2,1.1521107E2,1.0547514E2,1.1325857E2,1.5610262E2,3.0694365E1,8.45167E1,1.0032953E2,5.1456175E0,5.8289364E1,5.4969208E1,5.407169E1,1.02030914E2,2.5535307E1,5.1590567E0,1.6522964E1,6.799374E1,9.287476E1,7.4547653E0,4.796061E1,1.0328753E1,6.808473E0,4.8160732E1,4.0486134E1,1.3585555E1,3.5554996E1,6.647592E1,2.051384E1,5.021468E0,5.0315356E0,1.1491428E1,3.9821686E1,2.8172049E1,6.389744E1,2.8977318E1,1.5154463E1,3.280615E1,5.1051464E0,5.2236075E0,4.2514847E1,5.645886E0,3.4876923E1,5.6092143E0,6.859893E0,6.7256627E0,8.56823E0,2.6986769E1,7.291154E0,5.918477E1],"tree_param":{"num_deleted":"0","num_feature":"768","num_nodes":"51","size_leaf_vector":"1"}},{"base_weights":[2.3698192E-3,1.7840557E-1,-1.802499E-1,-3.7884852E-1,2.670293E-1,1.7817675E-1,-3.398921E-1,3.6131972E-1,-7.369073E-1,4.843935E-1,-2.7384672E-2,3.8024193E-1,-4.2764688E-1,1.1395275E-1,-3.8865283E-1,-7.9665884E-2,2.031002E-1,-2.4531458E-2,-9.0554804E-1,7.640322E-1,1.1261033E-1,6.860743E-1,-1.8780777E-1,-9.023531E-2,7.218298E-1,-8.6237967E-1,5.9455264E-2,-1.3027152E-1,-5.935687E-1,-2.085961E-1,-9.670013E-2,3.2579151E-3,1.8819317E-1,1.1410161E-1,-6.066647E-2,1.930782E-2,2.903961E-1,-7.183703E-2,8.257094E-2,-7.646249E-2,1.7109971E-1,2.0678854E-1,-6.999484E-4,-8.283493E-2,-2.268951E-1,-5.7962984E-2,1.1362157E-1,-1.4775626E-1,-1.2367892E-2],"categories":[],"categories_nodes":[],"categories_segments":[],"categories_sizes":[],"default_left":[0,0,0,0,0,0,0,0,0,0,0,0,0,0,0,0,0,0,0,0,0,0,0,0,0,0,0,0,0,0,0,0,0,0,0,0,0,0,0,0,0,0,0,0,0,0,0,0,0],"id":18,"left_children":[1,3,5,7,9,11,13,15,17,19,21,23,25,-1,27,-1,-1,-1,29,31,33,35,37,39,41,43,-1,45,47,-1,-1,-1,-1,-1,-1,-1,-1,-1,-1,-1,-1,-1,-1,-1,-1,-1,-1,-1,-1],"loss_changes":[1.5410127E1,1.2154829E1,1.3523531E1,9.251481E0,1.352693E1,9.118383E0,7.4569607E0,6.231054E0,2.2899637E0,1.2549149E1,1.0502417E1,8.9668E0,6.1712904E0,0E0,8.151657E0,0E0,0E0,0E0,5.4146767E-1,9.138462E0,1.0332893E1,7.4694886E0,7.8462553E0,7.008487E0,7.293602E0,9.9224854E-1,0E0,7.9668155E0,6.625374E0,0E0,0E0,0E0,0E0,0E0,0E0,0E0,0E0,0E0,0E0,0E0,0E0,0E0,0E0,0E0,0E0,0E0,0E0,0E0,0E0],"parents":[2147483647,0,0,1,1,2,2,3,3,4,4,5,5,6,6,7,7,8,8,9,9,10,10,11,11,12,12,14,14,18,18,19,19,20,20,21,21,22,22,23,23,24,24,25,25,27,27,28,28],"right_children":[2,4,6,8,10,12,14,16,18,20,22,24,26,-1,28,-1,-1,-1,30,32,34,36,38,40,42,44,-1,46,48,-1,-1,-1,-1,-1,-1,-1,-1,-1,-1,-1,-1,-1,-1,-1,-1,-1,-1,-1,-1],"split_conditions":[5.1223016E-1,3.8276035E-1,4.1988897E-1,3.9060402E-1,5.4347706E-1,6.3885224E-1,2.2547644E-1,5.3719795E-1,3.7744924E-1,4.8156866E-1,3.6271447E-1,5.4055935E-1,4.924686E-1,1.1395275E-1,4.267496E-1,-7.9665884E-2,2.031002E-1,-2.4531458E-2,4.6343294E-1,2.8589594E-1,5.712357E-1,4.314904E-1,6.2363696E-1,6.423761E-1,5.885664E-1,4.360262E-1,5.9455264E-2,7.0477295E-1,5.1283485E-1,-2.085961E-1,-9.670013E-2,3.2579151E-3,1.8819317E-1,1.1410161E-1,-6.066647E-2,1.930782E-2,2.903961E-1,-7.183703E-2,8.257094E-2,-7.646249E-2,1.7109971E-1,2.0678854E-1,-6.999484E-4,-8.283493E-2,-2.268951E-1,-5.7962984E-2,1.1362157E-1,-1.4775626E-1,-1.2367892E-2],"split_indices":[463,147,512,470,229,145,525,181,247,529,575,299,164,0,386,0,0,0,72,740,198,0,212,745,599,414,0,63,664,0,0,0,0,0,0,0,0,0,0,0,0,0,0,0,0,0,0,0,0],"split_type":[0,0,0,0,0,0,0,0,0,0,0,0,0,0,0,0,0,0,0,0,0,0,0,0,0,0,0,0,0,0,0,0,0,0,0,0,0,0,0,0,0,0,0,0,0,0,0,0,0],"sum_hessian":[4.773551E2,2.4307079E2,2.342843E2,3.290346E1,2.1016733E2,7.21586E1,1.621257E2,1.0724661E1,2.21788E1,1.2053311E2,8.963422E1,5.438987E1,1.776873E1,7.7047577E0,1.5442094E2,5.143279E0,5.581382E0,5.1495657E0,1.7029234E1,6.81892E1,5.2343914E1,1.5853108E1,7.3781105E1,2.3188131E1,3.120174E1,1.0989042E1,6.7796884E0,6.9023705E1,8.539724E1,1.17362795E1,5.2929544E0,1.3256737E1,5.4932465E1,2.47385E1,2.7605412E1,9.594247E0,6.258862E0,5.7715958E1,1.606515E1,1.8171774E1,5.0163574E0,2.1517271E1,9.684469E0,5.1038995E0,5.8851433E0,5.666395E1,1.2359753E1,6.677258E1,1.8624657E1],"tree_param":{"num_deleted":"0","num_feature":"768","num_nodes":"49","size_leaf_vector":"1"}},{"base_weights":[1.1249658E-2,1.77764E-1,-1.3962945E-1,-2.3272505E-1,3.0865443E-1,2.3119937E-1,-2.9600823E-1,5.235551E-1,-4.2477855E-1,1.8406191E-1,7.989628E-1,5.5683243E-1,-2.1737745E-1,-3.840533E-2,-5.127256E-1,-3.675353E-2,2.3288034E-1,-9.5815974E-1,-1.2221428E-1,4.114669E-1,-1.8365133E-1,1.0324764E0,-1.1091707E-2,-2.0343361E-2,9.033676E-1,3.3780977E-1,-5.775392E-1,2.714115E-1,-4.0247807E-1,9.7766414E-2,-5.8143246E-1,-2.37274E-1,-7.984925E-2,9.152391E-2,-1.1535578E-1,2.7857592E-2,1.6106838E-1,2.996916E-2,-1.19168244E-1,2.6340368E-1,2.1247437E-2,1.3984294E-1,-1.0576725E-1,2.3564108E-1,3.9023127E-2,1.578543E-1,-5.05036E-2,1.9863447E-2,-1.7351231E-1,-6.712162E-2,1.14199355E-1,5.673132E-2,-1.2641193E-1,2.3377761E-3,-1.3660783E-1],"categories":[],"categories_nodes":[],"categories_segments":[],"categories_sizes":[],"default_left":[0,0,0,0,0,0,0,0,0,0,0,0,0,0,0,0,0,0,0,0,0,0,0,0,0,0,0,0,0,0,0,0,0,0,0,0,0,0,0,0,0,0,0,0,0,0,0,0,0,0,0,0,0,0,0],"id":19,"left_children":[1,3,5,7,9,11,13,15,17,19,21,23,25,27,29,-1,-1,31,33,35,37,39,-1,41,43,45,47,49,51,-1,53,-1,-1,-1,-1,-1,-1,-1,-1,-1,-1,-1,-1,-1,-1,-1,-1,-1,-1,-1,-1,-1,-1,-1,-1],"loss_changes":[1.1700646E1,1.1965377E1,1.4239693E1,8.078638E0,1.0132484E1,1.0791168E1,9.600858E0,5.382284E0,6.933238E0,1.1404041E1,6.800276E0,8.539742E0,6.4823437E0,9.112348E0,6.7190228E0,0E0,0E0,1.5245514E0,7.9131107E0,8.894805E0,7.3005314E0,6.8688507E0,0E0,6.5757155E0,4.956316E0,3.6646833E0,3.9023361E0,8.142154E0,6.023185E0,0E0,5.3091297E0,0E0,0E0,0E0,0E0,0E0,0E0,0E0,0E0,0E0,0E0,0E0,0E0,0E0,0E0,0E0,0E0,0E0,0E0,0E0,0E0,0E0,0E0,0E0,0E0],"parents":[2147483647,0,0,1,1,2,2,3,3,4,4,5,5,6,6,7,7,8,8,9,9,10,10,11,11,12,12,13,13,14,14,17,17,18,18,19,19,20,20,21,21,23,23,24,24,25,25,26,26,27,27,28,28,30,30],"right_children":[2,4,6,8,10,12,14,16,18,20,22,24,26,28,30,-1,-1,32,34,36,38,40,-1,42,44,46,48,50,52,-1,54,-1,-1,-1,-1,-1,-1,-1,-1,-1,-1,-1,-1,-1,-1,-1,-1,-1,-1,-1,-1,-1,-1,-1,-1],"split_conditions":[5.452882E-1,3.8933977E-1,4.122504E-1,3.98622E-1,6.3795185E-1,4.0833804E-1,4.145843E-1,5.472629E-1,3.4520924E-1,5.3802526E-1,6.420623E-1,3.6667868E-1,5.0116986E-1,5.84715E-1,2.0229128E-1,-3.675353E-2,2.3288034E-1,4.4566607E-1,4.5782357E-1,5.2362585E-1,4.51946E-1,4.6131462E-1,-1.1091707E-2,4.5036286E-1,4.5509434E-1,4.1964042E-1,3.9547616E-1,3.9181924E-1,3.7643445E-1,9.7766414E-2,3.3925703E-1,-2.37274E-1,-7.984925E-2,9.152391E-2,-1.1535578E-1,2.7857592E-2,1.6106838E-1,2.996916E-2,-1.19168244E-1,2.6340368E-1,2.1247437E-2,1.3984294E-1,-1.0576725E-1,2.3564108E-1,3.9023127E-2,1.578543E-1,-5.05036E-2,1.9863447E-2,-1.7351231E-1,-6.712162E-2,1.14199355E-1,5.673132E-2,-1.2641193E-1,2.3377761E-3,-1.3660783E-1],"split_indices":[660,158,697,605,717,122,185,745,146,103,424,115,694,112,681,0,0,696,662,11,541,381,0,560,725,361,381,492,414,0,511,0,0,0,0,0,0,0,0,0,0,0,0,0,0,0,0,0,0,0,0,0,0,0,0],"split_type":[0,0,0,0,0,0,0,0,0,0,0,0,0,0,0,0,0,0,0,0,0,0,0,0,0,0,0,0,0,0,0,0,0,0,0,0,0,0,0,0,0,0,0,0,0,0,0,0,0,0,0,0,0,0,0],"sum_hessian":[4.6373657E2,2.2036142E2,2.4337514E2,5.308913E1,1.672723E2,7.20473E1,1.7132784E2,1.0401879E1,4.268725E1,1.3447595E2,3.2796352E1,4.1604343E1,3.0442959E1,7.881772E1,9.251012E1,5.283526E0,5.118353E0,1.4666079E1,2.8021172E1,8.301684E1,5.145911E1,2.55933E1,7.203051E0,1.5961225E1,2.5643118E1,1.20027895E1,1.844017E1,4.271923E1,3.6098488E1,5.546251E0,8.696386E1,9.6168E0,5.0492773E0,1.2310903E1,1.5710269E1,4.9892982E1,3.312385E1,2.8796625E1,2.2662487E1,1.9255949E1,6.3373523E0,6.4536796E0,9.5075445E0,1.7996153E1,7.6469655E0,6.6103916E0,5.392398E0,5.728501E0,1.2711669E1,1.4076727E1,2.8642504E1,8.991291E0,2.7107197E1,1.2848229E1,7.411563E1],"tree_param":{"num_deleted":"0","num_feature":"768","num_nodes":"55","size_leaf_vector":"1"}},{"base_weights":[-7.3522325E-3,-5.682481E-2,5.137907E-1,-2.6913047E-1,9.619344E-2,8.744992E-1,3.1498168E-2,6.821848E-2,-4.072952E-1,-6.0771167E-2,3.8457158E-1,1.8790143E-2,1.0907698E0,1.5123594E-1,-3.7872857E-1,-2.6247916E-1,6.137401E-1,3.7693435E-1,-4.9320704E-1,-2.2367021E-1,3.5127798E-1,-3.37668E-1,5.178371E-1,1.2572345E0,1.14426665E-1,-1.586667E-1,3.4721028E-2,6.310957E-2,-1.1168466E-1,2.2077744E-1,-3.5054416E-3,-5.6613173E-2,1.7134266E-1,6.9317214E-2,-1.0911673E-1,-7.947598E-3,-1.391724E-1,1.659476E-1,-1.5872095E-2,-1.6193323E-1,6.522956E-2,-7.773195E-2,1.2176889E-1,1.657098E-1,3.0134282E-1],"categories":[],"categories_nodes":[],"categories_segments":[],"categories_sizes":[],"default_left":[0,0,0,0,0,0,0,0,0,0,0,0,0,0,0,0,0,0,0,0,0,0,0,0,0,0,0,0,0,0,0,0,0,0,0,0,0,0,0,0,0,0,0,0,0],"id":20,"left_children":[1,3,5,7,9,11,13,15,17,19,21,-1,23,-1,25,27,29,31,33,35,37,39,41,43,-1,-1,-1,-1,-1,-1,-1,-1,-1,-1,-1,-1,-1,-1,-1,-1,-1,-1,-1,-1,-1],"loss_changes":[1.1807849E1,1.3609913E1,6.88046E0,8.203352E0,1.1056174E1,3.7262115E0,5.645869E0,9.509914E0,8.57962E0,1.0730469E1,8.45652E0,0E0,8.0584145E-1,0E0,2.9264812E0,5.8151608E0,6.163657E0,4.3169794E0,5.14694E0,9.903116E0,9.4102E0,4.6532593E0,6.26186E0,9.253883E-2,0E0,0E0,0E0,0E0,0E0,0E0,0E0,0E0,0E0,0E0,0E0,0E0,0E0,0E0,0E0,0E0,0E0,0E0,0E0,0E0,0E0],"parents":[2147483647,0,0,1,1,2,2,3,3,4,4,5,5,6,6,7,7,8,8,9,9,10,10,12,12,14,14,15,15,16,16,17,17,18,18,19,19,20,20,21,21,22,22,23,23],"right_children":[2,4,6,8,10,12,14,16,18,20,22,-1,24,-1,26,28,30,32,34,36,38,40,42,44,-1,-1,-1,-1,-1,-1,-1,-1,-1,-1,-1,-1,-1,-1,-1,-1,-1,-1,-1,-1,-1],"split_conditions":[6.7131853E-1,5.561349E-1,5.3087014E-1,3.8003066E-1,5.612353E-1,3.6742708E-1,4.415237E-1,5.015838E-1,2.906813E-1,6.312693E-1,4.3839478E-1,1.8790143E-2,5.346286E-1,1.5123594E-1,6.1446476E-1,4.995331E-1,5.570941E-1,4.2400798E-1,1.6639006E-1,6.187616E-1,5.188257E-1,5.7114553E-1,3.1215298E-1,4.9478757E-1,1.14426665E-1,-1.586667E-1,3.4721028E-2,6.310957E-2,-1.1168466E-1,2.2077744E-1,-3.5054416E-3,-5.6613173E-2,1.7134266E-1,6.9317214E-2,-1.0911673E-1,-7.947598E-3,-1.391724E-1,1.659476E-1,-1.5872095E-2,-1.6193323E-1,6.522956E-2,-7.773195E-2,1.2176889E-1,1.657098E-1,3.0134282E-1],"split_indices":[509,401,657,44,589,460,605,294,533,675,181,0,588,0,140,458,534,630,16,419,229,698,623,349,0,0,0,0,0,0,0,0,0,0,0,0,0,0,0,0,0,0,0,0,0],"split_type":[0,0,0,0,0,0,0,0,0,0,0,0,0,0,0,0,0,0,0,0,0,0,0,0,0,0,0,0,0,0,0,0,0,0,0,0,0,0,0,0,0,0,0,0,0],"sum_hessian":[4.5585062E2,4.171419E2,3.8708706E1,1.7440472E2,2.427372E2,2.1680534E1,1.702817E1,5.082195E1,1.2358278E2,1.5769362E2,8.504358E1,5.0150347E0,1.66655E1,5.8502154E0,1.1177955E1,3.1964046E1,1.88579E1,1.1867265E1,1.11715515E2,1.1334221E2,4.4351406E1,1.3008656E1,7.203492E1,1.1538058E1,5.1274414E0,6.1358204E0,5.0421343E0,1.0801235E1,2.1162811E1,1.0194052E1,8.663849E0,5.167998E0,6.699267E0,6.228715E0,1.054868E2,8.234905E1,3.0993158E1,2.0570183E1,2.3781223E1,7.4743767E0,5.5342793E0,6.273715E0,6.576121E1,5.8341823E0,5.703876E0],"tree_param":{"num_deleted":"0","num_feature":"768","num_nodes":"45","size_leaf_vector":"1"}},{"base_weights":[3.5897312E-3,-1.07664354E-1,2.2458158E-1,-2.139974E-1,1.8374518E-1,-1.7564075E-2,5.151148E-1,-3.8463446E-1,9.001194E-2,-1.1879579E-1,2.868883E-1,-2.7126905E-1,3.0401537E-1,6.70614E-1,-1.7261347E-1,-5.2968335E-1,9.477873E-2,4.8817426E-1,-3.0064997E-1,5.740531E-1,1.090357E-2,-3.9074913E-2,-7.82685E-1,8.724997E-1,-3.3863332E-2,-7.27747E-2,7.976046E-1,-1.2634785E-1,8.9571945E-2,-1.2646763E-1,-9.617708E-3,1.4564806E-1,-5.0227858E-2,1.6842426E-1,-1.2782636E-2,-1.22129895E-1,6.0793914E-2,1.58662E-1,-6.4348534E-2,-6.1439943E-2,1.1149315E-1,-9.7321466E-2,6.425765E-2,-6.963162E-2,-2.1257924E-1,6.0150236E-2,2.3476961E-1,6.908641E-2,-1.3569328E-1,-2.8784072E-2,1.8427306E-1],"categories":[],"categories_nodes":[],"categories_segments":[],"categories_sizes":[],"default_left":[0,0,0,0,0,0,0,0,0,0,0,0,0,0,0,0,0,0,0,0,0,0,0,0,0,0,0,0,0,0,0,0,0,0,0,0,0,0,0,0,0,0,0,0,0,0,0,0,0,0,0],"id":21,"left_children":[1,3,5,7,9,11,13,15,17,-1,19,21,23,25,27,29,31,33,35,37,39,41,43,45,47,-1,49,-1,-1,-1,-1,-1,-1,-1,-1,-1,-1,-1,-1,-1,-1,-1,-1,-1,-1,-1,-1,-1,-1,-1,-1],"loss_changes":[1.0845891E1,9.13204E0,1.040074E1,1.1211384E1,6.506508E0,6.7343316E0,7.3000374E0,9.659534E0,1.2320962E1,0E0,5.574159E0,5.4441614E0,7.0265174E0,7.5150414E0,4.0386915E0,5.2219543E0,7.4022436E0,7.7026587E0,7.7062197E0,7.0290117E0,6.591086E0,5.4397545E0,1.3764038E0,1.9931173E0,6.0559306E0,0E0,5.876774E0,0E0,0E0,0E0,0E0,0E0,0E0,0E0,0E0,0E0,0E0,0E0,0E0,0E0,0E0,0E0,0E0,0E0,0E0,0E0,0E0,0E0,0E0,0E0,0E0],"parents":[2147483647,0,0,1,1,2,2,3,3,4,4,5,5,6,6,7,7,8,8,10,10,11,11,12,12,13,13,14,14,15,15,16,16,17,17,18,18,19,19,20,20,21,21,22,22,23,23,24,24,26,26],"right_children":[2,4,6,8,10,12,14,16,18,-1,20,22,24,26,28,30,32,34,36,38,40,42,44,46,48,-1,50,-1,-1,-1,-1,-1,-1,-1,-1,-1,-1,-1,-1,-1,-1,-1,-1,-1,-1,-1,-1,-1,-1,-1,-1],"split_conditions":[4.5735896E-1,6.388014E-1,5.6108105E-1,4.956582E-1,2.7143568E-1,5.0734985E-1,6.038902E-1,5.607002E-1,4.444167E-1,-1.1879579E-1,4.2314515E-1,5.092781E-1,3.9854622E-1,4.4681832E-1,5.0707114E-1,6.459486E-1,4.0253285E-1,5.0818443E-1,6.1121565E-1,5.8617175E-1,4.9189425E-1,4.6573558E-1,4.5521432E-1,5.384527E-1,5.4116356E-1,-7.27747E-2,2.8856453E-1,-1.2634785E-1,8.9571945E-2,-1.2646763E-1,-9.617708E-3,1.4564806E-1,-5.0227858E-2,1.6842426E-1,-1.2782636E-2,-1.22129895E-1,6.0793914E-2,1.58662E-1,-6.4348534E-2,-6.1439943E-2,1.1149315E-1,-9.7321466E-2,6.425765E-2,-6.963162E-2,-2.1257924E-1,6.0150236E-2,2.3476961E-1,6.908641E-2,-1.3569328E-1,-2.8784072E-2,1.8427306E-1],"split_indices":[708,324,675,316,708,643,470,191,381,0,260,84,470,401,48,188,84,512,760,490,586,498,526,661,529,0,403,0,0,0,0,0,0,0,0,0,0,0,0,0,0,0,0,0,0,0,0,0,0,0,0],"split_type":[0,0,0,0,0,0,0,0,0,0,0,0,0,0,0,0,0,0,0,0,0,0,0,0,0,0,0,0,0,0,0,0,0,0,0,0,0,0,0,0,0,0,0,0,0,0,0,0,0,0,0],"sum_hessian":[4.39153E2,2.9244168E2,1.4671132E2,2.1445456E2,7.798713E1,8.053159E1,6.617972E1,1.3718752E2,7.7267044E1,8.574504E0,6.941262E1,4.5103977E1,3.5427616E1,5.3995842E1,1.2183879E1,1.05241356E2,3.1946165E1,3.8142563E1,3.912448E1,3.3488007E1,3.5924614E1,3.1760439E1,1.3343537E1,1.2617038E1,2.281058E1,5.6997046E0,4.829614E1,6.991952E0,5.1919265E0,8.649205E1,1.8749302E1,1.089305E1,2.1053114E1,2.2921862E1,1.5220702E1,2.58571E1,1.326738E1,2.6995049E1,6.4929595E0,2.2985073E1,1.2939543E1,1.4010534E1,1.7749905E1,6.110459E0,7.2330785E0,5.0443687E0,7.5726686E0,1.4652762E1,8.157818E0,5.59193E0,4.270421E1],"tree_param":{"num_deleted":"0","num_feature":"768","num_nodes":"51","size_leaf_vector":"1"}},{"base_weights":[-2.3183937E-3,-1.1402821E-1,2.2333008E-1,1.15859E-1,-3.083318E-1,-2.2092216E-1,3.74908E-1,-6.63049E-1,1.9343628E-1,-3.7571302E-1,4.1578206E-1,-3.9267176E-1,1.2821965E-1,2.310806E-1,9.217474E-1,-2.0861705E-1,-2.68105E-2,-1.1022106E-1,3.9616272E-1,2.2167513E-1,-4.4815385E-1,2.0706041E-1,-1.6948495E-2,-7.7885467E-1,-2.8962756E-2,-4.9653473E-1,3.5129926E-1,2.766128E-1,4.2818865E-1,-5.8636334E-2,1.2253753E-1,-7.959869E-2,1.0486608E-1,1.5240727E-1,-7.330007E-2,-1.039555E-1,6.0840625E-2,-4.4088077E-2,-2.0735888E-1,1.0592842E-1,-1.0745716E-1,-1.9562323E-1,-4.6613924E-3,-6.715516E-2,9.529668E-2,-2.395212E-2,1.8098058E-1],"categories":[],"categories_nodes":[],"categories_segments":[],"categories_sizes":[],"default_left":[0,0,0,0,0,0,0,0,0,0,0,0,0,0,0,0,0,0,0,0,0,0,0,0,0,0,0,0,0,0,0,0,0,0,0,0,0,0,0,0,0,0,0,0,0,0,0],"id":22,"left_children":[1,3,5,7,9,11,13,15,17,19,21,23,-1,25,27,-1,-1,29,31,33,35,-1,-1,37,39,41,43,-1,45,-1,-1,-1,-1,-1,-1,-1,-1,-1,-1,-1,-1,-1,-1,-1,-1,-1,-1],"loss_changes":[1.0820942E1,1.2860718E1,9.655151E0,8.119154E0,7.7616205E0,5.698901E0,8.152215E0,2.3136349E0,7.494789E0,6.2933655E0,4.349722E0,4.373759E0,0E0,7.6573205E0,4.3745823E0,0E0,0E0,6.692236E0,7.6186533E0,5.4116807E0,7.054634E0,0E0,0E0,1.9524994E0,5.156485E0,2.8360052E0,6.5248823E0,0E0,3.2396128E0,0E0,0E0,0E0,0E0,0E0,0E0,0E0,0E0,0E0,0E0,0E0,0E0,0E0,0E0,0E0,0E0,0E0,0E0],"parents":[2147483647,0,0,1,1,2,2,3,3,4,4,5,5,6,6,7,7,8,8,9,9,10,10,11,11,13,13,14,14,17,17,18,18,19,19,20,20,23,23,24,24,25,25,26,26,28,28],"right_children":[2,4,6,8,10,12,14,16,18,20,22,24,-1,26,28,-1,-1,30,32,34,36,-1,-1,38,40,42,44,-1,46,-1,-1,-1,-1,-1,-1,-1,-1,-1,-1,-1,-1,-1,-1,-1,-1,-1,-1],"split_conditions":[6.117466E-1,4.0170577E-1,3.5929275E-1,3.6718452E-1,5.564436E-1,6.0360056E-1,5.389721E-1,5.7986784E-1,3.6629382E-1,2.8583884E-1,3.976903E-1,3.5988718E-1,1.2821965E-1,3.64644E-1,4.2710108E-1,-2.0861705E-1,-2.68105E-2,6.867969E-1,3.279912E-1,4.2275077E-1,6.769806E-1,2.0706041E-1,-1.6948495E-2,3.726225E-1,5.736872E-1,4.0725797E-1,4.4238478E-1,2.766128E-1,5.5205375E-1,-5.8636334E-2,1.2253753E-1,-7.959869E-2,1.0486608E-1,1.5240727E-1,-7.330007E-2,-1.039555E-1,6.0840625E-2,-4.4088077E-2,-2.0735888E-1,1.0592842E-1,-1.0745716E-1,-1.9562323E-1,-4.6613924E-3,-6.715516E-2,9.529668E-2,-2.395212E-2,1.8098058E-1],"split_indices":[359,152,737,359,708,367,95,394,233,226,374,216,0,713,110,0,0,609,335,75,413,0,0,418,573,325,251,0,110,0,0,0,0,0,0,0,0,0,0,0,0,0,0,0,0,0,0],"split_type":[0,0,0,0,0,0,0,0,0,0,0,0,0,0,0,0,0,0,0,0,0,0,0,0,0,0,0,0,0,0,0,0,0,0,0,0,0,0,0,0,0,0,0,0,0,0,0],"sum_hessian":[4.272704E2,2.8611874E2,1.4115164E2,1.3124364E2,1.548751E2,3.5792297E1,1.05359344E2,1.120399E1,1.2003964E2,1.4213054E2,1.2744581E1,3.0299814E1,5.4924827E0,8.45452E1,2.0814148E1,5.954442E0,5.249548E0,4.823953E1,7.180012E1,1.5148378E1,1.26982155E2,5.2178264E0,7.5267544E0,1.4142263E1,1.615755E1,1.1544232E1,7.300097E1,9.826938E0,1.0987209E1,3.8970856E1,9.268672E0,9.684917E0,6.21152E1,7.7410364E0,7.407342E0,1.1622663E2,1.0755525E1,5.054464E0,9.087799E0,7.6780596E0,8.47949E0,5.192831E0,6.3514013E0,1.0991532E1,6.2009434E1,5.4600487E0,5.527161E0],"tree_param":{"num_deleted":"0","num_feature":"768","num_nodes":"47","size_leaf_vector":"1"}},{"base_weights":[-3.6963131E-3,-1.4606215E-1,1.5692842E-1,-3.273845E-1,9.403514E-2,3.4526736E-1,-7.7102385E-2,1.9680705E-2,-4.9977618E-1,2.4806514E-1,-4.6546823E-1,-1.1133676E-1,4.7740787E-1,-3.3047757E-1,2.2354992E-1,3.6771452E-1,-3.660371E-1,-1.9304326E-1,-7.681046E-1,-1.7840894E-1,4.8375082E-1,-7.523724E-1,3.3681978E-2,-3.9579767E-1,1.1935464E-1,1.5181507E-1,6.9789076E-1,-5.6291693E-1,2.5995776E-1,7.8550625E-1,-1.29052615E-2,1.866699E-1,-7.3313914E-2,-1.329356E-1,7.621802E-2,7.428038E-2,-1.0347165E-1,-1.981241E-2,-1.7052488E-1,5.8179982E-2,-1.1089655E-1,-1.7347472E-3,1.6744721E-1,-5.735446E-2,-2.0029628E-1,6.372186E-2,-1.5201037E-1,-2.5514642E-2,2.0283075E-1,1.9733872E-2,1.7628394E-1,1.3158564E-2,-1.5418069E-1,-8.259297E-2,1.599729E-1,6.1920057E-3,2.668323E-1,7.154327E-2,-1.0374769E-1],"categories":[],"categories_nodes":[],"categories_segments":[],"categories_sizes":[],"default_left":[0,0,0,0,0,0,0,0,0,0,0,0,0,0,0,0,0,0,0,0,0,0,0,0,0,0,0,0,0,0,0,0,0,0,0,0,0,0,0,0,0,0,0,0,0,0,0,0,0,0,0,0,0,0,0,0,0,0,0],"id":23,"left_children":[1,3,5,7,9,11,13,15,17,19,21,23,25,27,29,31,33,35,37,39,41,43,-1,45,-1,47,49,51,53,55,57,-1,-1,-1,-1,-1,-1,-1,-1,-1,-1,-1,-1,-1,-1,-1,-1,-1,-1,-1,-1,-1,-1,-1,-1,-1,-1,-1,-1],"loss_changes":[9.627964E0,9.747334E0,8.746901E0,7.631237E0,8.458368E0,6.6783056E0,6.85652E0,5.9387455E0,6.85964E0,7.7818546E0,3.99045E0,5.3637753E0,6.0210247E0,6.832811E0,5.5001106E0,9.989251E0,4.9408817E0,7.709488E0,2.4647102E0,5.0999184E0,8.637467E0,1.4303722E0,0E0,5.124446E0,0E0,8.739702E0,5.4788723E0,4.6633244E0,5.578913E0,5.0309315E0,5.8217125E0,0E0,0E0,0E0,0E0,0E0,0E0,0E0,0E0,0E0,0E0,0E0,0E0,0E0,0E0,0E0,0E0,0E0,0E0,0E0,0E0,0E0,0E0,0E0,0E0,0E0,0E0,0E0,0E0],"parents":[2147483647,0,0,1,1,2,2,3,3,4,4,5,5,6,6,7,7,8,8,9,9,10,10,11,11,12,12,13,13,14,14,15,15,16,16,17,17,18,18,19,19,20,20,21,21,23,23,25,25,26,26,27,27,28,28,29,29,30,30],"right_children":[2,4,6,8,10,12,14,16,18,20,22,24,26,28,30,32,34,36,38,40,42,44,-1,46,-1,48,50,52,54,56,58,-1,-1,-1,-1,-1,-1,-1,-1,-1,-1,-1,-1,-1,-1,-1,-1,-1,-1,-1,-1,-1,-1,-1,-1,-1,-1,-1,-1],"split_conditions":[4.964912E-1,5.261157E-1,4.6743774E-1,5.0044894E-1,6.622869E-1,4.9033397E-1,5.7560503E-1,5.394004E-1,4.3501502E-1,5.196444E-1,6.2245953E-1,5.896553E-1,4.966084E-1,5.533633E-1,4.3014207E-1,4.9947524E-1,6.404631E-1,4.754733E-1,3.1796885E-1,4.6009758E-1,5.098459E-1,4.1230354E-1,3.3681978E-2,5.6578135E-1,1.1935464E-1,6.401604E-1,4.3711013E-1,3.7483126E-1,4.9780285E-1,5.5043685E-1,5.2493596E-1,1.866699E-1,-7.3313914E-2,-1.329356E-1,7.621802E-2,7.428038E-2,-1.0347165E-1,-1.981241E-2,-1.7052488E-1,5.8179982E-2,-1.1089655E-1,-1.7347472E-3,1.6744721E-1,-5.735446E-2,-2.0029628E-1,6.372186E-2,-1.5201037E-1,-2.5514642E-2,2.0283075E-1,1.9733872E-2,1.7628394E-1,1.3158564E-2,-1.5418069E-1,-8.259297E-2,1.599729E-1,6.1920057E-3,2.668323E-1,7.154327E-2,-1.0374769E-1],"split_indices":[300,294,339,542,109,244,745,657,152,653,6,428,698,445,7,96,224,25,511,376,20,376,0,694,0,64,582,470,340,679,406,0,0,0,0,0,0,0,0,0,0,0,0,0,0,0,0,0,0,0,0,0,0,0,0,0,0,0,0],"split_type":[0,0,0,0,0,0,0,0,0,0,0,0,0,0,0,0,0,0,0,0,0,0,0,0,0,0,0,0,0,0,0,0,0,0,0,0,0,0,0,0,0,0,0,0,0,0,0,0,0,0,0,0,0,0,0,0,0,0,0],"sum_hessian":[4.1903076E2,2.221893E2,1.9684145E2,1.2638178E2,9.5807526E1,1.088045E2,8.803695E1,4.2236187E1,8.414559E1,7.556209E1,2.0245436E1,2.4455912E1,8.434859E1,4.772089E1,4.0316055E1,2.2227211E1,2.0008974E1,4.006534E1,4.4080257E1,2.6981674E1,4.8580414E1,1.3808525E1,6.4369116E0,1.7761742E1,6.69417E0,3.473826E1,4.9610325E1,3.4274498E1,1.3446392E1,1.1252204E1,2.9063852E1,1.2402328E1,9.824883E0,1.4373835E1,5.63514E0,1.456715E1,2.5498188E1,5.187675E0,3.8892582E1,1.2103721E1,1.4877954E1,2.0708202E1,2.7872211E1,5.562697E0,8.245829E0,6.040296E0,1.1721445E1,2.6881128E1,7.8571296E0,1.199249E1,3.7617836E1,8.689923E0,2.5584576E1,6.0905023E0,7.35589E0,5.1820045E0,6.0701995E0,1.6942778E1,1.2121076E1],"tree_param":{"num_deleted":"0","num_feature":"768","num_nodes":"59","size_leaf_vector":"1"}},{"base_weights":[-1.4101288E-2,2.4426949E-1,-9.951523E-2,7.2704256E-2,8.197178E-1,1.3078067E-2,-4.1307157E-1,-1.724702E-1,1.8014935E-1,-1.3825205E-2,1.1149851E0,-1.2652247E-1,2.9032242E-1,-5.3489006E-1,2.702034E-1,5.430088E-2,1.8530767E-1,1.3476561E0,9.296701E-2,1.5458654E-1,-1.8469508E-1,-2.4318235E-2,6.39206E-1,3.236759E-2,-6.958918E-1,-9.256192E-2,1.6720733E-1,1.0295264E-1,-4.315232E-2,1.7097412E-1,3.3706483E-1,-4.6979368E-2,1.8089426E-1,1.0188073E-1,-5.940796E-2,-7.269494E-3,1.6517301E-1,-8.980133E-2,1.3910595E-1,3.3456158E-2,-1.5935068E-1],"categories":[],"categories_nodes":[],"categories_segments":[],"categories_sizes":[],"default_left":[0,0,0,0,0,0,0,0,0,0,0,0,0,0,0,0,0,0,0,0,0,0,0,0,0,0,0,0,0,0,0,0,0,0,0,0,0,0,0,0,0],"id":24,"left_children":[1,3,5,7,9,11,13,-1,15,-1,17,19,21,23,25,27,-1,29,-1,-1,31,33,35,37,39,-1,-1,-1,-1,-1,-1,-1,-1,-1,-1,-1,-1,-1,-1,-1,-1],"loss_changes":[8.992889E0,9.937471E0,1.081341E1,8.102397E0,6.1550226E0,8.792325E0,6.879587E0,0E0,6.6917114E0,0E0,2.0120907E0,8.051871E0,8.365423E0,6.3249855E0,5.740569E0,7.88092E0,0E0,6.090946E-1,0E0,0E0,8.01952E0,6.1131454E0,4.582967E0,5.487532E0,4.816843E0,0E0,0E0,0E0,0E0,0E0,0E0,0E0,0E0,0E0,0E0,0E0,0E0,0E0,0E0,0E0,0E0],"parents":[2147483647,0,0,1,1,2,2,3,3,4,4,5,5,6,6,8,8,10,10,11,11,12,12,13,13,14,14,15,15,17,17,20,20,21,21,22,22,23,23,24,24],"right_children":[2,4,6,8,10,12,14,-1,16,-1,18,20,22,24,26,28,-1,30,-1,-1,32,34,36,38,40,-1,-1,-1,-1,-1,-1,-1,-1,-1,-1,-1,-1,-1,-1,-1,-1],"split_conditions":[3.3185902E-1,6.459203E-1,5.6346303E-1,3.424819E-1,4.3880564E-1,5.530635E-1,6.7928934E-1,-1.724702E-1,6.735876E-1,-1.3825205E-2,4.530967E-1,3.6013055E-1,5.351257E-1,3.8081992E-1,4.562044E-1,4.8086888E-1,1.8530767E-1,5.036866E-1,9.296701E-2,1.5458654E-1,7.317116E-1,4.932467E-1,4.129611E-1,4.4370434E-1,2.1298689E-1,-9.256192E-2,1.6720733E-1,1.0295264E-1,-4.315232E-2,1.7097412E-1,3.3706483E-1,-4.6979368E-2,1.8089426E-1,1.0188073E-1,-5.940796E-2,-7.269494E-3,1.6517301E-1,-8.980133E-2,1.3910595E-1,3.3456158E-2,-1.5935068E-1],"split_indices":[337,269,507,621,203,632,661,0,347,0,644,292,328,84,492,463,0,584,0,0,720,660,191,19,473,0,0,0,0,0,0,0,0,0,0,0,0,0,0,0,0],"split_type":[0,0,0,0,0,0,0,0,0,0,0,0,0,0,0,0,0,0,0,0,0,0,0,0,0,0,0,0,0,0,0,0,0,0,0,0,0,0,0,0,0],"sum_hessian":[4.0539798E2,1.0025979E2,3.0513818E2,7.810097E1,2.2158821E1,2.2522252E2,7.991568E1,7.325331E0,7.0775635E1,5.7164526E0,1.644237E1,1.5015752E2,7.5065E1,6.8007965E1,1.1907714E1,6.1481934E1,9.293703E0,1.1318829E1,5.123541E0,8.375171E0,1.4178235E2,3.9958614E1,3.5106384E1,1.521166E1,5.2796303E1,5.266831E0,6.640883E0,2.239385E1,3.9088085E1,6.0383205E0,5.280508E0,1.3628505E2,5.4973044E0,1.3219643E1,2.6738974E1,7.77446E0,2.7331924E1,9.000983E0,6.210677E0,5.4548917E0,4.734141E1],"tree_param":{"num_deleted":"0","num_feature":"768","num_nodes":"41","size_leaf_vector":"1"}},{"base_weights":[-1.568444E-2,-1.4839175E-1,1.4301585E-1,-3.68614E-1,7.25648E-3,-1.3113339E-1,3.3464214E-1,-1.9368745E-2,-5.486009E-1,1.3590074E-1,-4.413616E-1,-3.0395594E-1,5.5184275E-1,4.8958302E-1,-9.317372E-2,5.674005E-1,-3.7772143E-1,-5.822222E-2,-7.09883E-1,-8.621274E-3,7.340378E-1,-6.352347E-1,7.0676506E-2,2.792474E-1,-4.2948157E-1,2.0312114E-1,-3.7576463E-3,1.9742039E-1,7.427924E-1,1.3932924E-1,-4.085096E-1,3.1362975E-3,2.3081057E-1,2.234791E-2,-1.4514513E-1,-9.158878E-2,1.3165599E-1,-3.843699E-2,-1.7092042E-1,9.561923E-2,-3.5390224E-2,-9.483809E-3,2.1011125E-1,-1.720457E-1,1.9405711E-3,-6.564695E-2,1.7413239E-1,-3.8042811E-3,-1.2817399E-1,9.369486E-2,-7.496909E-2,-8.334683E-3,1.8184112E-1,5.1166844E-2,-1.3044308E-1],"categories":[],"categories_nodes":[],"categories_segments":[],"categories_sizes":[],"default_left":[0,0,0,0,0,0,0,0,0,0,0,0,0,0,0,0,0,0,0,0,0,0,0,0,0,0,0,0,0,0,0,0,0,0,0,0,0,0,0,0,0,0,0,0,0,0,0,0,0,0,0,0,0,0,0],"id":25,"left_children":[1,3,5,7,9,11,13,15,17,19,21,23,25,27,29,31,33,35,37,39,41,43,-1,45,47,-1,-1,49,51,-1,53,-1,-1,-1,-1,-1,-1,-1,-1,-1,-1,-1,-1,-1,-1,-1,-1,-1,-1,-1,-1,-1,-1,-1,-1],"loss_changes":[8.522325E0,7.554523E0,9.727556E0,5.725485E0,7.5662675E0,9.203762E0,7.2559757E0,6.957858E0,4.7184143E0,8.810102E0,4.72677E0,4.639715E0,4.2042823E0,5.772745E0,7.696837E0,4.047043E0,3.574853E0,4.8792963E0,3.222025E0,6.8857975E0,4.954793E0,3.468811E0,0E0,4.432143E0,4.430154E0,0E0,0E0,6.149394E0,5.5864773E0,0E0,3.7125108E0,0E0,0E0,0E0,0E0,0E0,0E0,0E0,0E0,0E0,0E0,0E0,0E0,0E0,0E0,0E0,0E0,0E0,0E0,0E0,0E0,0E0,0E0,0E0,0E0],"parents":[2147483647,0,0,1,1,2,2,3,3,4,4,5,5,6,6,7,7,8,8,9,9,10,10,11,11,12,12,13,13,14,14,15,15,16,16,17,17,18,18,19,19,20,20,21,21,23,23,24,24,27,27,28,28,30,30],"right_children":[2,4,6,8,10,12,14,16,18,20,22,24,26,28,30,32,34,36,38,40,42,44,-1,46,48,-1,-1,50,52,-1,54,-1,-1,-1,-1,-1,-1,-1,-1,-1,-1,-1,-1,-1,-1,-1,-1,-1,-1,-1,-1,-1,-1,-1,-1],"split_conditions":[5.4605126E-1,4.9075425E-1,4.8050588E-1,4.5052272E-1,6.657003E-1,6.01229E-1,6.038902E-1,4.571494E-1,4.3400842E-1,6.7994297E-1,6.142855E-1,3.8518637E-1,4.583413E-1,4.7793764E-1,4.0773198E-1,3.9599985E-1,4.2534816E-1,5.421123E-1,4.6534476E-1,4.7812036E-1,5.362476E-1,5.986892E-1,7.0676506E-2,6.360017E-1,4.5609337E-1,2.0312114E-1,-3.7576463E-3,5.305591E-1,4.5654762E-1,1.3932924E-1,3.4914264E-1,3.1362975E-3,2.3081057E-1,2.234791E-2,-1.4514513E-1,-9.158878E-2,1.3165599E-1,-3.843699E-2,-1.7092042E-1,9.561923E-2,-3.5390224E-2,-9.483809E-3,2.1011125E-1,-1.720457E-1,1.9405711E-3,-6.564695E-2,1.7413239E-1,-3.8042811E-3,-1.2817399E-1,9.369486E-2,-7.496909E-2,-8.334683E-3,1.8184112E-1,5.1166844E-2,-1.3044308E-1],"split_indices":[713,206,343,22,610,600,470,598,263,348,97,677,226,561,257,0,466,469,559,60,29,352,0,580,54,0,0,525,694,0,21,0,0,0,0,0,0,0,0,0,0,0,0,0,0,0,0,0,0,0,0,0,0,0,0],"split_type":[0,0,0,0,0,0,0,0,0,0,0,0,0,0,0,0,0,0,0,0,0,0,0,0,0,0,0,0,0,0,0,0,0,0,0,0,0,0,0,0,0,0,0,0,0,0,0,0,0,0,0,0,0,0,0],"sum_hessian":[4.0264786E2,2.1931699E2,1.8333087E2,9.025274E1,1.2906425E2,7.555465E1,1.0777622E2,3.1070805E1,5.918193E1,1.0084371E2,2.8220545E1,6.0739803E1,1.4814848E1,7.9015144E1,2.8761074E1,1.15596285E1,1.9511177E1,1.4984001E1,4.419793E1,8.201324E1,1.8830471E1,2.284769E1,5.3728538E0,1.0540954E1,5.019885E1,7.74254E0,7.0723076E0,3.7512024E1,4.1503124E1,7.861415E0,2.0899658E1,6.4862986E0,5.0733294E0,8.389885E0,1.1121292E1,9.849841E0,5.1341596E0,1.0164576E1,3.403335E1,2.0602346E1,6.1410892E1,5.6734333E0,1.3157038E1,1.6691023E1,6.1566677E0,5.41936E0,5.1215935E0,1.743489E1,3.2763958E1,2.5578247E1,1.1933776E1,7.394636E0,3.4108486E1,5.5957727E0,1.5303885E1],"tree_param":{"num_deleted":"0","num_feature":"768","num_nodes":"55","size_leaf_vector":"1"}},{"base_weights":[1.193016E-2,-4.1569656E-1,5.805545E-2,-5.913651E-1,1.1221214E-1,2.2792357E-1,-8.786604E-2,-7.482129E-1,2.8814837E-2,-4.8585084E-1,2.972174E-1,-1.8057585E-1,3.6152047E-1,-9.144368E-1,-5.0248075E-2,6.1623272E-3,-2.0268714E-1,4.414825E-1,-7.381011E-2,2.07787E-3,-4.1807973E-1,5.6487566E-1,-1.208748E-1,-2.122299E-1,-8.1732094E-2,1.13564484E-1,-1.6053325E-2,5.190283E-2,-1.0718173E-1,2.219184E-2,-1.2542872E-1,-1.0517178E-1,9.624658E-2,1.9950914E-1,5.178662E-2],"categories":[],"categories_nodes":[],"categories_segments":[],"categories_sizes":[],"default_left":[0,0,0,0,0,0,0,0,0,0,0,0,0,0,0,0,0,0,0,0,0,0,0,0,0,0,0,0,0,0,0,0,0,0,0],"id":26,"left_children":[1,3,5,7,-1,9,11,13,-1,15,17,19,21,23,-1,-1,-1,25,27,29,31,33,-1,-1,-1,-1,-1,-1,-1,-1,-1,-1,-1,-1,-1],"loss_changes":[7.7183566E0,6.8695445E0,8.769595E0,3.8891344E0,0E0,8.225543E0,8.00606E0,2.015565E0,0E0,4.0757303E0,8.037403E0,6.8840523E0,6.8093514E0,1.0495911E0,0E0,0E0,0E0,7.153063E0,6.720051E0,6.2825274E0,6.939315E0,3.410945E0,0E0,0E0,0E0,0E0,0E0,0E0,0E0,0E0,0E0,0E0,0E0,0E0,0E0],"parents":[2147483647,0,0,1,1,2,2,3,3,5,5,6,6,7,7,9,9,10,10,11,11,12,12,13,13,17,17,18,18,19,19,20,20,21,21],"right_children":[2,4,6,8,-1,10,12,14,-1,16,18,20,22,24,-1,-1,-1,26,28,30,32,34,-1,-1,-1,-1,-1,-1,-1,-1,-1,-1,-1,-1,-1],"split_conditions":[3.0949724E-1,7.04247E-1,4.3328422E-1,5.5951947E-1,1.1221214E-1,2.4547237E-1,6.0406667E-1,6.2182647E-1,2.8814837E-2,6.0556257E-1,4.764668E-1,5.740342E-1,7.131188E-1,6.599704E-1,-5.0248075E-2,6.1623272E-3,-2.0268714E-1,6.00778E-1,6.537428E-1,5.4749715E-1,6.436415E-1,3.954016E-1,-1.208748E-1,-2.122299E-1,-8.1732094E-2,1.13564484E-1,-1.6053325E-2,5.190283E-2,-1.0718173E-1,2.219184E-2,-1.2542872E-1,-1.0517178E-1,9.624658E-2,1.9950914E-1,5.178662E-2],"split_indices":[129,187,339,131,0,98,110,744,0,573,381,252,283,108,0,0,0,458,281,178,95,405,0,0,0,0,0,0,0,0,0,0,0,0,0],"split_type":[0,0,0,0,0,0,0,0,0,0,0,0,0,0,0,0,0,0,0,0,0,0,0,0,0,0,0,0,0,0,0,0,0,0,0],"sum_hessian":[3.890864E2,3.710201E1,3.519844E2,3.1780832E1,5.321179E0,1.6238687E2,1.8959753E2,2.6180025E1,5.6008058E0,1.3837682E1,1.4854918E2,1.5766826E2,3.1929272E1,1.8988775E1,7.191251E0,7.4669333E0,6.3707485E0,1.0682353E2,4.172565E1,8.968599E1,6.798227E1,2.6719124E1,5.210148E0,1.3867973E1,5.120802E0,8.5928024E1,2.0895504E1,2.4495083E1,1.7230568E1,7.7158104E1,1.25278845E1,6.1077618E1,6.9046507E0,1.013104E1,1.6588083E1],"tree_param":{"num_deleted":"0","num_feature":"768","num_nodes":"35","size_leaf_vector":"1"}},{"base_weights":[-5.70326E-3,4.138279E-2,-4.2210573E-1,9.581451E-2,-3.6299157E-1,-6.1227554E-1,2.89684E-2,1.2597525E-2,3.9829898E-1,-5.526272E-1,6.807872E-2,-8.1877625E-1,-1.2863213E-2,1.5442513E-1,-1.7850232E-1,-8.3285496E-2,5.3126144E-1,3.423906E-2,-7.1067077E-1,-6.5458685E-2,-1.9527699E-1,6.29169E-2,-3.0146895E-2,6.30012E-3,-9.43937E-2,-1.08759515E-2,1.4738332E-1,-7.222522E-2,-1.9708516E-1],"categories":[],"categories_nodes":[],"categories_segments":[],"categories_sizes":[],"default_left":[0,0,0,0,0,0,0,0,0,0,0,0,0,0,0,0,0,0,0,0,0,0,0,0,0,0,0,0,0],"id":27,"left_children":[1,3,5,7,9,11,-1,13,15,17,-1,19,-1,21,23,-1,25,-1,27,-1,-1,-1,-1,-1,-1,-1,-1,-1,-1],"loss_changes":[7.5560603E0,7.6579967E0,4.3096714E0,7.6986256E0,5.6966996E0,3.2862453E0,0E0,6.5606546E0,7.3706064E0,3.8863373E0,0E0,1.3339348E0,0E0,6.8358154E0,6.371826E0,0E0,6.92651E0,0E0,2.256937E0,0E0,0E0,0E0,0E0,0E0,0E0,0E0,0E0,0E0,0E0],"parents":[2147483647,0,0,1,1,2,2,3,3,4,4,5,5,7,7,8,8,9,9,11,11,13,13,14,14,16,16,18,18],"right_children":[2,4,6,8,10,12,-1,14,16,18,-1,20,-1,22,24,-1,26,-1,28,-1,-1,-1,-1,-1,-1,-1,-1,-1,-1],"split_conditions":[6.7962116E-1,6.8810654E-1,5.495205E-1,5.762836E-1,5.6427246E-1,5.5544573E-1,2.89684E-2,5.022071E-1,3.7309504E-1,3.961663E-1,6.807872E-2,4.0825105E-1,-1.2863213E-2,5.901135E-1,5.364415E-1,-8.3285496E-2,4.1545096E-1,3.423906E-2,4.51946E-1,-6.5458685E-2,-1.9527699E-1,6.29169E-2,-3.0146895E-2,6.30012E-3,-9.43937E-2,-1.08759515E-2,1.4738332E-1,-7.222522E-2,-1.9708516E-1],"split_indices":[516,252,335,486,674,137,0,247,328,236,0,611,0,624,699,0,346,0,541,0,0,0,0,0,0,0,0,0,0],"split_type":[0,0,0,0,0,0,0,0,0,0,0,0,0,0,0,0,0,0,0,0,0,0,0,0,0,0,0,0,0],"sum_hessian":[3.8348972E2,3.453399E2,3.8149803E1,3.0504208E2,4.0297825E1,2.8507618E1,9.642186E0,2.4004466E2,6.499743E1,3.1909279E1,8.388546E0,2.034594E1,8.161678E0,1.3789543E2,1.0214923E2,8.820147E0,5.6177284E1,5.703705E0,2.6205574E1,5.6873307E0,1.4658608E1,9.041259E1,4.7482838E1,6.00619E1,4.2087334E1,1.479145E1,4.1385834E1,1.2551654E1,1.3653919E1],"tree_param":{"num_deleted":"0","num_feature":"768","num_nodes":"29","size_leaf_vector":"1"}},{"base_weights":[-1.1241606E-2,2.9154482E-1,-7.514489E-2,-2.8902382E-1,4.369197E-1,-4.793301E-1,-1.4931953E-2,3.1941783E-2,-1.6919987E-1,6.0394037E-1,-5.721434E-2,7.0445284E-2,-6.113564E-1,5.4373384E-1,-5.9481975E-2,8.7782264E-1,2.2473772E-1,1.3301544E-2,-7.708127E-1,8.996141E-1,-4.4588413E-2,4.8746575E-2,-3.0052364E-1,2.4803197E-2,2.1381715E-1,-3.8681697E-2,1.500189E-1,-3.1993654E-2,-1.8891566E-1,7.092332E-2,2.3709606E-1,9.730541E-2,-8.071462E-3,-8.179361E-2,6.559143E-2],"categories":[],"categories_nodes":[],"categories_segments":[],"categories_sizes":[],"default_left":[0,0,0,0,0,0,0,0,0,0,0,0,0,0,0,0,0,0,0,0,0,0,0,0,0,0,0,0,0,0,0,0,0,0,0],"id":28,"left_children":[1,3,5,7,9,11,13,-1,-1,15,-1,-1,17,19,21,23,25,-1,27,29,-1,31,33,-1,-1,-1,-1,-1,-1,-1,-1,-1,-1,-1,-1],"loss_changes":[7.369502E0,5.7289577E0,7.6434045E0,3.6080256E0,6.63157E0,4.686616E0,6.867497E0,0E0,0E0,4.3486414E0,0E0,0E0,3.8897524E0,5.7614665E0,6.673481E0,3.4820023E0,4.47274E0,0E0,2.908884E0,1.7792072E0,0E0,6.924637E0,5.5343156E0,0E0,0E0,0E0,0E0,0E0,0E0,0E0,0E0,0E0,0E0,0E0,0E0],"parents":[2147483647,0,0,1,1,2,2,3,3,4,4,5,5,6,6,9,9,12,12,13,13,14,14,15,15,16,16,18,18,19,19,21,21,22,22],"right_children":[2,4,6,8,10,12,14,-1,-1,16,-1,-1,18,20,22,24,26,-1,28,30,-1,32,34,-1,-1,-1,-1,-1,-1,-1,-1,-1,-1,-1,-1],"split_conditions":[4.0996373E-1,3.4837335E-1,3.6098266E-1,5.212267E-1,6.5322125E-1,4.1112962E-1,2.7567762E-1,3.1941783E-2,-1.6919987E-1,5.0141954E-1,-5.721434E-2,7.0445284E-2,3.4220412E-1,4.6535045E-1,4.6209756E-1,3.897008E-1,5.2072716E-1,1.3301544E-2,3.8533813E-1,4.6365845E-1,-4.4588413E-2,4.9219957E-1,7.032245E-1,2.4803197E-2,2.1381715E-1,-3.8681697E-2,1.500189E-1,-3.1993654E-2,-1.8891566E-1,7.092332E-2,2.3709606E-1,9.730541E-2,-8.071462E-3,-8.179361E-2,6.559143E-2],"split_indices":[145,340,212,385,96,142,405,0,0,107,0,0,521,258,432,108,423,0,426,139,0,81,26,0,0,0,0,0,0,0,0,0,0,0,0],"split_type":[0,0,0,