{"learner":{"attributes":{"scikit_learn":"{\"_estimator_type\": \"classifier\"}"},"feature_names":[],"feature_types":[],"gradient_booster":{"model":{"gbtree_model_param":{"num_parallel_tree":"1","num_trees":"100"},"iteration_indptr":[0,1,2,3,4,5,6,7,8,9,10,11,12,13,14,15,16,17,18,19,20,21,22,23,24,25,26,27,28,29,30,31,32,33,34,35,36,37,38,39,40,41,42,43,44,45,46,47,48,49,50,51,52,53,54,55,56,57,58,59,60,61,62,63,64,65,66,67,68,69,70,71,72,73,74,75,76,77,78,79,80,81,82,83,84,85,86,87,88,89,90,91,92,93,94,95,96,97,98,99,100],"tree_info":[0,0,0,0,0,0,0,0,0,0,0,0,0,0,0,0,0,0,0,0,0,0,0,0,0,0,0,0,0,0,0,0,0,0,0,0,0,0,0,0,0,0,0,0,0,0,0,0,0,0,0,0,0,0,0,0,0,0,0,0,0,0,0,0,0,0,0,0,0,0,0,0,0,0,0,0,0,0,0,0,0,0,0,0,0,0,0,0,0,0,0,0,0,0,0,0,0,0,0,0],"trees":[{"base_weights":[-7.593932E-2,-4.6855465E-1,8.012422E-1,-5.647264E-1,2.824177E0,1.17770016E-1,1.731124E0,-6.509326E-1,7.0745265E-1,3.1120512E-1,-7.656184E-2,-4.7658968E-1,6.9034666E-1,2.6998403E0,9.794427E-1,-7.9504985E-1,-6.1222818E-2,-2.1109614E-1,1.6830267E0,9.3156046E-1,-6.831355E-1,2.9199788E-1,2.1653192E0,3.040595E0,8.6139804E-1,-1.3392198E-1,1.4760777E0,-8.47475E-1,2.6605096E-1,-3.983504E-1,1.2708622E0,-5.69397E-1,1.9230275E-1,-6.5360785E-1,2.0082817E0,-3.6908862E-1,1.7656205E0,3.0547526E-1,-8.7938154E-1,1.2423449E0,-3.4375715E-1,2.7213948E0,3.2497454E-1,3.139632E0,-3.1461786E-2,1.9099127E0,-5.256731E-1,-7.00585E-1,1.0610634E0,-5.348687E-1,1.7235487E0,-3.0300397E-2,-9.386187E-2,1.23135306E-1,-6.587316E-2,-7.489496E-2,4.4676628E-2,-4.0774427E-2,2.0348202E-1,9.289602E-2,-8.9563005E-2,-2.0585006E-2,-7.656184E-2,2.2990207E-1,-8.183431E-2,1.0383838E-1,-1.0496556E-1,-3.473904E-3,2.6003903E-1,-3.6842167E-2,1.918268E-1,1.2476237E-1,-9.4883196E-2,-8.161972E-2,1.699272E-1,-6.869797E-2,9.084671E-2,-3.1461786E-2,3.0305946E-1,1.8057308E-1,-7.71041E-2,3.2622868E-1,3.8650922E-2,-3.1461786E-2,2.5596553E-1,7.869964E-2,-1.0496556E-1,6.816333E-2,-1.0660242E-1,-8.629119E-2,1.6962306E-1,1.0383838E-1,-1.118835E-1,-1.0576153E-2,2.0232931E-1],"categories":[],"categories_nodes":[],"categories_segments":[],"categories_sizes":[],"default_left":[0,0,0,0,0,0,0,0,0,0,0,0,0,0,0,0,0,0,0,0,0,0,0,0,0,0,0,0,0,0,0,0,0,0,0,0,0,0,0,0,0,0,0,0,0,0,0,0,0,0,0,0,0,0,0,0,0,0,0,0,0,0,0,0,0,0,0,0,0,0,0,0,0,0,0,0,0,0,0,0,0,0,0,0,0,0,0,0,0,0,0,0,0,0,0],"id":0,"left_children":[1,3,5,7,9,11,13,15,17,-1,-1,19,21,23,25,27,29,31,33,35,37,39,41,43,45,47,49,51,53,55,57,59,-1,61,63,65,67,69,71,73,75,77,79,81,-1,83,85,87,89,91,93,-1,-1,-1,-1,-1,-1,-1,-1,-1,-1,-1,-1,-1,-1,-1,-1,-1,-1,-1,-1,-1,-1,-1,-1,-1,-1,-1,-1,-1,-1,-1,-1,-1,-1,-1,-1,-1,-1,-1,-1,-1,-1,-1,-1],"loss_changes":[3.3191095E2,2.1238214E2,1.8920183E2,7.148102E1,2.207582E1,5.9149685E1,8.9234344E1,5.1539337E1,3.761241E1,0E0,0E0,2.5474453E1,5.133224E1,3.1560883E1,4.0350418E1,2.7356201E1,5.4528484E1,1.8148846E1,1.672076E1,1.2961098E1,1.4829525E1,4.3198383E1,1.8202232E1,1.615155E1,1.5441189E1,1.6532581E1,2.5953873E1,2.2790863E1,2.1988337E1,2.9004416E1,3.229212E1,1.0543771E1,0E0,4.4789314E-3,1.6708565E1,6.12889E0,1.0740473E1,1.5023804E1,1.04723625E1,2.8280643E1,1.9190865E1,1.4271606E1,1.0259027E1,1.37378845E1,0E0,9.288446E0,4.3047996E0,9.0201645E0,1.1115405E1,6.9267273E0,2.4902573E1,0E0,0E0,0E0,0E0,0E0,0E0,0E0,0E0,0E0,0E0,0E0,0E0,0E0,0E0,0E0,0E0,0E0,0E0,0E0,0E0,0E0,0E0,0E0,0E0,0E0,0E0,0E0,0E0,0E0,0E0,0E0,0E0,0E0,0E0,0E0,0E0,0E0,0E0,0E0,0E0,0E0,0E0,0E0,0E0],"parents":[2147483647,0,0,1,1,2,2,3,3,4,4,5,5,6,6,7,7,8,8,11,11,12,12,13,13,14,14,15,15,16,16,17,17,18,18,19,19,20,20,21,21,22,22,23,23,24,24,25,25,26,26,27,27,28,28,29,29,30,30,31,31,33,33,34,34,35,35,36,36,37,37,38,38,39,39,40,40,41,41,42,42,43,43,45,45,46,46,47,47,48,48,49,49,50,50],"right_children":[2,4,6,8,10,12,14,16,18,-1,-1,20,22,24,26,28,30,32,34,36,38,40,42,44,46,48,50,52,54,56,58,60,-1,62,64,66,68,70,72,74,76,78,80,82,-1,84,86,88,90,92,94,-1,-1,-1,-1,-1,-1,-1,-1,-1,-1,-1,-1,-1,-1,-1,-1,-1,-1,-1,-1,-1,-1,-1,-1,-1,-1,-1,-1,-1,-1,-1,-1,-1,-1,-1,-1,-1,-1,-1,-1,-1,-1,-1,-1],"split_conditions":[6.024746E-1,9.0460277E-1,6.0658705E-1,6.192736E-1,5.1890165E-1,4.575067E-1,4.4171274E-1,5.7755524E-1,4.7899428E-1,3.1120512E-1,-7.656184E-2,3.955232E-1,6.5783846E-1,6.1481756E-1,4.0827346E-1,7.325376E-1,5.527509E-1,6.4842224E-1,4.0620363E-1,5.9771E-1,3.757244E-1,4.8833978E-1,5.210202E-1,6.625842E-1,4.9147618E-1,5.3547394E-1,3.259965E-1,4.2584425E-1,4.1587847E-1,6.016632E-1,3.8006645E-1,4.074209E-1,1.9230275E-1,4.8744845E-1,6.6960794E-1,4.7170824E-1,4.1557047E-1,6.6839874E-1,2.6313314E-1,4.5123342E-1,6.572188E-1,3.6656505E-1,4.3062136E-1,6.9792837E-1,-3.1461786E-2,5.3353757E-1,3.7317818E-1,3.4237295E-1,3.6043537E-1,5.014342E-1,4.1843155E-1,-3.0300397E-2,-9.386187E-2,1.23135306E-1,-6.587316E-2,-7.489496E-2,4.4676628E-2,-4.0774427E-2,2.0348202E-1,9.289602E-2,-8.9563005E-2,-2.0585006E-2,-7.656184E-2,2.2990207E-1,-8.183431E-2,1.0383838E-1,-1.0496556E-1,-3.473904E-3,2.6003903E-1,-3.6842167E-2,1.918268E-1,1.2476237E-1,-9.4883196E-2,-8.161972E-2,1.699272E-1,-6.869797E-2,9.084671E-2,-3.1461786E-2,3.0305946E-1,1.8057308E-1,-7.71041E-2,3.2622868E-1,3.8650922E-2,-3.1461786E-2,2.5596553E-1,7.869964E-2,-1.0496556E-1,6.816333E-2,-1.0660242E-1,-8.629119E-2,1.6962306E-1,1.0383838E-1,-1.118835E-1,-1.0576153E-2,2.0232931E-1],"split_indices":[26,283,270,27,84,294,512,509,110,0,0,200,108,117,110,299,720,48,48,364,431,596,386,701,447,48,295,145,512,396,496,102,0,1,84,1,438,29,525,212,653,556,241,100,0,479,14,143,668,448,203,0,0,0,0,0,0,0,0,0,0,0,0,0,0,0,0,0,0,0,0,0,0,0,0,0,0,0,0,0,0,0,0,0,0,0,0,0,0,0,0,0,0,0,0],"split_type":[0,0,0,0,0,0,0,0,0,0,0,0,0,0,0,0,0,0,0,0,0,0,0,0,0,0,0,0,0,0,0,0,0,0,0,0,0,0,0,0,0,0,0,0,0,0,0,0,0,0,0,0,0,0,0,0,0,0,0,0,0,0,0,0,0,0,0,0,0,0,0,0,0,0,0,0,0,0,0,0,0,0,0,0,0,0,0,0,0,0,0,0,0,0,0],"sum_hessian":[9.6166095E2,6.646416E2,2.9701932E2,6.465851E2,1.8056503E1,1.718411E2,1.2517822E2,6.0600867E2,4.057641E1,1.683921E1,1.2172923E0,8.439893E1,8.744216E1,5.356086E1,7.161736E1,4.8671405E2,1.1929465E2,2.1302616E1,1.9273794E1,1.0346985E1,7.405195E1,6.979143E1,1.7650738E1,4.4634052E1,8.92681E0,2.2317026E1,4.930034E1,4.6399124E2,2.272279E1,9.576033E1,2.3534317E1,1.886803E1,2.4345846E0,2.2317026E0,1.7042091E1,4.260523E0,6.0864615E0,1.2172923E1,6.1879025E1,2.7591959E1,4.2199467E1,1.3187333E1,4.463405E0,4.341676E1,1.2172923E0,4.869169E0,4.057641E0,1.5419036E1,6.8979897E0,5.2749333E0,4.4025406E1,6.715396E1,3.9683728E2,1.0955631E1,1.17671585E1,6.77626E1,2.7997723E1,7.5066357E0,1.6027681E1,3.0432308E0,1.58248005E1,1.0144103E0,1.2172923E0,1.5621918E1,1.4201744E0,1.2172923E0,3.0432308E0,2.2317026E0,3.854759E0,9.129692E0,3.0432308E0,1.4201744E0,6.045885E1,4.869169E0,2.272279E1,3.347554E1,8.723928E0,1.2172923E0,1.1970041E1,1.6230564E0,2.8403487E0,4.138794E1,2.0288205E0,1.2172923E0,3.651877E0,1.0144103E0,3.0432308E0,3.0432308E0,1.2375805E1,1.6230564E0,5.2749333E0,1.2172923E0,4.057641E0,6.289344E0,3.773606E1],"tree_param":{"num_deleted":"0","num_feature":"768","num_nodes":"95","size_leaf_vector":"1"}},{"base_weights":[-7.0259646E-2,-4.3285316E-1,7.0044583E-1,-5.2323127E-1,2.2952554E0,1.2274649E-1,1.5034196E0,-7.980099E-1,-1.5582491E-1,2.5117823E-1,-7.37999E-2,1.5498307E0,-1.19758174E-1,7.0637846E-1,2.123627E0,3.1566612E-2,-8.742598E-1,3.7278712E-1,-5.406975E-1,2.415105E0,2.9808357E-1,-5.821348E-1,3.8020223E-1,-6.2394345E-1,1.0385505E0,3.0951974E-1,2.3793101E0,1.2865683E0,-6.456858E-1,-1.0089633E0,-3.9206076E-1,-3.0959982E-2,1.663086E0,1.8494523E-1,-7.6983184E-1,2.6213748E0,-2.2542678E-2,-9.28796E-1,1.0963638E0,-9.40193E-1,1.5937248E-1,-4.0000807E-2,1.5578381E0,-1.0549085E0,9.8293227E-1,1.3471341E0,-6.142852E-1,-8.1425357E-1,1.4662563E0,5.7179123E-1,2.5684092E0,-2.533391E-2,2.0906532E-1,-9.655259E-2,9.515815E-2,1.5728895E-1,-1.0268598E-1,9.443911E-2,-6.56644E-2,-3.9379526E-2,8.586453E-2,-3.4845814E-2,2.04192E-1,1.3792734E-1,-6.97503E-2,-8.596068E-2,4.083371E-2,2.784737E-1,5.224178E-2,-1.0583822E-1,-1.9275956E-2,2.24699E-1,4.448093E-3,-1.0327828E-1,7.89316E-2,8.158346E-2,-6.9556355E-2,1.3019615E-1,-3.1199083E-2,-9.0488024E-2,2.2142124E-1,2.7789278E-2,-1.2362292E-1,1.7360514E-1,-2.4570728E-2,-7.556899E-2,1.6059373E-1,1.1216922E-1,-1.0547618E-1,-1.1096789E-1,2.724782E-2,2.1486571E-1,-7.064892E-2,-6.228257E-2,1.8079515E-1,-6.956165E-3,2.680395E-1],"categories":[],"categories_nodes":[],"categories_segments":[],"categories_sizes":[],"default_left":[0,0,0,0,0,0,0,0,0,0,0,0,0,0,0,0,0,0,0,0,0,0,0,0,0,0,0,0,0,0,0,0,0,0,0,0,0,0,0,0,0,0,0,0,0,0,0,0,0,0,0,0,0,0,0,0,0,0,0,0,0,0,0,0,0,0,0,0,0,0,0,0,0,0,0,0,0,0,0,0,0,0,0,0,0,0,0,0,0,0,0,0,0,0,0,0,0],"id":1,"left_children":[1,3,5,7,9,11,13,15,17,-1,-1,19,21,23,25,27,29,31,33,35,37,39,41,43,45,47,49,51,53,55,57,59,61,63,65,67,-1,69,71,73,75,77,79,81,83,85,87,89,91,93,95,-1,-1,-1,-1,-1,-1,-1,-1,-1,-1,-1,-1,-1,-1,-1,-1,-1,-1,-1,-1,-1,-1,-1,-1,-1,-1,-1,-1,-1,-1,-1,-1,-1,-1,-1,-1,-1,-1,-1,-1,-1,-1,-1,-1,-1,-1],"loss_changes":[2.6755624E2,1.6170856E2,1.4192877E2,6.357086E1,1.5685654E1,6.22236E1,6.182254E1,2.2845078E1,5.5377357E1,0E0,0E0,2.755909E1,3.585682E1,2.608162E1,3.2447296E1,2.7459444E1,2.1064667E1,5.98863E1,2.630439E1,8.9226E0,1.2587112E1,2.1517937E1,3.7013016E1,9.433226E0,2.4509197E1,1.4176338E1,1.9912628E1,1.4540262E1,1.165445E1,1.3518311E1,2.6708271E1,2.8892504E1,2.1585571E1,4.1609642E1,1.3020065E1,3.4374924E0,0E0,2.917266E-1,9.116296E0,9.529556E0,1.5755999E1,2.084947E1,3.3786858E1,2.7705164E0,3.278159E0,2.2677261E1,7.294016E0,2.1351366E0,9.344286E0,1.1774681E1,1.6831299E1,0E0,0E0,0E0,0E0,0E0,0E0,0E0,0E0,0E0,0E0,0E0,0E0,0E0,0E0,0E0,0E0,0E0,0E0,0E0,0E0,0E0,0E0,0E0,0E0,0E0,0E0,0E0,0E0,0E0,0E0,0E0,0E0,0E0,0E0,0E0,0E0,0E0,0E0,0E0,0E0,0E0,0E0,0E0,0E0,0E0,0E0],"parents":[2147483647,0,0,1,1,2,2,3,3,4,4,5,5,6,6,7,7,8,8,11,11,12,12,13,13,14,14,15,15,16,16,17,17,18,18,19,19,20,20,21,21,22,22,23,23,24,24,25,25,26,26,27,27,28,28,29,29,30,30,31,31,32,32,33,33,34,34,35,35,37,37,38,38,39,39,40,40,41,41,42,42,43,43,44,44,45,45,46,46,47,47,48,48,49,49,50,50],"right_children":[2,4,6,8,10,12,14,16,18,-1,-1,20,22,24,26,28,30,32,34,36,38,40,42,44,46,48,50,52,54,56,58,60,62,64,66,68,-1,70,72,74,76,78,80,82,84,86,88,90,92,94,96,-1,-1,-1,-1,-1,-1,-1,-1,-1,-1,-1,-1,-1,-1,-1,-1,-1,-1,-1,-1,-1,-1,-1,-1,-1,-1,-1,-1,-1,-1,-1,-1,-1,-1,-1,-1,-1,-1,-1,-1,-1,-1,-1,-1,-1,-1],"split_conditions":[6.024746E-1,9.0460277E-1,5.148059E-1,4.739606E-1,5.1890165E-1,3.6124912E-1,4.8115593E-1,3.8739938E-1,4.4575155E-1,2.5117823E-1,-7.37999E-2,5.600999E-1,4.1777724E-1,4.734369E-1,4.277842E-1,4.939712E-1,6.424476E-1,5.3797555E-1,4.1932228E-1,5.8977646E-1,4.8255652E-1,5.379312E-1,6.510001E-1,6.5842474E-1,6.802163E-1,4.885091E-1,4.277556E-1,3.9538288E-1,5.147966E-1,1.19606435E-1,3.879153E-1,5.58366E-1,3.058253E-1,4.0146235E-1,6.481664E-1,6.460514E-1,-2.2542678E-2,6.1567485E-1,3.7891382E-1,6.883342E-1,5.0313866E-1,3.5601088E-1,4.5616603E-1,3.2387745E-1,4.407608E-1,3.205148E-1,2.9391572E-1,4.896304E-1,6.84994E-1,4.205196E-1,3.2028335E-1,-2.533391E-2,2.0906532E-1,-9.655259E-2,9.515815E-2,1.5728895E-1,-1.0268598E-1,9.443911E-2,-6.56644E-2,-3.9379526E-2,8.586453E-2,-3.4845814E-2,2.04192E-1,1.3792734E-1,-6.97503E-2,-8.596068E-2,4.083371E-2,2.784737E-1,5.224178E-2,-1.0583822E-1,-1.9275956E-2,2.24699E-1,4.448093E-3,-1.0327828E-1,7.89316E-2,8.158346E-2,-6.9556355E-2,1.3019615E-1,-3.1199083E-2,-9.0488024E-2,2.2142124E-1,2.7789278E-2,-1.2362292E-1,1.7360514E-1,-2.4570728E-2,-7.556899E-2,1.6059373E-1,1.1216922E-1,-1.0547618E-1,-1.1096789E-1,2.724782E-2,2.1486571E-1,-7.064892E-2,-6.228257E-2,1.8079515E-1,-6.956165E-3,2.680395E-1],"split_indices":[26,283,27,191,84,731,367,229,503,0,0,109,27,401,589,624,420,110,657,617,324,300,190,365,109,612,174,189,708,186,731,1,674,204,157,78,0,490,337,164,440,205,401,456,31,498,317,735,166,55,209,0,0,0,0,0,0,0,0,0,0,0,0,0,0,0,0,0,0,0,0,0,0,0,0,0,0,0,0,0,0,0,0,0,0,0,0,0,0,0,0,0,0,0,0,0,0],"split_type":[0,0,0,0,0,0,0,0,0,0,0,0,0,0,0,0,0,0,0,0,0,0,0,0,0,0,0,0,0,0,0,0,0,0,0,0,0,0,0,0,0,0,0,0,0,0,0,0,0,0,0,0,0,0,0,0,0,0,0,0,0,0,0,0,0,0,0,0,0,0,0,0,0,0,0,0,0,0,0,0,0,0,0,0,0,0,0,0,0,0,0,0,0,0,0,0,0],"sum_hessian":[9.553441E2,6.499845E2,3.053596E2,6.2992426E2,2.0060234E1,1.7826193E2,1.2709766E2,3.5972125E2,2.7020303E2,1.8884123E1,1.176113E0,2.5109192E1,1.5315274E2,5.6555706E1,7.0541954E1,3.0329649E1,3.293916E2,1.1385613E2,1.563469E2,1.4296971E1,1.081222E1,7.948164E1,7.36711E1,1.1124524E1,4.5431183E1,8.987181E0,6.155477E1,1.0315161E1,2.0014488E1,2.5661353E2,7.277809E1,8.7463844E1,2.6392284E1,3.756754E1,1.1877935E2,1.3267791E1,1.0291808E0,4.197528E0,6.6146913E0,5.341886E1,2.6062786E1,5.50089E1,1.8662197E1,9.042755E0,2.0817692E0,3.8439503E1,6.99168E0,4.7087207E0,4.2784605E0,6.2109227E0,5.534385E1,3.7734814E0,6.5416794E0,1.7004904E1,3.0095835E0,1.1683606E0,2.5544516E2,1.16025305E1,6.117556E1,6.2521217E1,2.4942629E1,4.195431E0,2.2196854E1,1.5723688E1,2.1843853E1,1.106206E2,8.158756E0,1.2006591E1,1.2612004E0,3.1967604E0,1.0007675E0,2.6164584E0,3.9982328E0,5.108676E1,2.3321016E0,1.4768521E1,1.1294265E1,8.632163E0,4.6376736E1,3.8475554E0,1.4814641E1,1.0191165E0,8.023639E0,1.0346022E0,1.047167E0,4.002062E0,3.443744E1,1.1020017E0,5.8896785E0,3.6856658E0,1.023055E0,3.2643142E0,1.0141462E0,3.4108555E0,2.800067E0,2.2691822E0,5.3074665E1],"tree_param":{"num_deleted":"0","num_feature":"768","num_nodes":"97","size_leaf_vector":"1"}},{"base_weights":[-6.493164E-2,-5.809026E-1,3.8701025E-1,1.2689378E0,-6.578957E-1,9.786772E-1,-1.2504083E-1,-8.7821233E-1,1.9454176E0,-2.0824386E-1,-8.69559E-1,1.5657398E0,3.1738913E-1,8.259075E-1,-3.3686975E-1,-1.0003646E-1,-1.9524625E-2,2.2117088E0,-7.168009E-2,2.6261723E-1,-6.176962E-1,-2.070516E-1,-9.501653E-1,6.3231105E-1,1.9560515E0,-5.035059E-4,1.6704302E0,-3.033218E-1,1.4399168E0,-4.854244E-1,6.478537E-1,1.691528E-2,2.3846562E-1,7.3905367E-1,-5.630874E-1,-7.8428215E-1,4.28705E-1,8.4920985E-1,-6.2243015E-1,-9.785759E-1,6.26058E-1,-8.869281E-1,1.0583955E0,4.9236324E-1,2.1302977E0,-2.7898407E-1,8.4016687E-1,1.2977993E-1,2.0611115E0,-7.99014E-1,1.0845463E0,-6.2800133E-1,1.7141988E0,4.0637687E-1,-6.386939E-1,-9.005927E-2,1.7050209E0,1.5769465E-1,8.050962E-3,-7.7533446E-2,1.8421814E-1,1.2859152E-1,-8.6383246E-2,1.3690065E-1,-4.8926186E-2,1.6112766E-1,-7.262528E-2,-8.4809765E-2,2.0513986E-1,-2.5218586E-2,-1.0313417E-1,-5.8719452E-2,1.644315E-1,-1.197526E-1,7.4727625E-2,1.376902E-2,1.8664785E-1,-5.8654543E-2,1.8393637E-1,2.2339933E-1,9.84381E-3,3.210368E-2,-8.246983E-2,1.2010055E-1,-8.744701E-2,1.3741031E-1,-9.894857E-2,3.0757988E-2,2.359126E-1,8.589362E-2,-1.1025784E-1,1.877569E-1,-4.6132397E-2,3.0375097E-2,-9.784837E-2,-1.4402901E-2,2.0218955E-1,-3.3372004E-2,1.6859156E-1,-8.28601E-2,-1.6728876E-2,6.902134E-2,-9.227377E-2,-8.659478E-2,2.2168684E-1],"categories":[],"categories_nodes":[],"categories_segments":[],"categories_sizes":[],"default_left":[0,0,0,0,0,0,0,0,0,0,0,0,0,0,0,0,0,0,0,0,0,0,0,0,0,0,0,0,0,0,0,0,0,0,0,0,0,0,0,0,0,0,0,0,0,0,0,0,0,0,0,0,0,0,0,0,0,0,0,0,0,0,0,0,0,0,0,0,0,0,0,0,0,0,0,0,0,0,0,0,0,0,0,0,0,0,0,0,0,0,0,0,0,0,0,0,0,0,0,0,0,0,0,0,0],"id":2,"left_children":[1,3,5,7,9,11,13,15,17,19,21,23,25,27,29,-1,-1,31,-1,33,35,37,39,41,43,45,47,49,51,53,55,-1,-1,57,59,61,63,65,67,69,71,73,75,77,79,81,83,85,87,89,91,93,95,97,99,101,103,-1,-1,-1,-1,-1,-1,-1,-1,-1,-1,-1,-1,-1,-1,-1,-1,-1,-1,-1,-1,-1,-1,-1,-1,-1,-1,-1,-1,-1,-1,-1,-1,-1,-1,-1,-1,-1,-1,-1,-1,-1,-1,-1,-1,-1,-1,-1,-1],"loss_changes":[2.2076842E2,6.3787186E1,1.5304893E2,2.7858187E1,4.026828E1,9.0459335E1,5.496402E1,2.2199082E-1,1.1511047E1,2.6641174E1,1.5218262E1,4.3887817E1,4.793141E1,3.4928474E1,3.289669E1,0E0,0E0,4.1792946E0,0E0,2.5822647E1,1.3193737E1,1.4827232E1,1.21245575E1,2.5535484E1,2.1103973E1,2.159328E1,1.249324E1,1.3488957E1,1.9452583E1,2.6791092E1,2.3263756E1,0E0,0E0,2.2708876E1,1.3781387E1,1.1647915E1,9.971625E0,1.2721914E1,1.6202044E1,9.433472E0,7.341861E0,5.395441E0,2.2160591E1,1.6397808E1,1.6070679E1,2.2950773E1,1.5250368E1,8.818808E0,8.077118E0,8.040964E0,7.3055325E0,1.7751913E0,1.6799606E1,2.8099564E1,1.472467E1,1.2589448E1,1.8011284E1,0E0,0E0,0E0,0E0,0E0,0E0,0E0,0E0,0E0,0E0,0E0,0E0,0E0,0E0,0E0,0E0,0E0,0E0,0E0,0E0,0E0,0E0,0E0,0E0,0E0,0E0,0E0,0E0,0E0,0E0,0E0,0E0,0E0,0E0,0E0,0E0,0E0,0E0,0E0,0E0,0E0,0E0,0E0,0E0,0E0,0E0,0E0,0E0],"parents":[2147483647,0,0,1,1,2,2,3,3,4,4,5,5,6,6,7,7,8,8,9,9,10,10,11,11,12,12,13,13,14,14,17,17,19,19,20,20,21,21,22,22,23,23,24,24,25,25,26,26,27,27,28,28,29,29,30,30,33,33,34,34,35,35,36,36,37,37,38,38,39,39,40,40,41,41,42,42,43,43,44,44,45,45,46,46,47,47,48,48,49,49,50,50,51,51,52,52,53,53,54,54,55,55,56,56],"right_children":[2,4,6,8,10,12,14,16,18,20,22,24,26,28,30,-1,-1,32,-1,34,36,38,40,42,44,46,48,50,52,54,56,-1,-1,58,60,62,64,66,68,70,72,74,76,78,80,82,84,86,88,90,92,94,96,98,100,102,104,-1,-1,-1,-1,-1,-1,-1,-1,-1,-1,-1,-1,-1,-1,-1,-1,-1,-1,-1,-1,-1,-1,-1,-1,-1,-1,-1,-1,-1,-1,-1,-1,-1,-1,-1,-1,-1,-1,-1,-1,-1,-1,-1,-1,-1,-1,-1,-1],"split_conditions":[5.2866626E-1,2.4672067E-1,4.5880997E-1,4.798575E-1,4.8596758E-1,5.069845E-1,3.879153E-1,5.786208E-1,6.2960106E-1,5.3204125E-1,3.4983987E-1,4.739606E-1,6.192736E-1,5.0582844E-1,6.541628E-1,-1.0003646E-1,-1.9524625E-2,3.559289E-1,-7.168009E-2,5.586363E-1,6.586199E-1,4.2562324E-1,5.936328E-1,5.0570273E-1,4.6757224E-1,5.619027E-1,4.3538952E-1,5.445916E-1,3.059674E-1,3.961829E-1,5.939073E-1,1.691528E-2,2.3846562E-1,5.091691E-1,7.4023414E-1,2.4956125E-1,4.6117407E-1,5.27342E-1,7.1904826E-1,3.2173342E-1,4.5905378E-1,5.8870006E-1,4.493649E-1,5.4729414E-1,6.2839895E-1,4.7140276E-1,5.220908E-1,3.7206703E-1,3.9068633E-1,2.7917308E-1,5.2219296E-1,5.082859E-1,3.8016018E-1,5.8625185E-1,4.7753578E-1,4.756962E-1,4.3875927E-1,1.5769465E-1,8.050962E-3,-7.7533446E-2,1.8421814E-1,1.2859152E-1,-8.6383246E-2,1.3690065E-1,-4.8926186E-2,1.6112766E-1,-7.262528E-2,-8.4809765E-2,2.0513986E-1,-2.5218586E-2,-1.0313417E-1,-5.8719452E-2,1.644315E-1,-1.197526E-1,7.4727625E-2,1.376902E-2,1.8664785E-1,-5.8654543E-2,1.8393637E-1,2.2339933E-1,9.84381E-3,3.210368E-2,-8.246983E-2,1.2010055E-1,-8.744701E-2,1.3741031E-1,-9.894857E-2,3.0757988E-2,2.359126E-1,8.589362E-2,-1.1025784E-1,1.877569E-1,-4.6132397E-2,3.0375097E-2,-9.784837E-2,-1.4402901E-2,2.0218955E-1,-3.3372004E-2,1.6859156E-1,-8.28601E-2,-1.6728876E-2,6.902134E-2,-9.227377E-2,-8.659478E-2,2.2168684E-1],"split_indices":[26,716,247,27,31,419,731,333,354,229,550,191,27,700,157,0,0,292,0,541,282,670,708,251,181,717,582,492,338,229,661,0,0,273,547,554,405,54,202,75,110,3,465,343,135,626,178,60,590,591,529,637,395,717,708,179,190,0,0,0,0,0,0,0,0,0,0,0,0,0,0,0,0,0,0,0,0,0,0,0,0,0,0,0,0,0,0,0,0,0,0,0,0,0,0,0,0,0,0,0,0,0,0,0,0],"split_type":[0,0,0,0,0,0,0,0,0,0,0,0,0,0,0,0,0,0,0,0,0,0,0,0,0,0,0,0,0,0,0,0,0,0,0,0,0,0,0,0,0,0,0,0,0,0,0,0,0,0,0,0,0,0,0,0,0,0,0,0,0,0,0,0,0,0,0,0,0,0,0,0,0,0,0,0,0,0,0,0,0,0,0,0,0,0,0,0,0,0,0,0,0,0,0,0,0,0,0,0,0,0,0,0,0],"sum_hessian":[9.4477246E2,4.4100385E2,5.037686E2,1.7003185E1,4.2400067E2,2.3329202E2,2.7047656E2,4.002146E0,1.3001039E1,1.3634242E2,2.8765823E2,1.2285714E2,1.1043488E2,4.874595E1,2.2173062E2,3.0007162E0,1.0014296E0,1.1972682E1,1.0283564E0,6.358254E1,7.275989E1,3.158966E1,2.5606857E2,3.6997593E1,8.585955E1,9.023427E1,2.020062E1,1.7347685E1,3.1398264E1,1.9310585E2,2.8624765E1,1.0890275E0,1.0883655E1,4.0385063E1,2.3197475E1,6.2983482E1,9.776405E0,8.621562E0,2.2968098E1,2.5190724E2,4.161335E0,7.86669E0,2.9130905E1,9.540865E0,7.631868E1,6.828298E1,2.1951286E1,4.355784E0,1.5844836E1,1.3094964E1,4.252722E0,3.5258558E0,2.787241E1,2.8078611E1,1.6502724E2,1.739659E1,1.1228176E1,1.7158718E1,2.3226343E1,2.193916E1,1.2583156E0,1.7695032E0,6.1213978E1,4.586731E0,5.189675E0,5.795493E0,2.8260689E0,2.1810165E1,1.1579328E0,1.7450994E1,2.3445625E2,2.0920236E0,2.0693111E0,6.8348637E0,1.0318267E0,1.4163654E1,1.496725E1,5.611094E0,3.929771E0,7.251825E1,3.8004365E0,3.271932E1,3.556366E1,1.838235E1,3.568936E0,1.9548417E0,2.4009423E0,2.596865E0,1.3247971E1,1.7434454E0,1.1351519E1,2.6689796E0,1.583742E0,1.0001926E0,2.5256631E0,4.035188E0,2.3837221E1,1.8257496E1,9.8211155E0,1.1709674E2,4.7930504E1,9.069233E0,8.327356E0,1.7493789E0,9.478797E0],"tree_param":{"num_deleted":"0","num_feature":"768","num_nodes":"105","size_leaf_vector":"1"}},{"base_weights":[-5.9801254E-2,-2.2842859E-1,1.1294289E0,-3.81744E-1,7.387548E-1,5.0092172E-2,1.4495134E0,8.131599E-2,-6.6146386E-1,1.2401314E0,-3.2224253E-1,1.4687557E0,-3.076666E-1,1.6342192E0,-1.438498E-2,4.173028E-1,-5.3707707E-1,-3.8599026E-1,-9.060398E-1,1.753506E0,3.3232066E-1,1.3619992E0,-6.6049606E-1,2.0118038E-1,-3.1280074E-2,5.362139E-1,-9.2267096E-1,2.858082E-1,1.8082228E0,1.0039802E0,-8.867916E-1,-1.9443603E-1,8.7957305E-1,-7.1435845E-1,5.503368E-1,1.5961385E-1,-6.295186E-1,-2.1099845E-1,-9.9062294E-1,-1.6670656E-1,1.942459E0,1.1457489E0,-4.2381164E-1,2.1840654E-1,-8.080887E-2,1.360719E-1,-8.19165E-1,-5.660815E-1,1.4282343E0,-1.1843603E0,4.9047727E-2,1.4601504E0,-5.995867E-1,-3.091476E-1,1.9026492E0,-8.118691E-2,1.8102406E-1,-1.1501231E-1,2.6752412E-2,7.4967556E-2,-5.111134E-2,1.2523641E-2,1.4275958E-1,5.9536405E-2,-8.1867166E-2,-9.329768E-2,1.3196926E-1,6.829148E-2,-4.5127608E-2,1.2070288E-1,-7.11433E-2,9.896005E-2,-7.42528E-2,-1.995039E-2,-1.0445012E-1,1.1756318E-1,-9.8812945E-2,-5.210632E-2,2.056645E-1,-5.0098132E-2,1.8046589E-1,1.21713415E-1,-8.043801E-2,-1.0070088E-1,8.980142E-2,6.97829E-2,-1.0433632E-1,2.0617774E-1,-6.991787E-2,-2.1457106E-2,-1.2546535E-1,1.7043564E-2,1.7847146E-1,-1.0921731E-1,7.1253054E-2,-8.820601E-2,6.0287267E-2,1.9870894E-1,-1.9705111E-2],"categories":[],"categories_nodes":[],"categories_segments":[],"categories_sizes":[],"default_left":[0,0,0,0,0,0,0,0,0,0,0,0,0,0,0,0,0,0,0,0,0,0,0,0,0,0,0,0,0,0,0,0,0,0,0,0,0,0,0,0,0,0,0,0,0,0,0,0,0,0,0,0,0,0,0,0,0,0,0,0,0,0,0,0,0,0,0,0,0,0,0,0,0,0,0,0,0,0,0,0,0,0,0,0,0,0,0,0,0,0,0,0,0,0,0,0,0,0,0],"id":3,"left_children":[1,3,5,7,9,11,13,15,17,19,21,23,25,27,29,31,33,35,37,39,41,43,45,-1,-1,47,49,51,53,55,57,59,61,63,65,67,69,71,73,75,77,79,81,-1,-1,-1,83,85,87,89,-1,91,93,95,97,-1,-1,-1,-1,-1,-1,-1,-1,-1,-1,-1,-1,-1,-1,-1,-1,-1,-1,-1,-1,-1,-1,-1,-1,-1,-1,-1,-1,-1,-1,-1,-1,-1,-1,-1,-1,-1,-1,-1,-1,-1,-1,-1,-1],"loss_changes":[1.8719868E2,1.2146972E2,3.998047E1,9.151303E1,6.0067116E1,1.4436208E1,2.4191483E1,5.565721E1,2.9315384E1,3.5012573E1,2.1857998E1,6.1653633E0,1.2343797E1,1.8107162E1,1.06678295E1,4.9216515E1,1.8584208E1,2.784563E1,1.34587555E1,1.7940521E1,1.8213762E1,1.3323668E1,1.1155632E1,0E0,0E0,1.0893921E1,5.600628E0,1.1543407E1,1.4606949E1,9.590642E0,2.2708516E0,2.2946545E1,4.073353E1,1.1631657E1,1.6971004E1,2.116352E1,2.260865E1,1.7642008E1,8.614624E0,6.9733076E0,1.3528412E1,1.6263685E1,1.0763481E1,0E0,0E0,0E0,1.046969E1,3.9276378E0,9.465178E0,5.3149986E-1,0E0,1.663826E0,5.0172114E0,2.545331E0,1.2317169E1,0E0,0E0,0E0,0E0,0E0,0E0,0E0,0E0,0E0,0E0,0E0,0E0,0E0,0E0,0E0,0E0,0E0,0E0,0E0,0E0,0E0,0E0,0E0,0E0,0E0,0E0,0E0,0E0,0E0,0E0,0E0,0E0,0E0,0E0,0E0,0E0,0E0,0E0,0E0,0E0,0E0,0E0,0E0,0E0],"parents":[2147483647,0,0,1,1,2,2,3,3,4,4,5,5,6,6,7,7,8,8,9,9,10,10,11,11,12,12,13,13,14,14,15,15,16,16,17,17,18,18,19,19,20,20,21,21,22,22,25,25,26,26,27,27,28,28,29,29,30,30,31,31,32,32,33,33,34,34,35,35,36,36,37,37,38,38,39,39,40,40,41,41,42,42,46,46,47,47,48,48,49,49,51,51,52,52,53,53,54,54],"right_children":[2,4,6,8,10,12,14,16,18,20,22,24,26,28,30,32,34,36,38,40,42,44,46,-1,-1,48,50,52,54,56,58,60,62,64,66,68,70,72,74,76,78,80,82,-1,-1,-1,84,86,88,90,-1,92,94,96,98,-1,-1,-1,-1,-1,-1,-1,-1,-1,-1,-1,-1,-1,-1,-1,-1,-1,-1,-1,-1,-1,-1,-1,-1,-1,-1,-1,-1,-1,-1,-1,-1,-1,-1,-1,-1,-1,-1,-1,-1,-1,-1,-1,-1],"split_conditions":[6.125606E-1,6.798144E-1,4.7721335E-1,5.162892E-1,5.341084E-1,3.281448E-1,6.789754E-1,4.9869752E-1,5.17475E-1,5.394001E-1,4.2428553E-1,6.5202796E-1,4.5101842E-1,3.8878703E-1,3.4278643E-1,5.2022624E-1,6.2820524E-1,4.633595E-1,3.740434E-1,4.3839478E-1,4.249261E-1,5.1217663E-1,2.2855695E-1,2.0118038E-1,-3.1280074E-2,5.351257E-1,4.99051E-1,4.4840732E-1,3.0387765E-1,6.454456E-1,5.7757807E-1,4.2181927E-1,4.8617744E-1,2.8101197E-1,3.360203E-1,4.7772753E-1,2.6051337E-1,3.7291038E-1,2.2081262E-1,5.5198044E-1,3.9900714E-1,3.6326557E-1,3.2116562E-1,2.1840654E-1,-8.080887E-2,1.360719E-1,6.473335E-1,5.385067E-1,5.183956E-1,3.328554E-1,4.9047727E-2,4.5311397E-1,6.314782E-1,3.8541353E-1,7.3301166E-1,-8.118691E-2,1.8102406E-1,-1.1501231E-1,2.6752412E-2,7.4967556E-2,-5.111134E-2,1.2523641E-2,1.4275958E-1,5.9536405E-2,-8.1867166E-2,-9.329768E-2,1.3196926E-1,6.829148E-2,-4.5127608E-2,1.2070288E-1,-7.11433E-2,9.896005E-2,-7.42528E-2,-1.995039E-2,-1.0445012E-1,1.1756318E-1,-9.8812945E-2,-5.210632E-2,2.056645E-1,-5.0098132E-2,1.8046589E-1,1.21713415E-1,-8.043801E-2,-1.0070088E-1,8.980142E-2,6.97829E-2,-1.0433632E-1,2.0617774E-1,-6.991787E-2,-2.1457106E-2,-1.2546535E-1,1.7043564E-2,1.7847146E-1,-1.0921731E-1,7.1253054E-2,-8.820601E-2,6.0287267E-2,1.9870894E-1,-1.9705111E-2],"split_indices":[27,299,147,596,205,122,103,381,626,103,559,648,657,297,179,269,207,31,657,181,512,255,602,0,0,328,115,701,325,27,531,200,600,357,481,84,677,44,611,599,553,434,626,0,0,0,492,173,379,198,0,395,364,38,558,0,0,0,0,0,0,0,0,0,0,0,0,0,0,0,0,0,0,0,0,0,0,0,0,0,0,0,0,0,0,0,0,0,0,0,0,0,0,0,0,0,0,0,0],"split_type":[0,0,0,0,0,0,0,0,0,0,0,0,0,0,0,0,0,0,0,0,0,0,0,0,0,0,0,0,0,0,0,0,0,0,0,0,0,0,0,0,0,0,0,0,0,0,0,0,0,0,0,0,0,0,0,0,0,0,0,0,0,0,0,0,0,0,0,0,0,0,0,0,0,0,0,0,0,0,0,0,0,0,0,0,0,0,0,0,0,0,0,0,0,0,0,0,0,0,0],"sum_hessian":[9.3120184E2,8.162669E2,1.1493495E2,7.051014E2,1.1116554E2,2.6553175E1,8.8381775E1,2.6579782E2,4.3930353E2,7.53771E1,3.5788445E1,4.7222075E0,2.1830969E1,7.837637E1,1.0005397E1,1.7243513E2,9.3362686E1,2.0781412E2,2.3148943E2,4.7553574E1,2.7823526E1,5.4792814E0,3.0309162E1,3.5200102E0,1.2021973E0,9.257024E0,1.2573945E1,9.260017E0,6.9116356E1,4.546927E0,5.4584694E0,7.446815E1,9.796698E1,8.057034E1,1.2792338E1,6.423832E1,1.4357579E2,2.549393E1,2.059955E2,4.270712E0,4.3282864E1,1.3155689E1,1.4667837E1,3.9692295E0,1.5100522E0,1.654709E0,2.8654453E1,4.303929E0,4.9530945E0,1.0745899E1,1.8280454E0,3.7014513E0,5.5585656E0,2.853648E0,6.626271E1,1.3959745E0,3.1509523E0,4.4475026E0,1.0109671E0,1.8361027E1,5.6107124E1,4.17407E1,5.6226284E1,5.596394E0,7.497395E1,4.2963424E0,8.4959955E0,3.453609E1,2.970223E1,5.5439253E0,1.3803186E2,7.5587387E0,1.7935192E1,1.3434434E1,1.9256107E2,1.4575784E0,2.8131335E0,1.7594769E0,4.1523384E1,3.8281531E0,9.327537E0,2.347523E0,1.2320313E1,2.6201784E1,2.4526687E0,1.053094E0,3.2508347E0,3.8403053E0,1.1127893E0,1.0001392E0,9.74576E0,1.050846E0,2.6506052E0,4.163251E0,1.3953148E0,1.7728379E0,1.0808101E0,6.3752514E1,2.5101957E0],"tree_param":{"num_deleted":"0","num_feature":"768","num_nodes":"99","size_leaf_vector":"1"}},{"base_weights":[-5.534174E-2,-5.151387E-1,3.2709485E-1,3.919069E-1,-6.5176564E-1,-3.0699557E-1,6.8446416E-1,1.7764002E0,-2.3290719E-1,-7.068123E-1,3.2937455E-1,5.567584E-1,-5.931123E-1,1.8113483E-1,1.1850253E0,2.0046484E0,-3.988288E-2,-5.939625E-1,1.0826437E0,-2.626617E-1,-8.6118096E-1,1.1172595E0,-5.8079565E-1,9.8021847E-1,-5.4298335E-1,4.0861192E-1,-7.724884E-1,5.479769E-1,-4.9363688E-1,1.300886E-2,1.3896655E0,1.0753488E-2,2.150394E-1,-7.751938E-1,1.3356735E-1,-6.6144824E-2,1.800266E0,6.0697824E-1,-5.068344E-1,-8.8342535E-1,1.1229165E0,-6.605725E-1,1.7467967E0,1.0704962E-1,-1.0211017E0,-8.029742E-1,1.2067448E0,9.787025E-1,-9.6047145E-1,-3.9072284E-1,1.2962359E0,-8.3900535E-1,1.1423024E0,-4.9078055E-2,1.0929068E0,-8.749847E-1,3.4968072E-1,-6.494831E-1,1.1156332E0,1.5168201E0,-2.2324048E-1,-9.4561815E-2,1.008049E-1,2.1346544E-1,1.635945E-2,1.18083574E-1,-4.163671E-2,4.5469847E-2,-7.6736264E-2,-9.115101E-2,7.4156545E-2,1.5681505E-1,1.6398085E-2,-7.860676E-2,-1.8098114E-2,-4.7407128E-2,2.4020116E-1,-1.1179638E-1,-1.7622698E-2,-9.2435464E-2,-1.9815436E-2,1.7457674E-1,2.3791177E-2,1.4571589E-1,6.7982613E-3,3.7660655E-2,-1.198254E-1,9.1149375E-2,-9.9504665E-2,-2.9528453E-3,1.7738846E-1,-9.319971E-2,1.2303746E-2,-7.084894E-2,2.0126317E-1,6.6614285E-2,-4.472918E-2,1.5733556E-1,3.5790328E-2,-1.0114284E-1,4.9417865E-2,9.204809E-2,-6.658718E-2,-1.0842279E-1,4.254882E-2,1.6703665E-1,-6.0858037E-2,1.6147895E-1,3.973087E-4,-1.01688325E-1,9.109045E-2],"categories":[],"categories_nodes":[],"categories_segments":[],"categories_sizes":[],"default_left":[0,0,0,0,0,0,0,0,0,0,0,0,0,0,0,0,0,0,0,0,0,0,0,0,0,0,0,0,0,0,0,0,0,0,0,0,0,0,0,0,0,0,0,0,0,0,0,0,0,0,0,0,0,0,0,0,0,0,0,0,0,0,0,0,0,0,0,0,0,0,0,0,0,0,0,0,0,0,0,0,0,0,0,0,0,0,0,0,0,0,0,0,0,0,0,0,0,0,0,0,0,0,0,0,0,0,0,0,0,0,0],"id":4,"left_children":[1,3,5,7,9,11,13,15,17,19,21,23,25,27,29,31,-1,33,35,37,39,41,43,45,47,49,51,53,55,57,59,-1,-1,61,-1,-1,63,65,67,69,71,73,75,-1,77,79,81,83,85,87,89,91,93,95,97,99,101,103,105,107,109,-1,-1,-1,-1,-1,-1,-1,-1,-1,-1,-1,-1,-1,-1,-1,-1,-1,-1,-1,-1,-1,-1,-1,-1,-1,-1,-1,-1,-1,-1,-1,-1,-1,-1,-1,-1,-1,-1,-1,-1,-1,-1,-1,-1,-1,-1,-1,-1,-1,-1],"loss_changes":[1.6146696E2,5.1921104E1,1.1382544E2,4.816573E1,1.9821869E1,4.516342E1,8.0652695E1,9.379555E0,1.9129547E1,2.3342468E1,1.4955555E1,2.1793957E1,2.4888783E1,4.0178688E1,3.853569E1,4.139084E0,0E0,1.1940913E1,1.2124317E1,1.94394E1,1.2231155E1,1.3505086E1,8.301894E0,1.4428104E1,9.412257E0,1.5706645E1,1.5775269E1,3.418844E1,1.8735577E1,1.8916805E1,2.8403381E1,0E0,0E0,9.809036E0,0E0,0E0,3.1850262E0,1.23581295E1,1.810782E1,1.2194382E1,1.1362796E0,7.509768E-2,1.3397102E1,0E0,4.854555E-1,1.3662982E-1,1.5232292E1,1.3678365E0,3.9388952E0,1.0382582E1,6.6272583E0,1.0224228E1,8.399105E0,1.4829202E1,1.8822212E1,7.9251785E0,1.1371216E1,8.027185E0,1.030896E1,1.8812286E1,1.0711719E1,0E0,0E0,0E0,0E0,0E0,0E0,0E0,0E0,0E0,0E0,0E0,0E0,0E0,0E0,0E0,0E0,0E0,0E0,0E0,0E0,0E0,0E0,0E0,0E0,0E0,0E0,0E0,0E0,0E0,0E0,0E0,0E0,0E0,0E0,0E0,0E0,0E0,0E0,0E0,0E0,0E0,0E0,0E0,0E0,0E0,0E0,0E0,0E0,0E0,0E0],"parents":[2147483647,0,0,1,1,2,2,3,3,4,4,5,5,6,6,7,7,8,8,9,9,10,10,11,11,12,12,13,13,14,14,15,15,17,17,18,18,19,19,20,20,21,21,22,22,23,23,24,24,25,25,26,26,27,27,28,28,29,29,30,30,33,33,36,36,37,37,38,38,39,39,40,40,41,41,42,42,44,44,45,45,46,46,47,47,48,48,49,49,50,50,51,51,52,52,53,53,54,54,55,55,56,56,57,57,58,58,59,59,60,60],"right_children":[2,4,6,8,10,12,14,16,18,20,22,24,26,28,30,32,-1,34,36,38,40,42,44,46,48,50,52,54,56,58,60,-1,-1,62,-1,-1,64,66,68,70,72,74,76,-1,78,80,82,84,86,88,90,92,94,96,98,100,102,104,106,108,110,-1,-1,-1,-1,-1,-1,-1,-1,-1,-1,-1,-1,-1,-1,-1,-1,-1,-1,-1,-1,-1,-1,-1,-1,-1,-1,-1,-1,-1,-1,-1,-1,-1,-1,-1,-1,-1,-1,-1,-1,-1,-1,-1,-1,-1,-1,-1,-1,-1,-1],"split_conditions":[5.2866626E-1,3.8739938E-1,4.9916124E-1,3.3794007E-1,7.0361304E-1,4.2371452E-1,4.817343E-1,5.4288936E-1,5.41618E-1,4.4712925E-1,3.9251962E-1,6.199839E-1,3.2057476E-1,5.9360456E-1,3.7820914E-1,3.377253E-1,-3.988288E-2,7.198079E-1,3.9248914E-1,4.4326693E-1,6.567849E-1,3.606561E-1,2.6516032E-1,4.314867E-1,3.6974508E-1,6.0865235E-1,8.7067354E-1,5.0010055E-1,5.280099E-1,4.8571447E-1,6.287524E-1,1.0753488E-2,2.150394E-1,6.881726E-1,1.3356735E-1,-6.6144824E-2,5.992169E-1,5.6502336E-1,3.793388E-1,7.890706E-1,4.506688E-1,5.059173E-1,4.278027E-1,1.0704962E-1,6.802225E-1,6.4355457E-1,5.6452155E-1,5.968428E-1,3.8777483E-1,3.216423E-1,3.9454237E-1,7.269086E-1,4.0735576E-1,3.884806E-1,5.130948E-1,6.5207964E-1,6.8342805E-1,6.2054825E-1,5.191491E-1,6.3918805E-1,5.534621E-1,-9.4561815E-2,1.008049E-1,2.1346544E-1,1.635945E-2,1.18083574E-1,-4.163671E-2,4.5469847E-2,-7.6736264E-2,-9.115101E-2,7.4156545E-2,1.5681505E-1,1.6398085E-2,-7.860676E-2,-1.8098114E-2,-4.7407128E-2,2.4020116E-1,-1.1179638E-1,-1.7622698E-2,-9.2435464E-2,-1.9815436E-2,1.7457674E-1,2.3791177E-2,1.4571589E-1,6.7982613E-3,3.7660655E-2,-1.198254E-1,9.1149375E-2,-9.9504665E-2,-2.9528453E-3,1.7738846E-1,-9.319971E-2,1.2303746E-2,-7.084894E-2,2.0126317E-1,6.6614285E-2,-4.472918E-2,1.5733556E-1,3.5790328E-2,-1.0114284E-1,4.9417865E-2,9.204809E-2,-6.658718E-2,-1.0842279E-1,4.254882E-2,1.6703665E-1,-6.0858037E-2,1.6147895E-1,3.973087E-4,-1.01688325E-1,9.109045E-2],"split_indices":[26,229,299,243,717,657,492,669,110,592,150,205,503,175,679,325,0,542,3,31,115,403,337,359,637,147,328,552,392,223,205,0,0,720,0,0,516,558,122,192,313,229,168,0,646,612,145,41,173,738,590,345,582,512,160,372,210,147,369,701,462,0,0,0,0,0,0,0,0,0,0,0,0,0,0,0,0,0,0,0,0,0,0,0,0,0,0,0,0,0,0,0,0,0,0,0,0,0,0,0,0,0,0,0,0,0,0,0,0,0,0],"split_type":[0,0,0,0,0,0,0,0,0,0,0,0,0,0,0,0,0,0,0,0,0,0,0,0,0,0,0,0,0,0,0,0,0,0,0,0,0,0,0,0,0,0,0,0,0,0,0,0,0,0,0,0,0,0,0,0,0,0,0,0,0,0,0,0,0,0,0,0,0,0,0,0,0,0,0,0,0,0,0,0,0,0,0,0,0,0,0,0,0,0,0,0,0,0,0,0,0,0,0,0,0,0,0,0,0,0,0,0,0,0,0],"sum_hessian":[9.1628595E2,4.1590433E2,5.0038162E2,5.4201363E1,3.6170297E2,1.8041217E2,3.1996945E2,1.6281326E1,3.7920036E1,3.427525E2,1.8950453E1,4.4655716E1,1.3575645E2,1.6022264E2,1.5974681E2,1.48061285E1,1.4751979E0,3.0184385E1,7.7356515E0,8.909868E1,2.5365384E2,1.0035627E1,8.914825E0,3.2319603E1,1.2336111E1,2.0423521E1,1.1533294E2,1.0391615E2,5.6306484E1,2.3904484E1,1.3584233E2,1.1803089E0,1.3625819E1,2.8139769E1,2.0446167E0,2.2778637E0,5.4577875E0,1.9206694E1,6.989198E1,2.5139017E2,2.2636693E0,2.611467E0,7.42416E0,1.5753798E0,7.3394456E0,3.3560867E0,2.8963516E1,2.366454E0,9.969657E0,1.1040761E1,9.38276E0,1.1200392E2,3.3290195E0,5.0020687E1,5.3895462E1,3.8747383E1,1.75591E1,1.5189258E1,8.715225E0,1.259709E2,9.871428E0,2.6113796E1,2.0259728E0,4.279232E0,1.1785555E0,1.2207335E1,6.999359E0,1.4741217E1,5.515077E1,2.4755081E2,3.839356E0,1.1120439E0,1.1516254E0,1.563348E0,1.048119E0,1.7543178E0,5.6698422E0,6.294564E0,1.0448818E0,2.3551261E0,1.0009608E0,1.8094488E1,1.0869029E1,1.1580513E0,1.2084026E0,1.4171329E0,8.552525E0,3.3385208E0,7.7022405E0,2.733585E0,6.6491756E0,1.0216027E2,9.843649E0,1.1242363E0,2.2047832E0,1.7648989E1,3.2371696E1,3.1901709E1,2.1993755E1,3.5473557E1,3.2738278E0,1.1300929E1,6.25817E0,1.0809158E1,4.3801E0,6.6174235E0,2.097802E0,1.182461E2,7.7248015E0,5.868328E0,4.003099E0],"tree_param":{"num_deleted":"0","num_feature":"768","num_nodes":"111","size_leaf_vector":"1"}},{"base_weights":[-5.10866E-2,4.0982082E-1,-3.848794E-1,-4.0201228E-2,9.629284E-1,4.1707984E-1,-5.155356E-1,-3.9440852E-1,7.7982175E-1,1.4664619E0,4.3636814E-1,1.4004688E0,-6.0474575E-2,-1.5665518E-1,-7.233587E-1,-6.295059E-1,2.1834855E-1,1.1429025E0,-4.3196578E-2,-3.1165248E-2,1.6331339E0,-3.7883377E-1,7.256495E-1,1.6124591E0,-5.9153605E-2,-4.5438385E-1,8.828173E-1,-6.5523696E-1,2.20257E-1,-7.8297025E-1,3.94861E-1,-9.254759E-1,-1.6172397E-1,7.21186E-1,-6.498973E-1,1.400016E0,-3.6089665E-1,1.0529177E0,-6.279183E-1,7.8726304E-1,-1.03587344E-1,5.539987E-1,1.7467225E0,-7.2419316E-1,1.0051461E0,-2.7481046E-1,1.0340416E0,1.8897289E0,2.3667976E-2,-6.455374E-1,1.1070074E0,1.4717349E0,-6.596202E-1,-7.84841E-1,8.1946903E-1,-3.28999E-1,7.313251E-1,-8.176658E-1,7.7904326E-1,-4.6549317E-1,1.1285306E0,1.3748229E-2,-1.0289546E-1,-7.137921E-2,6.636498E-2,-6.849216E-2,1.11938134E-1,1.3286152E-1,-9.186989E-2,-5.1806774E-2,1.5590517E-1,1.1802937E-1,-8.697262E-2,1.5972812E-1,-8.063124E-2,-1.0823019E-1,6.638124E-2,-4.116012E-2,1.7519009E-1,1.5033054E-1,-4.4142306E-2,1.7872763E-1,-3.2869793E-2,-9.663729E-2,6.808779E-2,-7.637579E-2,1.7579634E-1,-7.500073E-2,8.295216E-2,2.6740725E-3,1.4470041E-1,2.039186E-1,-2.0438292E-4,-9.220686E-2,1.1899395E-1,7.093317E-2,-8.67638E-2,-2.6630247E-2,1.7236422E-1,1.8912095E-1,-2.8011952E-2,-9.814586E-2,2.9846175E-2,-9.0175994E-2,4.2740207E-2,-8.391731E-2,1.604094E-1,-6.2700175E-2,5.8348116E-2,1.0147514E-1,-7.91954E-2,-8.4781855E-2,5.5431027E-2,-5.5529512E-2,1.4833936E-1,-9.65512E-2,9.025226E-2,-5.798958E-2,1.7112468E-1],"categories":[],"categories_nodes":[],"categories_segments":[],"categories_sizes":[],"default_left":[0,0,0,0,0,0,0,0,0,0,0,0,0,0,0,0,0,0,0,0,0,0,0,0,0,0,0,0,0,0,0,0,0,0,0,0,0,0,0,0,0,0,0,0,0,0,0,0,0,0,0,0,0,0,0,0,0,0,0,0,0,0,0,0,0,0,0,0,0,0,0,0,0,0,0,0,0,0,0,0,0,0,0,0,0,0,0,0,0,0,0,0,0,0,0,0,0,0,0,0,0,0,0,0,0,0,0,0,0,0,0,0,0,0,0,0,0,0,0],"id":5,"left_children":[1,3,5,7,9,11,13,15,17,19,21,23,25,27,29,31,33,35,37,39,41,43,45,47,-1,49,51,53,55,57,59,61,63,65,67,69,71,73,75,77,-1,79,81,83,85,87,89,91,93,95,97,99,101,103,105,107,109,111,113,115,117,-1,-1,-1,-1,-1,-1,-1,-1,-1,-1,-1,-1,-1,-1,-1,-1,-1,-1,-1,-1,-1,-1,-1,-1,-1,-1,-1,-1,-1,-1,-1,-1,-1,-1,-1,-1,-1,-1,-1,-1,-1,-1,-1,-1,-1,-1,-1,-1,-1,-1,-1,-1,-1,-1,-1,-1,-1,-1],"loss_changes":[1.3867001E2,9.4286354E1,5.498201E1,6.1226948E1,4.4408844E1,3.4732708E1,3.344204E1,2.1333036E1,1.9055264E1,2.1624374E1,2.019652E1,1.1155479E1,1.921022E1,3.1389269E1,1.92827E1,1.4608013E1,1.860458E1,1.7583271E1,1.3757244E1,8.7395315E0,8.567764E0,1.1617461E1,1.9627472E1,9.6921425E0,0E0,1.1569489E1,1.4824696E1,1.4372128E1,2.7029778E1,1.5300293E1,1.0038099E1,7.2991753E0,1.984785E1,1.57607E1,9.602535E0,1.23765335E1,6.7075405E0,8.8602085E0,8.907114E0,7.5197544E0,0E0,9.048141E0,6.4722443E0,7.0600805E0,7.959212E0,8.788736E0,1.9983196E1,5.3213806E0,5.836584E0,1.0555876E1,4.130171E0,8.868031E0,1.8052661E0,9.816296E0,9.534723E0,1.3061438E1,2.2280905E1,1.1439896E1,6.8305664E0,6.100419E0,9.380831E0,0E0,0E0,0E0,0E0,0E0,0E0,0E0,0E0,0E0,0E0,0E0,0E0,0E0,0E0,0E0,0E0,0E0,0E0,0E0,0E0,0E0,0E0,0E0,0E0,0E0,0E0,0E0,0E0,0E0,0E0,0E0,0E0,0E0,0E0,0E0,0E0,0E0,0E0,0E0,0E0,0E0,0E0,0E0,0E0,0E0,0E0,0E0,0E0,0E0,0E0,0E0,0E0,0E0,0E0,0E0,0E0,0E0,0E0],"parents":[2147483647,0,0,1,1,2,2,3,3,4,4,5,5,6,6,7,7,8,8,9,9,10,10,11,11,12,12,13,13,14,14,15,15,16,16,17,17,18,18,19,19,20,20,21,21,22,22,23,23,25,25,26,26,27,27,28,28,29,29,30,30,31,31,32,32,33,33,34,34,35,35,36,36,37,37,38,38,39,39,41,41,42,42,43,43,44,44,45,45,46,46,47,47,48,48,49,49,50,50,51,51,52,52,53,53,54,54,55,55,56,56,57,57,58,58,59,59,60,60],"right_children":[2,4,6,8,10,12,14,16,18,20,22,24,26,28,30,32,34,36,38,40,42,44,46,48,-1,50,52,54,56,58,60,62,64,66,68,70,72,74,76,78,-1,80,82,84,86,88,90,92,94,96,98,100,102,104,106,108,110,112,114,116,118,-1,-1,-1,-1,-1,-1,-1,-1,-1,-1,-1,-1,-1,-1,-1,-1,-1,-1,-1,-1,-1,-1,-1,-1,-1,-1,-1,-1,-1,-1,-1,-1,-1,-1,-1,-1,-1,-1,-1,-1,-1,-1,-1,-1,-1,-1,-1,-1,-1,-1,-1,-1,-1,-1,-1,-1,-1,-1],"split_conditions":[4.1732678E-1,5.71914E-1,3.1965783E-1,5.1209307E-1,4.4695497E-1,3.940295E-1,4.1122186E-1,5.5902076E-1,4.9790987E-1,4.1913426E-1,3.846444E-1,5.679791E-1,5.680692E-1,5.522299E-1,6.125606E-1,5.401677E-1,4.789915E-1,6.530777E-1,4.0930477E-1,4.5872486E-1,2.9281372E-1,5.4705304E-1,3.56487E-1,5.4778415E-1,-5.9153605E-2,7.3377323E-1,6.098683E-1,6.777793E-1,5.0496674E-1,7.442707E-1,4.8391202E-1,3.5113606E-1,4.7661316E-1,3.9747572E-1,2.2663209E-1,2.9932275E-1,4.5755342E-1,5.230694E-1,4.395467E-1,4.9783325E-1,-1.03587344E-1,4.3565232E-1,5.9900725E-1,5.5568564E-1,3.2744524E-1,5.935059E-1,4.443712E-1,6.627047E-1,4.0177727E-1,3.6137062E-1,4.21333E-1,6.7762387E-1,6.7019415E-1,6.9213855E-1,3.8067162E-1,5.882148E-1,6.4177513E-1,7.4967885E-1,3.591167E-1,6.3814497E-1,4.155296E-1,1.3748229E-2,-1.0289546E-1,-7.137921E-2,6.636498E-2,-6.849216E-2,1.11938134E-1,1.3286152E-1,-9.186989E-2,-5.1806774E-2,1.5590517E-1,1.1802937E-1,-8.697262E-2,1.5972812E-1,-8.063124E-2,-1.0823019E-1,6.638124E-2,-4.116012E-2,1.7519009E-1,1.5033054E-1,-4.4142306E-2,1.7872763E-1,-3.2869793E-2,-9.663729E-2,6.808779E-2,-7.637579E-2,1.7579634E-1,-7.500073E-2,8.295216E-2,2.6740725E-3,1.4470041E-1,2.039186E-1,-2.0438292E-4,-9.220686E-2,1.1899395E-1,7.093317E-2,-8.67638E-2,-2.6630247E-2,1.7236422E-1,1.8912095E-1,-2.8011952E-2,-9.814586E-2,2.9846175E-2,-9.0175994E-2,4.2740207E-2,-8.391731E-2,1.604094E-1,-6.2700175E-2,5.8348116E-2,1.0147514E-1,-7.91954E-2,-8.4781855E-2,5.5431027E-2,-5.5529512E-2,1.4833936E-1,-9.65512E-2,9.025226E-2,-5.798958E-2,1.7112468E-1],"split_indices":[503,147,550,110,701,145,152,282,765,27,48,122,509,420,27,345,461,229,219,541,590,681,325,367,0,275,503,667,552,720,741,103,191,706,381,450,21,757,595,268,0,412,247,494,8,311,221,96,15,183,300,558,650,698,11,712,550,509,698,668,181,0,0,0,0,0,0,0,0,0,0,0,0,0,0,0,0,0,0,0,0,0,0,0,0,0,0,0,0,0,0,0,0,0,0,0,0,0,0,0,0,0,0,0,0,0,0,0,0,0,0,0,0,0,0,0,0,0,0],"split_type":[0,0,0,0,0,0,0,0,0,0,0,0,0,0,0,0,0,0,0,0,0,0,0,0,0,0,0,0,0,0,0,0,0,0,0,0,0,0,0,0,0,0,0,0,0,0,0,0,0,0,0,0,0,0,0,0,0,0,0,0,0,0,0,0,0,0,0,0,0,0,0,0,0,0,0,0,0,0,0,0,0,0,0,0,0,0,0,0,0,0,0,0,0,0,0,0,0,0,0,0,0,0,0,0,0,0,0,0,0,0,0,0,0,0,0,0,0,0,0],"sum_hessian":[8.993215E2,3.7764053E2,5.216809E2,2.0873549E2,1.6890504E2,7.277856E1,4.4890237E2,1.4613275E2,6.2602726E1,8.542793E1,8.347711E1,2.315819E1,4.9620365E1,1.652659E2,2.8363647E2,1.05592575E2,4.054018E1,4.3169506E1,1.9433222E1,8.636635E0,7.67913E1,2.1782873E1,6.1694237E1,2.110294E1,2.055251E0,3.5368946E1,1.4251419E1,7.083134E1,9.443457E1,2.695659E2,1.4070563E1,6.4073944E1,4.151863E1,2.5779545E1,1.4760636E1,3.6925198E1,6.2443085E0,6.4817934E0,1.2951429E1,4.8788133E0,3.7578213E0,7.8729067E0,6.8918396E1,1.7814228E1,3.9686444E0,1.4562075E1,4.713216E1,1.7806076E1,3.2968633E0,3.203377E1,3.335176E0,1.0346764E1,3.9046557E0,6.553924E1,5.292097E0,4.568845E1,4.874612E1,2.6417456E2,5.391338E0,6.6443934E0,7.4261694E0,5.655076E0,5.8418873E1,2.495929E1,1.655934E1,5.530428E0,2.0249117E1,1.293931E0,1.3466705E1,2.6543438E0,3.427085E1,1.2223414E0,5.0219674E0,5.1227856E0,1.359008E0,9.7010765E0,3.250353E0,2.4309309E0,2.4478822E0,3.768639E0,4.104268E0,6.773371E1,1.1846832E0,1.5461493E1,2.3527365E0,1.1804332E0,2.7882113E0,1.0405437E1,4.1566367E0,1.4013961E1,3.3118202E1,1.643011E1,1.3759642E0,1.9361861E0,1.3606772E0,4.2026744E0,2.7831097E1,1.2095404E0,2.1256356E0,8.283713E0,2.0630498E0,2.9045587E0,1.000097E0,6.0007713E1,5.531525E0,1.6771656E0,3.6149313E0,3.467648E1,1.10119705E1,4.1380554E1,7.3655667E0,2.5886734E2,5.3072367E0,1.9357765E0,3.4555612E0,5.0813503E0,1.563043E0,1.8899605E0,5.536209E0],"tree_param":{"num_deleted":"0","num_feature":"768","num_nodes":"119","size_leaf_vector":"1"}},{"base_weights":[-4.7237746E-2,-3.2487443E-1,4.4072944E-1,-3.9803407E-1,1.2050762E0,3.5401557E-2,9.3422467E-1,-5.2267764E-2,-6.180982E-1,-4.407925E-1,1.4175835E0,-2.9844865E-1,5.405208E-1,3.592978E-1,1.287444E0,9.0553653E-1,-2.1691833E-1,-2.4475863E-2,-7.429257E-1,2.8994799E-2,-8.167238E-2,7.586098E-3,1.4887773E-1,3.2896298E-1,-5.643615E-1,-2.2215195E-1,8.9009124E-1,-9.18049E-2,9.931684E-1,1.555692E0,5.589853E-1,-8.379992E-2,1.5708561E0,-5.9894353E-1,7.802808E-2,1.1032689E0,-4.278065E-1,-4.4731763E-1,-9.2527497E-1,9.8976E-1,-6.93218E-1,-9.489443E-1,-1.0321601E-1,1.5099381E-1,-4.972406E-1,1.1882917E0,-1.2721209E-1,5.718342E-1,-8.0638695E-1,1.3789684E-1,1.484111E0,-3.325155E-2,1.6172063E0,9.602051E-1,-5.18634E-1,-7.851084E-2,1.409852E-1,-7.4477196E-3,1.8961763E-1,-7.3331915E-2,6.8322316E-2,1.0089475E-1,-1.33131435E-2,-6.872387E-2,1.8752831E-1,-9.15009E-2,1.3023483E-2,2.1275355E-2,-6.2377017E-2,6.687762E-2,-9.813457E-2,-4.4965018E-2,1.3135684E-1,-1.00018896E-1,1.054814E-1,-1.1208608E-1,6.3347407E-3,1.1283624E-1,-4.777328E-2,-8.218282E-2,9.48491E-2,-3.2324128E-2,1.4193891E-1,-1.0096904E-1,7.491483E-2,-4.721915E-3,1.5746847E-1,-1.0963543E-1,3.14159E-2,1.2096836E-1,-6.4910494E-2,-1.1420158E-2,1.7762654E-1,1.6667989E-1,9.003862E-3,-6.1197665E-2,1.2835436E-1,9.3006454E-2,-1.0028714E-1],"categories":[],"categories_nodes":[],"categories_segments":[],"categories_sizes":[],"default_left":[0,0,0,0,0,0,0,0,0,0,0,0,0,0,0,0,0,0,0,0,0,0,0,0,0,0,0,0,0,0,0,0,0,0,0,0,0,0,0,0,0,0,0,0,0,0,0,0,0,0,0,0,0,0,0,0,0,0,0,0,0,0,0,0,0,0,0,0,0,0,0,0,0,0,0,0,0,0,0,0,0,0,0,0,0,0,0,0,0,0,0,0,0,0,0,0,0,0,0],"id":6,"left_children":[1,3,5,7,9,11,13,15,17,19,21,23,25,27,29,31,33,35,37,-1,-1,-1,-1,39,41,43,45,47,49,51,53,55,57,59,61,63,65,67,69,71,73,75,77,-1,79,81,83,85,87,89,91,-1,93,95,97,-1,-1,-1,-1,-1,-1,-1,-1,-1,-1,-1,-1,-1,-1,-1,-1,-1,-1,-1,-1,-1,-1,-1,-1,-1,-1,-1,-1,-1,-1,-1,-1,-1,-1,-1,-1,-1,-1,-1,-1,-1,-1,-1,-1],"loss_changes":[1.1952503E2,6.340871E1,6.3971233E1,4.085196E1,9.685566E0,2.9962671E1,2.883223E1,3.3324146E1,2.4304924E1,1.2601326E0,2.101303E0,1.8044437E1,1.9041178E1,1.618557E1,1.6515854E1,2.0541285E1,2.0334995E1,2.6883192E1,1.4203766E1,0E0,0E0,0E0,0E0,2.2635006E1,1.3300465E1,1.1716493E1,1.4914028E1,1.6489458E1,9.657166E0,8.025406E0,1.1525717E1,1.5161317E1,1.0091774E1,1.4036846E1,2.0281729E1,2.2818768E1,1.1943111E1,1.24082985E1,1.55634E1,9.981586E0,8.216839E0,7.2187195E0,1.6902525E1,0E0,1.0452103E1,1.3638264E1,9.986281E0,1.1316912E1,5.7672977E0,8.939863E0,7.122669E0,0E0,4.591095E0,1.0411839E1,6.242629E0,0E0,0E0,0E0,0E0,0E0,0E0,0E0,0E0,0E0,0E0,0E0,0E0,0E0,0E0,0E0,0E0,0E0,0E0,0E0,0E0,0E0,0E0,0E0,0E0,0E0,0E0,0E0,0E0,0E0,0E0,0E0,0E0,0E0,0E0,0E0,0E0,0E0,0E0,0E0,0E0,0E0,0E0,0E0,0E0],"parents":[2147483647,0,0,1,1,2,2,3,3,4,4,5,5,6,6,7,7,8,8,9,9,10,10,11,11,12,12,13,13,14,14,15,15,16,16,17,17,18,18,23,23,24,24,25,25,26,26,27,27,28,28,29,29,30,30,31,31,32,32,33,33,34,34,35,35,36,36,37,37,38,38,39,39,40,40,41,41,42,42,44,44,45,45,46,46,47,47,48,48,49,49,50,50,52,52,53,53,54,54],"right_children":[2,4,6,8,10,12,14,16,18,20,22,24,26,28,30,32,34,36,38,-1,-1,-1,-1,40,42,44,46,48,50,52,54,56,58,60,62,64,66,68,70,72,74,76,78,-1,80,82,84,86,88,90,92,-1,94,96,98,-1,-1,-1,-1,-1,-1,-1,-1,-1,-1,-1,-1,-1,-1,-1,-1,-1,-1,-1,-1,-1,-1,-1,-1,-1,-1,-1,-1,-1,-1,-1,-1,-1,-1,-1,-1,-1,-1,-1,-1,-1,-1,-1,-1],"split_conditions":[5.9688854E-1,8.5893434E-1,6.0658705E-1,5.453694E-1,5.769527E-1,5.346109E-1,4.7265315E-1,3.740434E-1,4.133437E-1,4.170426E-1,4.247589E-1,4.2585638E-1,4.230522E-1,5.3547394E-1,5.424452E-1,4.8106545E-1,5.1007944E-1,3.858735E-1,4.9231455E-1,2.8994799E-2,-8.167238E-2,7.586098E-3,1.4887773E-1,6.354642E-1,5.648308E-1,3.110025E-1,5.824963E-1,4.2024708E-1,3.6629382E-1,3.8801414E-1,5.305591E-1,5.5436456E-1,3.545178E-1,6.441457E-1,3.9320242E-1,4.0247422E-1,5.9748757E-1,3.566341E-1,3.786419E-1,3.844192E-1,5.180783E-1,6.278924E-1,4.4313005E-1,1.5099381E-1,5.99248E-1,3.1054127E-1,4.3942666E-1,5.59596E-1,6.09792E-1,4.9299684E-1,3.2400593E-1,-3.325155E-2,7.0139146E-1,3.3807194E-1,4.128772E-1,-7.851084E-2,1.409852E-1,-7.4477196E-3,1.8961763E-1,-7.3331915E-2,6.8322316E-2,1.0089475E-1,-1.33131435E-2,-6.872387E-2,1.8752831E-1,-9.15009E-2,1.3023483E-2,2.1275355E-2,-6.2377017E-2,6.687762E-2,-9.813457E-2,-4.4965018E-2,1.3135684E-1,-1.00018896E-1,1.054814E-1,-1.1208608E-1,6.3347407E-3,1.1283624E-1,-4.777328E-2,-8.218282E-2,9.48491E-2,-3.2324128E-2,1.4193891E-1,-1.0096904E-1,7.491483E-2,-4.721915E-3,1.5746847E-1,-1.0963543E-1,3.14159E-2,1.2096836E-1,-6.4910494E-2,-1.1420158E-2,1.7762654E-1,1.6667989E-1,9.003862E-3,-6.1197665E-2,1.2835436E-1,9.3006454E-2,-1.0028714E-1],"split_indices":[26,283,270,419,159,582,110,657,731,166,435,657,294,48,512,509,39,75,247,0,0,0,0,210,172,275,205,152,233,553,525,413,301,676,550,720,420,386,694,517,546,335,439,0,555,325,323,552,523,36,426,0,103,350,183,0,0,0,0,0,0,0,0,0,0,0,0,0,0,0,0,0,0,0,0,0,0,0,0,0,0,0,0,0,0,0,0,0,0,0,0,0,0,0,0,0,0,0,0],"split_type":[0,0,0,0,0,0,0,0,0,0,0,0,0,0,0,0,0,0,0,0,0,0,0,0,0,0,0,0,0,0,0,0,0,0,0,0,0,0,0,0,0,0,0,0,0,0,0,0,0,0,0,0,0,0,0,0,0,0,0,0,0,0,0,0,0,0,0,0,0,0,0,0,0,0,0,0,0,0,0,0,0,0,0,0,0,0,0,0,0,0,0,0,0,0,0,0,0,0,0],"sum_hessian":[8.8019257E2,5.612148E2,3.189778E2,5.363092E2,2.4905556E1,1.7572192E2,1.432559E2,2.0906396E2,3.2724524E2,2.7251353E0,2.218042E1,1.0604343E2,6.96785E1,5.528576E1,8.797014E1,3.0007101E1,1.7905687E2,5.7065235E1,2.7018E2,1.0034113E0,1.721724E0,1.2217016E0,2.095872E1,3.1495007E1,7.4548416E1,2.201404E1,4.766446E1,3.279904E1,2.248672E1,6.346439E1,2.4505749E1,1.2416981E1,1.759012E1,7.756335E1,1.01493515E2,1.45755205E1,4.2489716E1,1.04395905E2,1.657841E2,1.914821E1,1.2346795E1,4.0071815E1,3.44766E1,2.4018605E0,1.9612179E1,3.6729828E1,1.0934631E1,1.7109266E1,1.56897745E1,8.667661E0,1.3819059E1,1.8633304E0,6.160106E1,1.7936558E1,6.5691915E0,8.772454E0,3.6445258E0,3.0311084E0,1.4559011E1,7.059301E1,6.9703336E0,1.8066645E1,8.342687E1,4.4242687E0,1.0151252E1,2.234316E1,2.0146557E1,2.1977407E1,8.24185E1,5.26199E0,1.6052211E2,3.4451258E0,1.5703085E1,1.0866377E1,1.4804187E0,3.416274E1,5.909076E0,7.5700493E0,2.6906553E1,1.6368715E1,3.2434638E0,4.818017E0,3.1911812E1,5.3724923E0,5.5621395E0,1.1168151E1,5.941116E0,1.2481489E1,3.2082853E0,3.4424477E0,5.2252126E0,2.229741E0,1.1589318E1,5.9575016E1,2.026042E0,2.9073503E0,1.5029207E1,1.4150604E0,5.154131E0],"tree_param":{"num_deleted":"0","num_feature":"768","num_nodes":"99","size_leaf_vector":"1"}},{"base_weights":[-4.3421157E-2,-3.9092457E-1,3.0496112E-1,1.7413428E-2,-6.4562124E-1,6.705143E-1,-1.7689979E-1,-6.837995E-1,4.0470907E-1,-7.435938E-1,2.6743966E-1,9.540984E-1,-4.9218465E-2,4.2798382E-1,-4.9295613E-1,1.21131554E-1,-7.8586066E-1,1.1511834E0,6.843745E-2,-8.2248706E-1,9.584301E-2,1.2388589E0,-2.9813465E-1,2.9518375E-1,1.2327662E0,-5.988108E-1,4.864814E-1,9.3101084E-1,-3.2756704E-1,1.0645354E0,-5.7164943E-1,-8.846961E-1,7.1079713E-1,1.5846134E0,-1.3460924E-1,7.2414005E-1,-3.531E-1,-9.0305996E-1,-2.1750726E-1,-3.998292E-1,9.449504E-1,-7.300742E-2,1.6475234E0,-5.7131577E-1,1.4255445E-1,-3.997969E-1,8.281775E-1,1.3261533E0,6.097299E-2,7.829699E-1,-8.415228E-1,-7.50948E-2,1.1123463E0,2.1997918E-1,1.5212363E0,1.4120895E0,-5.6880414E-1,1.7491486E0,-7.3720485E-2,-6.495908E-1,7.7270776E-1,-8.846799E-4,-1.0398512E-1,1.4771806E-1,-6.768654E-2,-4.2547278E-2,1.7338423E-1,1.497008E-1,-5.2444447E-2,-2.101961E-2,1.2685059E-1,-5.9157025E-2,1.03397764E-1,9.216406E-2,-9.2094176E-2,-8.452803E-2,5.871732E-2,-6.232033E-2,1.094285E-1,-5.1743567E-2,1.3616571E-1,1.9924413E-1,-6.080937E-3,8.400313E-2,-8.407429E-2,3.694841E-2,-9.6224986E-2,-1.5695369E-2,1.2671657E-1,1.404597E-1,6.303539E-3,9.5230415E-2,-6.593146E-2,-4.0861566E-2,1.6294762E-1,9.4314925E-2,-9.679153E-2,-4.6525322E-2,1.3228717E-1,-5.7598222E-2,1.3563432E-1,9.7194575E-2,-6.167496E-2,1.7172478E-1,-4.5759078E-2,1.7961031E-1,3.8793765E-2,-8.806555E-2,7.047421E-2,2.3840466E-1,2.742367E-2,-7.516808E-2,2.5022045E-2,1.5090737E-1,-8.2526855E-2],"categories":[],"categories_nodes":[],"categories_segments":[],"categories_sizes":[],"default_left":[0,0,0,0,0,0,0,0,0,0,0,0,0,0,0,0,0,0,0,0,0,0,0,0,0,0,0,0,0,0,0,0,0,0,0,0,0,0,0,0,0,0,0,0,0,0,0,0,0,0,0,0,0,0,0,0,0,0,0,0,0,0,0,0,0,0,0,0,0,0,0,0,0,0,0,0,0,0,0,0,0,0,0,0,0,0,0,0,0,0,0,0,0,0,0,0,0,0,0,0,0,0,0,0,0,0,0,0,0,0,0,0,0,0,0],"id":7,"left_children":[1,3,5,7,9,11,13,15,17,19,21,23,25,27,29,-1,31,33,35,37,39,41,43,45,47,49,51,53,55,57,59,61,63,65,67,69,71,73,75,77,79,-1,81,83,-1,85,87,89,91,93,95,97,99,101,103,105,107,109,-1,111,113,-1,-1,-1,-1,-1,-1,-1,-1,-1,-1,-1,-1,-1,-1,-1,-1,-1,-1,-1,-1,-1,-1,-1,-1,-1,-1,-1,-1,-1,-1,-1,-1,-1,-1,-1,-1,-1,-1,-1,-1,-1,-1,-1,-1,-1,-1,-1,-1,-1,-1,-1,-1,-1,-1],"loss_changes":[1.04443436E2,4.492424E1,7.6016556E1,4.5592613E1,2.3992447E1,5.0097275E1,3.5896645E1,1.2507084E1,2.7061327E1,1.6004425E1,1.493433E1,3.194513E1,2.0977364E1,2.4855423E1,1.569212E1,0E0,9.10416E0,1.8891811E1,2.1152922E1,1.0523529E1,9.449699E0,9.2081585E0,9.083582E0,2.019039E1,1.3416824E1,1.244032E1,1.2782886E1,1.6048607E1,1.1948505E1,9.0214615E0,1.2845001E1,7.355057E0,5.36413E0,8.280159E0,6.745861E0,1.5480814E1,1.6056145E1,7.170807E0,1.421857E1,5.458699E0,5.7272086E0,0E0,5.1567974E0,6.741891E0,0E0,1.0716036E1,1.34616585E1,1.1225983E1,7.1460342E0,6.482505E0,7.761738E0,1.1513611E1,7.846596E0,1.2476188E1,8.994091E0,6.881285E-1,1.0166695E1,3.8774166E0,0E0,1.0466167E1,9.378744E0,0E0,0E0,0E0,0E0,0E0,0E0,0E0,0E0,0E0,0E0,0E0,0E0,0E0,0E0,0E0,0E0,0E0,0E0,0E0,0E0,0E0,0E0,0E0,0E0,0E0,0E0,0E0,0E0,0E0,0E0,0E0,0E0,0E0,0E0,0E0,0E0,0E0,0E0,0E0,0E0,0E0,0E0,0E0,0E0,0E0,0E0,0E0,0E0,0E0,0E0,0E0,0E0,0E0,0E0],"parents":[2147483647,0,0,1,1,2,2,3,3,4,4,5,5,6,6,7,7,8,8,9,9,10,10,11,11,12,12,13,13,14,14,16,16,17,17,18,18,19,19,20,20,21,21,22,22,23,23,24,24,25,25,26,26,27,27,28,28,29,29,30,30,31,31,32,32,33,33,34,34,35,35,36,36,37,37,38,38,39,39,40,40,42,42,43,43,45,45,46,46,47,47,48,48,49,49,50,50,51,51,52,52,53,53,54,54,55,55,56,56,57,57,59,59,60,60],"right_children":[2,4,6,8,10,12,14,16,18,20,22,24,26,28,30,-1,32,34,36,38,40,42,44,46,48,50,52,54,56,58,60,62,64,66,68,70,72,74,76,78,80,-1,82,84,-1,86,88,90,92,94,96,98,100,102,104,106,108,110,-1,112,114,-1,-1,-1,-1,-1,-1,-1,-1,-1,-1,-1,-1,-1,-1,-1,-1,-1,-1,-1,-1,-1,-1,-1,-1,-1,-1,-1,-1,-1,-1,-1,-1,-1,-1,-1,-1,-1,-1,-1,-1,-1,-1,-1,-1,-1,-1,-1,-1,-1,-1,-1,-1,-1,-1],"split_conditions":[4.7296837E-1,5.1124007E-1,4.5253232E-1,5.2044624E-1,6.7996883E-1,5.165845E-1,4.8562562E-1,2.1872477E-1,4.6922284E-1,6.1623764E-1,3.8448453E-1,4.6734306E-1,5.115312E-1,5.253812E-1,2.1553738E-1,1.21131554E-1,6.918713E-1,6.530777E-1,4.6757886E-1,6.7173487E-1,5.8467174E-1,3.8448298E-1,7.648426E-1,4.0180656E-1,6.7536575E-1,3.4235612E-1,5.7546335E-1,5.447215E-1,3.4602743E-1,5.3979117E-1,7.107297E-1,3.3053756E-1,5.179902E-1,3.214517E-1,2.4842402E-1,4.6815145E-1,6.443237E-1,1.596643E-1,5.668978E-1,7.4629134E-1,5.4616797E-1,-7.300742E-2,6.205801E-1,2.8781798E-1,1.4255445E-1,4.7972283E-1,3.4621385E-1,7.001388E-1,4.4939423E-1,5.5244243E-1,4.5131648E-1,6.650622E-1,2.2604185E-1,5.186908E-1,5.9357804E-1,3.9205793E-1,6.307846E-1,5.257352E-1,-7.3720485E-2,6.7142636E-1,6.2542355E-1,-8.846799E-4,-1.0398512E-1,1.4771806E-1,-6.768654E-2,-4.2547278E-2,1.7338423E-1,1.497008E-1,-5.2444447E-2,-2.101961E-2,1.2685059E-1,-5.9157025E-2,1.03397764E-1,9.216406E-2,-9.2094176E-2,-8.452803E-2,5.871732E-2,-6.232033E-2,1.094285E-1,-5.1743567E-2,1.3616571E-1,1.9924413E-1,-6.080937E-3,8.400313E-2,-8.407429E-2,3.694841E-2,-9.6224986E-2,-1.5695369E-2,1.2671657E-1,1.404597E-1,6.303539E-3,9.5230415E-2,-6.593146E-2,-4.0861566E-2,1.6294762E-1,9.4314925E-2,-9.679153E-2,-4.6525322E-2,1.3228717E-1,-5.7598222E-2,1.3563432E-1,9.7194575E-2,-6.167496E-2,1.7172478E-1,-4.5759078E-2,1.7961031E-1,3.8793765E-2,-8.806555E-2,7.047421E-2,2.3840466E-1,2.742367E-2,-7.516808E-2,2.5022045E-2,1.5090737E-1,-8.2526855E-2],"split_indices":[191,100,503,420,717,541,656,434,559,27,383,589,1,529,489,0,7,229,412,132,34,352,498,708,516,84,744,466,405,690,11,421,584,698,611,110,675,376,338,438,580,0,592,550,0,753,209,545,243,547,694,167,146,124,154,59,24,631,0,698,71,0,0,0,0,0,0,0,0,0,0,0,0,0,0,0,0,0,0,0,0,0,0,0,0,0,0,0,0,0,0,0,0,0,0,0,0,0,0,0,0,0,0,0,0,0,0,0,0,0,0,0,0,0,0],"split_type":[0,0,0,0,0,0,0,0,0,0,0,0,0,0,0,0,0,0,0,0,0,0,0,0,0,0,0,0,0,0,0,0,0,0,0,0,0,0,0,0,0,0,0,0,0,0,0,0,0,0,0,0,0,0,0,0,0,0,0,0,0,0,0,0,0,0,0,0,0,0,0,0,0,0,0,0,0,0,0,0,0,0,0,0,0,0,0,0,0,0,0,0,0,0,0,0,0,0,0,0,0,0,0,0,0,0,0,0,0,0,0,0,0,0,0],"sum_hessian":[8.6072754E2,4.3084616E2,4.298814E2,1.6586215E2,2.64984E2,2.4421872E2,1.8566267E2,5.8742012E1,1.0712014E2,2.3947377E2,2.5510237E1,1.7495753E2,6.926118E1,6.359583E1,1.2206685E2,2.446465E0,5.6295547E1,3.2515987E1,7.460415E1,2.1891916E2,2.0554607E1,8.949062E0,1.6561174E1,5.2612846E1,1.22344696E2,3.4129147E1,3.5132034E1,3.8038506E1,2.5557323E1,5.268352E0,1.167985E2,5.3191784E1,3.1037645E0,2.4144629E1,8.371357E0,2.8912628E1,4.5691525E1,1.9275482E2,2.6164333E1,1.3312476E1,7.2421308E0,1.4029939E0,7.546068E0,1.4872606E1,1.6885693E0,2.2944708E1,2.9668137E1,1.1319202E2,9.152673E0,4.7665944E0,2.936255E1,1.8980879E1,1.6151155E1,1.7876175E1,2.0162333E1,2.5213478E0,2.3035975E1,3.8388722E0,1.4294797E0,1.1088647E2,5.9120307E0,8.163863E0,4.502792E1,1.9579246E0,1.1458398E0,1.5406893E0,2.260394E1,1.0666968E0,7.30466E0,1.0869813E1,1.8042814E1,3.9477886E1,6.2136354E0,1.3801543E0,1.9137466E2,1.4669466E1,1.1494867E1,1.2088159E1,1.2243174E0,1.552406E0,5.689725E0,6.140063E0,1.4060054E0,2.044581E0,1.2828025E1,9.835514E0,1.3109195E1,9.343314E0,2.0324821E1,1.0646801E2,6.7240095E0,3.9466782E0,5.2059946E0,2.194623E0,2.5719714E0,1.5145729E0,2.7847979E1,1.5360978E1,3.6199017E0,1.867618E0,1.4283537E1,9.329852E0,8.546323E0,1.8465439E1,1.6968942E0,1.2855673E0,1.2357804E0,1.8752563E1,4.2834105E0,2.2527454E0,1.5861269E0,9.9735405E1,1.1151064E1,4.085171E0,1.8268594E0],"tree_param":{"num_deleted":"0","num_feature":"768","num_nodes":"115","size_leaf_vector":"1"}},{"base_weights":[-3.9281E-2,-3.176785E-1,3.4263852E-1,-4.449714E-1,4.4502643E-1,6.040405E-1,-2.95521E-1,-1.798008E-1,-7.0674324E-1,1.1069072E0,-8.682085E-3,1.277251E-1,8.8254523E-1,8.657767E-1,-5.956301E-1,-3.2255444E-1,6.212691E-1,-8.8240623E-1,-2.871182E-1,1.3664908E0,4.887649E-2,9.655741E-1,-3.1718948E-1,-1.6269276E-1,9.6940136E-1,1.1109248E0,2.4237713E-1,-9.804253E-2,1.1796827E0,1.5045455E-1,-6.642163E-1,-6.167741E-1,4.9259488E-2,-2.4776068E-2,1.4657636E0,-9.195522E-1,8.461778E-1,-4.248951E-1,1.4625174E0,-3.7745394E-2,1.4799405E0,8.41496E-1,-9.327724E-2,1.3420979E0,-5.152231E-2,-6.6264135E-1,7.209997E-1,5.74683E-1,-4.454174E-1,1.3435239E0,-3.1377122E-1,3.7974045E-1,1.3320063E0,1.0156751E0,-3.0725908E-1,-7.416772E-2,1.369268E0,-7.428082E-1,1.0274364E0,-7.6472275E-2,1.7058067E-2,6.7291625E-2,-4.1801006E-2,6.5900505E-2,-7.309878E-2,1.6989368E-1,-7.0558116E-2,-9.417381E-2,7.21034E-2,1.538011E-1,-3.223365E-2,-8.9641355E-2,-3.758868E-3,2.0669618E-1,-2.5780175E-2,1.5411144E-1,1.09344805E-2,1.2640904E-1,-1.9191362E-2,-3.4482557E-2,1.6297753E-1,1.05212845E-1,-8.346104E-2,1.3738866E-1,-5.2150812E-2,-2.0546123E-2,1.362821E-1,-6.645622E-2,6.821823E-2,1.6123946E-1,-5.8010276E-2,9.71472E-2,-8.94325E-2,-4.091625E-2,9.781386E-2,1.4524904E-1,5.485207E-2,-1.3038739E-2,1.4348735E-1,9.079748E-2,-6.353869E-2,1.5276104E-1,-3.2018017E-2,1.8831376E-2,-8.6349405E-2,1.3634342E-1,1.2604089E-2],"categories":[],"categories_nodes":[],"categories_segments":[],"categories_sizes":[],"default_left":[0,0,0,0,0,0,0,0,0,0,0,0,0,0,0,0,0,0,0,0,0,0,0,0,0,0,0,0,0,0,0,0,0,0,0,0,0,0,0,0,0,0,0,0,0,0,0,0,0,0,0,0,0,0,0,0,0,0,0,0,0,0,0,0,0,0,0,0,0,0,0,0,0,0,0,0,0,0,0,0,0,0,0,0,0,0,0,0,0,0,0,0,0,0,0,0,0,0,0,0,0,0,0,0,0,0,0],"id":8,"left_children":[1,3,5,7,9,11,13,15,17,19,21,23,25,27,29,31,33,35,37,39,41,43,45,47,49,51,53,-1,55,-1,57,59,61,63,65,67,69,71,73,-1,75,77,-1,79,-1,81,83,85,87,89,91,93,95,97,99,-1,101,103,105,-1,-1,-1,-1,-1,-1,-1,-1,-1,-1,-1,-1,-1,-1,-1,-1,-1,-1,-1,-1,-1,-1,-1,-1,-1,-1,-1,-1,-1,-1,-1,-1,-1,-1,-1,-1,-1,-1,-1,-1,-1,-1,-1,-1,-1,-1,-1,-1],"loss_changes":[8.9565285E1,4.7493263E1,5.9432014E1,2.8885918E1,2.1082977E1,3.335817E1,3.6722702E1,2.409818E1,1.5225632E1,7.773712E0,1.3118359E1,2.3199602E1,2.2983826E1,1.3756733E1,1.2976122E1,1.9505753E1,1.746749E1,1.0251816E1,1.5916261E1,5.086647E0,5.967868E0,6.5452957E0,1.2358783E1,1.5044975E1,1.2099401E1,1.8399094E1,1.8630949E1,0E0,7.9497128E0,0E0,1.156028E1,1.1716156E1,2.3469164E1,9.697816E0,8.218384E0,5.953743E0,3.4259918E0,1.0849072E1,5.5830593E0,0E0,1.6502151E0,2.0816777E0,0E0,4.7587996E0,0E0,8.36169E0,7.814504E0,1.2637307E1,1.3263785E1,1.0774498E1,5.5710697E0,1.3878033E1,7.6422577E0,8.901506E0,1.0928939E1,0E0,5.218155E0,8.948666E0,1.0472159E0,0E0,0E0,0E0,0E0,0E0,0E0,0E0,0E0,0E0,0E0,0E0,0E0,0E0,0E0,0E0,0E0,0E0,0E0,0E0,0E0,0E0,0E0,0E0,0E0,0E0,0E0,0E0,0E0,0E0,0E0,0E0,0E0,0E0,0E0,0E0,0E0,0E0,0E0,0E0,0E0,0E0,0E0,0E0,0E0,0E0,0E0,0E0,0E0],"parents":[2147483647,0,0,1,1,2,2,3,3,4,4,5,5,6,6,7,7,8,8,9,9,10,10,11,11,12,12,13,13,14,14,15,15,16,16,17,17,18,18,19,19,20,20,21,21,22,22,23,23,24,24,25,25,26,26,28,28,30,30,31,31,32,32,33,33,34,34,35,35,36,36,37,37,38,38,40,40,41,41,43,43,45,45,46,46,47,47,48,48,49,49,50,50,51,51,52,52,53,53,54,54,56,56,57,57,58,58],"right_children":[2,4,6,8,10,12,14,16,18,20,22,24,26,28,30,32,34,36,38,40,42,44,46,48,50,52,54,-1,56,-1,58,60,62,64,66,68,70,72,74,-1,76,78,-1,80,-1,82,84,86,88,90,92,94,96,98,100,-1,102,104,106,-1,-1,-1,-1,-1,-1,-1,-1,-1,-1,-1,-1,-1,-1,-1,-1,-1,-1,-1,-1,-1,-1,-1,-1,-1,-1,-1,-1,-1,-1,-1,-1,-1,-1,-1,-1,-1,-1,-1,-1,-1,-1,-1,-1,-1,-1,-1,-1],"split_conditions":[4.802229E-1,6.756284E-1,5.373094E-1,4.4026738E-1,3.633702E-1,5.561349E-1,3.950586E-1,6.8551695E-1,4.465574E-1,5.5740917E-1,3.9409757E-1,6.142657E-1,5.974249E-1,3.786419E-1,2.3375204E-1,4.6472743E-1,5.530473E-1,8.521589E-1,6.8583286E-1,4.2307672E-1,3.8739318E-1,6.3534915E-1,6.3004947E-1,4.7171432E-1,5.111356E-1,4.8631373E-1,4.2688742E-1,-9.804253E-2,3.5448906E-1,1.5045455E-1,6.6385674E-1,5.307009E-1,4.919827E-1,5.9812146E-1,6.335782E-1,7.6852274E-1,5.3888476E-1,3.8992637E-1,4.7663507E-1,-3.7745394E-2,5.2111655E-1,5.839219E-1,-9.327724E-2,3.523185E-1,-5.152231E-2,2.8713986E-1,5.520269E-1,5.471064E-1,6.111819E-1,5.786045E-1,2.761861E-1,4.6982673E-1,6.771337E-1,5.2384454E-1,3.5470766E-1,-7.416772E-2,7.036275E-1,2.9012114E-1,4.245463E-1,-7.6472275E-2,1.7058067E-2,6.7291625E-2,-4.1801006E-2,6.5900505E-2,-7.309878E-2,1.6989368E-1,-7.0558116E-2,-9.417381E-2,7.21034E-2,1.538011E-1,-3.223365E-2,-8.9641355E-2,-3.758868E-3,2.0669618E-1,-2.5780175E-2,1.5411144E-1,1.09344805E-2,1.2640904E-1,-1.9191362E-2,-3.4482557E-2,1.6297753E-1,1.05212845E-1,-8.346104E-2,1.3738866E-1,-5.2150812E-2,-2.0546123E-2,1.362821E-1,-6.645622E-2,6.821823E-2,1.6123946E-1,-5.8010276E-2,9.71472E-2,-8.94325E-2,-4.091625E-2,9.781386E-2,1.4524904E-1,5.485207E-2,-1.3038739E-2,1.4348735E-1,9.079748E-2,-6.353869E-2,1.5276104E-1,-3.2018017E-2,1.8831376E-2,-8.6349405E-2,1.3634342E-1,1.2604089E-2],"split_indices":[110,364,503,339,243,401,657,653,115,489,666,509,599,694,229,561,318,356,509,129,602,140,619,292,44,147,525,0,29,0,595,191,626,81,591,415,498,741,169,0,357,735,0,632,0,584,145,394,91,731,368,698,573,190,56,0,419,611,36,0,0,0,0,0,0,0,0,0,0,0,0,0,0,0,0,0,0,0,0,0,0,0,0,0,0,0,0,0,0,0,0,0,0,0,0,0,0,0,0,0,0,0,0,0,0,0,0],"split_type":[0,0,0,0,0,0,0,0,0,0,0,0,0,0,0,0,0,0,0,0,0,0,0,0,0,0,0,0,0,0,0,0,0,0,0,0,0,0,0,0,0,0,0,0,0,0,0,0,0,0,0,0,0,0,0,0,0,0,0,0,0,0,0,0,0,0,0,0,0,0,0,0,0,0,0,0,0,0,0,0,0,0,0,0,0,0,0,0,0,0,0,0,0,0,0,0,0,0,0,0,0,0,0,0,0,0,0],"sum_hessian":[8.403456E2,4.861432E2,3.542024E2,4.1696902E2,6.917416E1,2.5131326E2,1.02889114E2,2.0797777E2,2.0899126E2,2.7547506E1,4.1626648E1,9.326482E1,1.5804845E2,2.0741858E1,8.2147255E1,1.7702805E2,3.0949715E1,1.4654282E2,6.2448452E1,2.188626E1,5.6612477E0,9.499071E0,3.2127575E1,6.993921E1,2.332561E1,1.15948524E2,4.2099926E1,2.7056398E0,1.8036219E1,1.9357612E0,8.0211494E1,9.8458305E1,7.856974E1,1.8085115E1,1.2864599E1,1.4391815E2,2.6246576E0,5.8591736E1,3.8567162E0,1.1946752E0,2.0691584E1,3.2111886E0,2.4500594E0,7.648057E0,1.8510141E0,2.4377747E1,7.74983E0,1.9097708E1,5.0841503E1,1.8023605E1,5.3020043E0,2.7549976E1,8.8398544E1,1.7138876E1,2.4961048E1,1.3583051E0,1.6677914E1,7.718642E1,3.0250819E0,8.290812E1,1.5550188E1,3.3464775E1,4.510497E1,9.222441E0,8.862675E0,1.1813547E1,1.0510521E0,1.4241818E2,1.4999738E0,1.4499729E0,1.1746846E0,2.5830467E1,3.276127E1,2.7048516E0,1.1518646E0,1.9688416E1,1.0031673E0,2.1207306E0,1.0904579E0,1.0852952E0,6.562762E0,1.7554402E0,2.2622307E1,5.0110116E0,2.7388182E0,9.969064E0,9.128645E0,4.2912296E1,7.929206E0,1.5955283E1,2.0683212E0,1.4402319E0,3.8617725E0,1.2019806E1,1.55301695E1,7.5876434E1,1.2522114E1,4.77454E0,1.2364336E1,4.931163E0,2.0029884E1,1.5336319E1,1.3415939E0,8.792174E0,6.839424E1,1.8302639E0,1.194818E0],"tree_param":{"num_deleted":"0","num_feature":"768","num_nodes":"107","size_leaf_vector":"1"}},{"base_weights":[-3.5652876E-2,-3.9274573E-1,2.3609887E-1,-4.164169E-2,-6.322656E-1,-7.196786E-2,6.366677E-1,-4.5151925E-1,4.738756E-1,-7.2328395E-1,1.1623642E-1,5.14542E-1,-2.9655278E-1,1.8998335E-1,9.690225E-1,-5.6336254E-1,5.984649E-1,-6.7820376E-1,7.169189E-1,-8.0906343E-1,-2.12442E-2,-4.3913913E-1,1.1328478E0,1.15580305E-1,1.1809187E0,-4.758227E-1,3.7029412E-1,8.2771206E-1,-1.247147E-1,6.806317E-2,1.1479895E0,-8.7312734E-1,-1.184746E-1,1.5423685E0,-5.489468E-1,-9.4748396E-1,7.510104E-2,1.0768157E0,-2.7551812E-1,1.12308435E-1,-8.376267E-1,6.9369346E-1,-7.1971726E-1,1.3218684E-1,-6.8144804E-1,-5.2418035E-2,1.6787815E0,8.5835373E-1,-3.8541037E-1,1.3902719E0,-6.857657E-2,-5.8128845E-2,-7.6833546E-1,8.911752E-1,-4.9207595E-1,1.065593E0,-8.13822E-1,-4.8024634E-1,5.183497E-1,-4.772222E-1,1.1558073E0,1.2912868E0,2.0850673E-1,-1.01846E-1,2.5181562E-2,5.0390866E-2,-7.698244E-2,3.070581E-2,1.9579156E-1,-8.740616E-2,2.9277623E-2,-1.0992761E-1,2.1519994E-2,8.740032E-3,1.3744773E-1,-7.108155E-2,1.0655375E-1,-8.642255E-2,6.43092E-2,-8.230067E-2,1.1567845E-1,-9.401073E-2,7.640527E-2,8.296534E-2,-9.395222E-2,2.049729E-1,-2.2023255E-2,-3.5486706E-2,1.2413793E-1,-1.0182971E-1,1.4055215E-2,1.7095129E-1,3.208315E-2,9.118454E-2,-2.9195607E-2,-9.889201E-2,-1.2886772E-2,1.2945324E-1,-1.9133585E-2,1.0054429E-1,-7.876473E-2,-8.86378E-3,1.306912E-1,-9.3152724E-2,-2.1678451E-2,-7.3814176E-2,4.768498E-2,-5.318914E-2,8.829104E-2,-7.706662E-2,9.570893E-2,1.5596446E-1,-4.202634E-2,-1.7791346E-2,1.3432088E-1,-6.933803E-2,8.955498E-2],"categories":[],"categories_nodes":[],"categories_segments":[],"categories_sizes":[],"default_left":[0,0,0,0,0,0,0,0,0,0,0,0,0,0,0,0,0,0,0,0,0,0,0,0,0,0,0,0,0,0,0,0,0,0,0,0,0,0,0,0,0,0,0,0,0,0,0,0,0,0,0,0,0,0,0,0,0,0,0,0,0,0,0,0,0,0,0,0,0,0,0,0,0,0,0,0,0,0,0,0,0,0,0,0,0,0,0,0,0,0,0,0,0,0,0,0,0,0,0,0,0,0,0,0,0,0,0,0,0,0,0,0,0,0,0,0,0],"id":9,"left_children":[1,3,5,7,9,11,13,15,17,19,21,23,25,27,29,31,33,35,37,39,41,43,45,47,49,51,53,55,57,59,61,63,65,67,69,71,-1,73,75,-1,77,79,81,-1,83,-1,85,87,89,91,-1,93,95,97,99,101,103,105,107,109,111,113,115,-1,-1,-1,-1,-1,-1,-1,-1,-1,-1,-1,-1,-1,-1,-1,-1,-1,-1,-1,-1,-1,-1,-1,-1,-1,-1,-1,-1,-1,-1,-1,-1,-1,-1,-1,-1,-1,-1,-1,-1,-1,-1,-1,-1,-1,-1,-1,-1,-1,-1,-1,-1,-1,-1],"loss_changes":[7.977022E1,2.9844543E1,5.7659203E1,3.0876919E1,1.4464508E1,3.5033466E1,2.996283E1,9.890768E0,1.8620235E1,1.1324463E1,1.3904713E1,1.9454288E1,2.314324E1,1.77394E1,1.8656693E1,1.0099634E1,9.853684E0,5.251452E0,1.9572323E1,1.0201447E1,1.12522335E1,7.7612E0,8.722054E0,1.789548E1,1.169537E1,1.8508747E1,1.8975548E1,1.225659E1,1.3900387E1,1.2603004E1,1.2772209E1,7.366642E0,1.3176805E1,1.8757801E0,1.4849113E0,2.066409E0,0E0,1.1603893E1,9.606294E0,0E0,7.0909805E0,8.783777E0,4.4405794E0,0E0,6.5482955E0,0E0,5.212326E0,9.419649E0,9.75609E0,8.002403E0,0E0,1.4696817E1,1.2458626E1,1.1636707E1,7.9553785E0,7.3322697E0,9.733653E-2,9.971062E0,8.793163E0,6.731742E0,5.1596317E0,6.6361084E0,9.303806E0,0E0,0E0,0E0,0E0,0E0,0E0,0E0,0E0,0E0,0E0,0E0,0E0,0E0,0E0,0E0,0E0,0E0,0E0,0E0,0E0,0E0,0E0,0E0,0E0,0E0,0E0,0E0,0E0,0E0,0E0,0E0,0E0,0E0,0E0,0E0,0E0,0E0,0E0,0E0,0E0,0E0,0E0,0E0,0E0,0E0,0E0,0E0,0E0,0E0,0E0,0E0,0E0,0E0,0E0],"parents":[2147483647,0,0,1,1,2,2,3,3,4,4,5,5,6,6,7,7,8,8,9,9,10,10,11,11,12,12,13,13,14,14,15,15,16,16,17,17,18,18,19,19,20,20,21,21,22,22,23,23,24,24,25,25,26,26,27,27,28,28,29,29,30,30,31,31,32,32,33,33,34,34,35,35,37,37,38,38,40,40,41,41,42,42,44,44,46,46,47,47,48,48,49,49,51,51,52,52,53,53,54,54,55,55,56,56,57,57,58,58,59,59,60,60,61,61,62,62],"right_children":[2,4,6,8,10,12,14,16,18,20,22,24,26,28,30,32,34,36,38,40,42,44,46,48,50,52,54,56,58,60,62,64,66,68,70,72,-1,74,76,-1,78,80,82,-1,84,-1,86,88,90,92,-1,94,96,98,100,102,104,106,108,110,112,114,116,-1,-1,-1,-1,-1,-1,-1,-1,-1,-1,-1,-1,-1,-1,-1,-1,-1,-1,-1,-1,-1,-1,-1,-1,-1,-1,-1,-1,-1,-1,-1,-1,-1,-1,-1,-1,-1,-1,-1,-1,-1,-1,-1,-1,-1,-1,-1,-1,-1,-1,-1,-1,-1,-1],"split_conditions":[5.270675E-1,5.1603615E-1,6.0658705E-1,5.276738E-1,5.1555204E-1,4.2585638E-1,5.121701E-1,6.5641063E-1,3.9812538E-1,6.484663E-1,5.68028E-1,5.9303445E-1,5.3692496E-1,4.2738587E-1,4.313414E-1,5.2827096E-1,4.003152E-1,6.761824E-1,5.4355234E-1,2.3563662E-1,4.59465E-1,2.4802858E-1,3.8562003E-1,4.4038686E-1,7.1335757E-1,4.6447614E-1,5.122484E-1,6.7346776E-1,5.691136E-1,6.0846907E-1,5.701486E-1,6.0394096E-1,5.8110744E-1,3.4162387E-1,5.9401625E-1,7.280385E-1,7.510104E-2,4.22435E-1,5.790421E-1,1.12308435E-1,8.3591497E-1,2.9927617E-1,7.3179996E-1,1.3218684E-1,3.778063E-1,-5.2418035E-2,6.989416E-1,3.3882597E-1,5.181057E-1,6.215978E-1,-6.857657E-2,3.6326444E-1,5.7135576E-1,5.4317445E-1,4.1621643E-1,4.4565934E-1,6.112165E-1,6.8373805E-1,4.8165888E-1,6.6740024E-1,5.859614E-1,3.6557364E-1,5.306481E-1,-1.01846E-1,2.5181562E-2,5.0390866E-2,-7.698244E-2,3.070581E-2,1.9579156E-1,-8.740616E-2,2.9277623E-2,-1.0992761E-1,2.1519994E-2,8.740032E-3,1.3744773E-1,-7.108155E-2,1.0655375E-1,-8.642255E-2,6.43092E-2,-8.230067E-2,1.1567845E-1,-9.401073E-2,7.640527E-2,8.296534E-2,-9.395222E-2,2.049729E-1,-2.2023255E-2,-3.5486706E-2,1.2413793E-1,-1.0182971E-1,1.4055215E-2,1.7095129E-1,3.208315E-2,9.118454E-2,-2.9195607E-2,-9.889201E-2,-1.2886772E-2,1.2945324E-1,-1.9133585E-2,1.0054429E-1,-7.876473E-2,-8.86378E-3,1.306912E-1,-9.3152724E-2,-2.1678451E-2,-7.3814176E-2,4.768498E-2,-5.318914E-2,8.829104E-2,-7.706662E-2,9.570893E-2,1.5596446E-1,-4.202634E-2,-1.7791346E-2,1.3432088E-1,-6.933803E-2,8.955498E-2],"split_indices":[26,252,270,422,156,657,698,35,285,223,652,132,496,103,27,662,432,416,357,602,54,550,59,529,573,626,339,657,27,299,205,729,541,19,321,397,0,764,735,0,504,156,749,0,678,0,271,327,661,229,0,512,717,279,92,212,195,151,640,269,350,130,392,0,0,0,0,0,0,0,0,0,0,0,0,0,0,0,0,0,0,0,0,0,0,0,0,0,0,0,0,0,0,0,0,0,0,0,0,0,0,0,0,0,0,0,0,0,0,0,0,0,0,0,0,0,0],"split_type":[0,0,0,0,0,0,0,0,0,0,0,0,0,0,0,0,0,0,0,0,0,0,0,0,0,0,0,0,0,0,0,0,0,0,0,0,0,0,0,0,0,0,0,0,0,0,0,0,0,0,0,0,0,0,0,0,0,0,0,0,0,0,0,0,0,0,0,0,0,0,0,0,0,0,0,0,0,0,0,0,0,0,0,0,0,0,0,0,0,0,0,0,0,0,0,0,0,0,0,0,0,0,0,0,0,0,0,0,0,0,0,0,0,0,0,0,0],"sum_hessian":[8.200737E2,3.5419797E2,4.6587573E2,1.4411646E2,2.1008151E2,2.6380826E2,2.0206749E2,8.035329E1,6.376316E1,1.8733513E2,2.2746384E1,7.268867E1,1.9111958E2,8.687681E1,1.1519069E2,7.303693E1,7.316365E0,1.0796217E1,5.296694E1,1.6680183E2,2.0533298E1,1.5077546E1,7.668838E0,4.620128E1,2.6487389E1,1.5085213E2,4.026745E1,2.816694E1,5.8709866E1,1.9318325E1,9.587236E1,4.248975E1,3.0547174E1,3.8253083E0,3.4910564E0,9.368201E0,1.4280162E0,3.8808445E1,1.4158498E1,1.87171E0,1.6493011E2,1.0150436E1,1.0382862E1,1.2848017E0,1.3792745E1,1.9103508E0,5.758487E0,1.8322643E1,2.7878633E1,2.4045813E1,2.441577E0,6.2625187E1,8.822695E1,2.5083395E1,1.5184052E1,2.4908247E1,3.258693E0,3.7970352E1,2.0739513E1,1.3241595E1,6.07673E0,8.285952E1,1.3012842E1,3.7712307E1,4.7774415E0,1.5736687E1,1.4810489E1,1.4006059E0,2.4247024E0,2.4906325E0,1.000424E0,8.334625E0,1.0335759E0,9.274381E0,2.9534065E1,1.10437355E1,3.114762E0,1.624287E2,2.5014272E0,2.1924841E0,7.9579525E0,9.359122E0,1.02374E0,1.6889062E0,1.2103839E1,4.751065E0,1.0074223E0,4.41423E0,1.3908414E1,1.2228322E1,1.5650312E1,1.805705E1,5.988763E0,1.1601129E1,5.1024055E1,6.519235E1,2.3034597E1,1.8131508E1,6.9518876E0,2.107032E0,1.3077021E1,4.4165497E0,2.0491697E1,2.2540588E0,1.0046343E0,3.0090935E1,7.8794174E0,5.225806E0,1.5513708E1,1.1376737E1,1.8648595E0,4.845569E0,1.2311605E0,2.7455003E0,8.011402E1,5.62268E0,7.3901625E0],"tree_param":{"num_deleted":"0","num_feature":"768","num_nodes":"117","size_leaf_vector":"1"}},{"base_weights":[-3.2836184E-2,-3.31961E-1,2.5886327E-1,3.1107297E-2,-5.683151E-1,-4.408971E-2,6.835949E-1,-6.138285E-1,3.6157987E-1,-6.642345E-1,2.7870056E-1,4.044682E-1,-3.5022956E-1,1.0045142E0,2.2654638E-1,-8.993442E-1,1.691723E-2,8.477738E-1,-1.7239435E-2,-7.3937905E-1,8.816845E-2,-3.3537674E-1,9.521106E-1,8.948701E-1,-4.5352317E-2,-5.151505E-1,4.9224067E-1,-3.6851913E-1,1.0913697E0,-3.8673142E-1,5.542463E-1,-9.7245485E-1,8.39795E-2,-5.0741047E-1,1.1508218E0,1.0137444E0,-2.4066113E-1,5.2211994E-1,-5.8539224E-1,9.816044E-2,-7.9362595E-1,-3.672391E-1,8.479404E-1,-1.04283705E-1,4.0220055E-1,1.5849041E0,-2.1960817E-1,1.0490298E0,-7.4939877E-1,-3.4101057E-1,9.349502E-1,1.1150095E0,-5.7900465E-1,1.1239895E0,-2.025314E-1,5.531397E-1,-1.0245513E-1,1.156274E0,-4.8330945E-1,-6.143024E-1,1.3531164E0,-2.0382531E-1,9.6039486E-1,3.3757932E-2,-1.039572E-1,7.256021E-2,-8.0735154E-2,-3.7312612E-2,1.6221228E-1,5.088833E-2,1.4466971E-1,-7.3999956E-2,1.0430866E-1,1.0351815E-1,-1.6364655E-2,2.6242403E-2,-8.591252E-2,9.952479E-2,-9.178409E-2,-8.825426E-2,-2.8442645E-2,-6.469439E-2,7.31614E-2,-4.7037564E-2,1.19742E-1,1.14906065E-1,-6.675847E-2,5.17897E-3,1.879539E-1,1.1130538E-1,-8.98378E-2,-5.203132E-2,1.19056225E-1,3.4648302E-4,-9.622998E-2,-6.6823915E-2,3.940476E-2,-4.4369224E-2,1.3236046E-1,-4.1228484E-2,1.8602411E-1,1.9630797E-3,-7.581023E-2,1.3688688E-1,-6.697342E-2,6.0302258E-2,-7.793719E-2,-2.9911805E-2,1.0438007E-1,2.4523601E-2,1.2474121E-1,4.7194567E-2,-9.0398796E-2,-9.31655E-2,1.9433377E-2,1.6497138E-1,4.5598384E-2,-9.329378E-2,5.117789E-2,1.2114974E-1,-4.488878E-2],"categories":[],"categories_nodes":[],"categories_segments":[],"categories_sizes":[],"default_left":[0,0,0,0,0,0,0,0,0,0,0,0,0,0,0,0,0,0,0,0,0,0,0,0,0,0,0,0,0,0,0,0,0,0,0,0,0,0,0,0,0,0,0,0,0,0,0,0,0,0,0,0,0,0,0,0,0,0,0,0,0,0,0,0,0,0,0,0,0,0,0,0,0,0,0,0,0,0,0,0,0,0,0,0,0,0,0,0,0,0,0,0,0,0,0,0,0,0,0,0,0,0,0,0,0,0,0,0,0,0,0,0,0,0,0,0,0,0,0,0,0],"id":10,"left_children":[1,3,5,7,9,11,13,15,17,19,21,23,25,27,29,31,33,35,37,39,41,43,45,47,49,51,53,55,57,59,61,63,-1,65,67,69,71,73,75,77,79,81,83,-1,85,87,89,91,93,95,97,99,101,103,105,107,-1,109,111,113,115,117,119,-1,-1,-1,-1,-1,-1,-1,-1,-1,-1,-1,-1,-1,-1,-1,-1,-1,-1,-1,-1,-1,-1,-1,-1,-1,-1,-1,-1,-1,-1,-1,-1,-1,-1,-1,-1,-1,-1,-1,-1,-1,-1,-1,-1,-1,-1,-1,-1,-1,-1,-1,-1,-1,-1,-1,-1,-1,-1],"loss_changes":[6.9918434E1,3.3962967E1,5.2240334E1,3.3667778E1,1.9655548E1,3.279251E1,2.45587E1,9.656631E0,1.9240564E1,1.2253151E1,1.0691651E1,2.1419167E1,1.9963085E1,1.2206947E1,1.4483286E1,5.5050564E0,1.1086011E1,8.50584E0,1.8585423E1,8.987473E0,7.3933825E0,7.6510463E0,9.411519E0,1.2551132E1,1.524541E1,1.3045155E1,1.0645278E1,4.5795593E0,1.0099556E1,1.0854451E1,1.4569548E1,3.5029755E0,0E0,5.3096275E0,4.8366694E0,7.979782E0,5.168863E0,1.1122254E1,7.076823E0,1.2596856E1,8.092552E0,4.621053E0,4.2365236E0,0E0,6.764758E0,3.5429783E0,5.671942E0,1.0137451E1,7.345338E-1,9.956694E0,7.124552E0,6.266589E0,1.2375473E1,6.4441643E0,6.1161737E0,1.7377954E0,0E0,7.162628E0,2.1950252E0,6.1025343E0,1.0999346E-1,9.405411E0,1.1363014E1,0E0,0E0,0E0,0E0,0E0,0E0,0E0,0E0,0E0,0E0,0E0,0E0,0E0,0E0,0E0,0E0,0E0,0E0,0E0,0E0,0E0,0E0,0E0,0E0,0E0,0E0,0E0,0E0,0E0,0E0,0E0,0E0,0E0,0E0,0E0,0E0,0E0,0E0,0E0,0E0,0E0,0E0,0E0,0E0,0E0,0E0,0E0,0E0,0E0,0E0,0E0,0E0,0E0,0E0,0E0,0E0,0E0,0E0],"parents":[2147483647,0,0,1,1,2,2,3,3,4,4,5,5,6,6,7,7,8,8,9,9,10,10,11,11,12,12,13,13,14,14,15,15,16,16,17,17,18,18,19,19,20,20,21,21,22,22,23,23,24,24,25,25,26,26,27,27,28,28,29,29,30,30,31,31,33,33,34,34,35,35,36,36,37,37,38,38,39,39,40,40,41,41,42,42,44,44,45,45,46,46,47,47,48,48,49,49,50,50,51,51,52,52,53,53,54,54,55,55,57,57,58,58,59,59,60,60,61,61,62,62],"right_children":[2,4,6,8,10,12,14,16,18,20,22,24,26,28,30,32,34,36,38,40,42,44,46,48,50,52,54,56,58,60,62,64,-1,66,68,70,72,74,76,78,80,82,84,-1,86,88,90,92,94,96,98,100,102,104,106,108,-1,110,112,114,116,118,120,-1,-1,-1,-1,-1,-1,-1,-1,-1,-1,-1,-1,-1,-1,-1,-1,-1,-1,-1,-1,-1,-1,-1,-1,-1,-1,-1,-1,-1,-1,-1,-1,-1,-1,-1,-1,-1,-1,-1,-1,-1,-1,-1,-1,-1,-1,-1,-1,-1,-1,-1,-1,-1,-1,-1,-1,-1,-1],"split_conditions":[4.7296837E-1,5.1124007E-1,5.793183E-1,5.2044624E-1,6.7996883E-1,4.504797E-1,4.6892577E-1,5.9039485E-1,4.9670902E-1,6.1623764E-1,5.581691E-1,4.588169E-1,6.828142E-1,3.3019197E-1,4.0910244E-1,7.6579654E-1,5.570788E-1,5.4411304E-1,5.4355067E-1,2.573371E-1,5.8467174E-1,4.455739E-1,6.47768E-1,7.587209E-1,6.5845054E-1,2.4456051E-1,4.5851094E-1,5.0721186E-1,5.768399E-1,6.574086E-1,4.805082E-1,2.1416828E-1,8.39795E-2,4.275504E-1,4.767606E-1,4.5617288E-1,6.513804E-1,5.502217E-1,4.5101887E-1,5.018919E-1,6.6740024E-1,6.795334E-1,5.4616797E-1,-1.04283705E-1,5.345294E-1,2.5137252E-1,3.4027848E-1,3.559857E-1,5.164134E-1,6.2501276E-1,4.2625952E-1,5.5861765E-1,4.1172925E-1,6.607866E-1,4.3189397E-1,6.6296387E-1,-1.0245513E-1,3.477394E-1,4.7520205E-1,5.4333985E-1,5.667004E-1,5.7810986E-1,6.3844883E-1,3.3757932E-2,-1.039572E-1,7.256021E-2,-8.0735154E-2,-3.7312612E-2,1.6221228E-1,5.088833E-2,1.4466971E-1,-7.3999956E-2,1.0430866E-1,1.0351815E-1,-1.6364655E-2,2.6242403E-2,-8.591252E-2,9.952479E-2,-9.178409E-2,-8.825426E-2,-2.8442645E-2,-6.469439E-2,7.31614E-2,-4.7037564E-2,1.19742E-1,1.14906065E-1,-6.675847E-2,5.17897E-3,1.879539E-1,1.1130538E-1,-8.98378E-2,-5.203132E-2,1.19056225E-1,3.4648302E-4,-9.622998E-2,-6.6823915E-2,3.940476E-2,-4.4369224E-2,1.3236046E-1,-4.1228484E-2,1.8602411E-1,1.9630797E-3,-7.581023E-2,1.3688688E-1,-6.697342E-2,6.0302258E-2,-7.793719E-2,-2.9911805E-2,1.0438007E-1,2.4523601E-2,1.2474121E-1,4.7194567E-2,-9.0398796E-2,-9.31655E-2,1.9433377E-2,1.6497138E-1,4.5598384E-2,-9.329378E-2,5.117789E-2,1.2114974E-1,-4.488878E-2],"split_indices":[191,100,147,420,717,541,247,7,4,27,294,758,653,643,335,193,338,525,692,368,34,493,596,177,736,75,668,17,122,202,552,154,0,145,326,643,112,463,210,374,269,147,580,0,639,98,91,285,389,745,317,650,333,670,31,26,0,325,585,294,101,181,557,0,0,0,0,0,0,0,0,0,0,0,0,0,0,0,0,0,0,0,0,0,0,0,0,0,0,0,0,0,0,0,0,0,0,0,0,0,0,0,0,0,0,0,0,0,0,0,0,0,0,0,0,0,0,0,0,0,0],"split_type":[0,0,0,0,0,0,0,0,0,0,0,0,0,0,0,0,0,0,0,0,0,0,0,0,0,0,0,0,0,0,0,0,0,0,0,0,0,0,0,0,0,0,0,0,0,0,0,0,0,0,0,0,0,0,0,0,0,0,0,0,0,0,0,0,0,0,0,0,0,0,0,0,0,0,0,0,0,0,0,0,0,0,0,0,0,0,0,0,0,0,0,0,0,0,0,0,0,0,0,0,0,0,0,0,0,0,0,0,0,0,0,0,0,0,0,0,0,0,0,0,0],"sum_hessian":[7.993308E2,3.945743E2,4.0475647E2,1.5592426E2,2.3865005E2,2.367695E2,1.6798697E2,5.2537315E1,1.0338695E2,2.1456738E2,2.408268E1,9.591422E1,1.4085527E2,9.7987E1,6.999997E1,3.5873047E1,1.666427E1,4.4734596E1,5.8652348E1,1.9509956E2,1.946782E1,1.2858808E1,1.1223872E1,4.5413868E1,5.0500355E1,1.1812064E2,2.2734625E1,5.6367655E0,9.2350235E1,2.4315088E1,4.5684887E1,3.4848896E1,1.0241512E0,1.177289E1,4.8913803E0,3.8875298E1,5.859299E0,3.0130167E1,2.852218E1,1.18185625E1,1.83281E2,1.2494973E1,6.972845E0,6.3521566E0,6.506651E0,7.0589914E0,4.1648808E0,4.185201E1,3.5618603E0,3.9299732E1,1.1200623E1,3.8319259E0,1.1428872E2,1.158381E1,1.1150815E1,2.4090848E0,3.2276807E0,8.894966E1,3.4005692E0,2.2074657E1,2.2404299E0,1.611136E1,2.9573524E1,1.5020106E0,3.3346886E1,2.0258358E0,9.747055E0,1.2046051E0,3.6867752E0,1.8951527E1,1.992377E1,4.5233994E0,1.3359002E0,1.6943918E1,1.3186249E1,6.971402E0,2.155078E1,6.287439E0,5.5311236E0,1.5541005E2,2.7870956E1,1.0287599E1,2.207375E0,1.3886421E0,5.584203E0,3.7879953E0,2.7186556E0,1.3274524E0,5.7315392E0,1.1895562E0,2.9753244E0,3.240819E0,3.861119E1,1.0020659E0,2.5597944E0,2.725668E1,1.2043052E1,2.432038E0,8.768585E0,1.4031167E0,2.4288092E0,2.6523636E1,8.776508E1,1.0400754E1,1.1830558E0,4.634032E0,6.516783E0,1.0228369E0,1.386248E0,8.424749E0,8.052492E1,1.0024315E0,2.3981378E0,1.5743806E1,6.330852E0,1.0533212E0,1.1871086E0,7.829926E0,8.281435E0,2.5220196E1,4.3533287E0],"tree_param":{"num_deleted":"0","num_feature":"768","num_nodes":"121","size_leaf_vector":"1"}},{"base_weights":[-3.0299537E-2,-2.650926E-1,3.092727E-1,-4.7052667E-1,1.8748045E-1,-2.2498868E-1,5.415715E-1,-6.393089E-1,-3.8205415E-2,6.124624E-1,-1.6052842E-1,2.3720631E-1,-5.534955E-1,1.5052344E-2,7.882302E-1,-1.1893663E-1,-7.5144374E-1,4.057024E-1,-5.3680587E-1,9.871164E-1,1.9736364E-2,1.74293E-1,-7.2638726E-1,-4.311129E-1,7.062103E-1,9.066568E-1,-6.758596E-1,6.316111E-1,-3.5771033E-1,1.0906256E0,3.8330632E-1,3.6475807E-1,-6.301866E-1,4.7198463E-2,-8.198817E-1,9.170366E-1,-2.788607E-1,4.0713653E-1,-7.4595183E-1,-5.036678E-1,1.1648909E0,-4.680879E-1,8.2247543E-1,9.9446034E-1,-1.3152142E-1,1.1426156E-1,-8.617539E-1,-7.014233E-1,8.224949E-1,-8.956871E-1,1.1978548E0,-4.0256415E-2,1.3768733E-1,5.5836225E-1,-7.967669E-1,-3.9180034E-1,1.251407E0,-5.220498E-1,1.0027732E0,1.1466241E0,-3.9972052E-1,-4.5799452E-1,6.6052127E-1,8.063539E-2,-4.8812717E-2,-8.529702E-2,8.7985344E-2,-7.3580794E-2,9.700083E-2,1.4965854E-2,-8.7073974E-2,-1.1711341E-2,1.2563513E-1,-5.5134304E-2,1.0177976E-1,1.4047173E-1,-3.29637E-2,6.0665872E-2,-9.5587604E-2,6.0271885E-2,-9.352811E-2,-8.207392E-2,1.2725335E-1,9.268538E-2,-7.2957665E-2,-7.64245E-2,1.19258426E-1,-4.9054112E-2,1.4078824E-1,4.1296102E-2,-6.569199E-2,-9.6782744E-2,4.8098218E-2,-9.2808776E-2,6.164774E-2,-2.9005611E-2,1.4381558E-1,-9.876731E-2,-2.0241527E-2,-1.0067976E-2,1.660471E-1,-2.9609958E-2,1.14609815E-1,-1.4345278E-3,-9.342631E-2,-7.739032E-2,9.436222E-2,-6.995732E-2,1.4466317E-1,-8.381697E-2,2.0685783E-2,-4.1319773E-2,1.6576512E-1,5.4206382E-2,1.2952033E-1,-9.141724E-2,5.3508796E-2,8.9337595E-2,-8.637366E-2,8.7515585E-2,-3.6057502E-2],"categories":[],"categories_nodes":[],"categories_segments":[],"categories_sizes":[],"default_left":[0,0,0,0,0,0,0,0,0,0,0,0,0,0,0,0,0,0,0,0,0,0,0,0,0,0,0,0,0,0,0,0,0,0,0,0,0,0,0,0,0,0,0,0,0,0,0,0,0,0,0,0,0,0,0,0,0,0,0,0,0,0,0,0,0,0,0,0,0,0,0,0,0,0,0,0,0,0,0,0,0,0,0,0,0,0,0,0,0,0,0,0,0,0,0,0,0,0,0,0,0,0,0,0,0,0,0,0,0,0,0,0,0,0,0,0,0,0,0,0,0],"id":11,"left_children":[1,3,5,7,9,11,13,15,17,19,21,23,25,27,29,31,33,35,37,39,41,43,45,47,49,51,53,55,57,59,61,63,65,67,69,71,73,75,77,79,81,83,85,87,89,-1,91,93,95,97,99,-1,-1,101,103,105,107,109,111,113,115,117,119,-1,-1,-1,-1,-1,-1,-1,-1,-1,-1,-1,-1,-1,-1,-1,-1,-1,-1,-1,-1,-1,-1,-1,-1,-1,-1,-1,-1,-1,-1,-1,-1,-1,-1,-1,-1,-1,-1,-1,-1,-1,-1,-1,-1,-1,-1,-1,-1,-1,-1,-1,-1,-1,-1,-1,-1,-1,-1],"loss_changes":[6.2263344E1,4.3007713E1,3.9746803E1,2.3164185E1,2.1519604E1,1.4929125E1,2.8925484E1,1.3243752E1,2.0203054E1,1.4507193E1,1.5363699E1,1.3215593E1,1.0845087E1,1.6797222E1,1.815895E1,1.0541109E1,1.0303268E1,1.7175634E1,8.784583E0,1.1203716E1,1.0705514E1,1.3006053E1,8.597499E0,6.5433345E0,2.0434376E1,3.5432758E0,8.415672E0,1.7951954E1,1.0712897E1,7.661606E0,1.578919E1,8.701838E0,7.693289E0,1.2107402E1,8.662247E0,9.9382E0,8.134299E0,6.66536E0,1.066551E1,2.935298E0,8.759144E0,6.888217E0,6.9747224E0,9.321725E0,1.1220383E1,0E0,4.5429764E0,5.0600567E0,2.8716156E0,2.0473671E-1,1.1724226E1,0E0,0E0,3.0279608E0,5.264511E0,6.4172373E0,7.633114E0,9.694307E0,5.5570145E0,6.793274E0,2.3489192E0,1.0119231E1,1.1351561E1,0E0,0E0,0E0,0E0,0E0,0E0,0E0,0E0,0E0,0E0,0E0,0E0,0E0,0E0,0E0,0E0,0E0,0E0,0E0,0E0,0E0,0E0,0E0,0E0,0E0,0E0,0E0,0E0,0E0,0E0,0E0,0E0,0E0,0E0,0E0,0E0,0E0,0E0,0E0,0E0,0E0,0E0,0E0,0E0,0E0,0E0,0E0,0E0,0E0,0E0,0E0,0E0,0E0,0E0,0E0,0E0,0E0,0E0],"parents":[2147483647,0,0,1,1,2,2,3,3,4,4,5,5,6,6,7,7,8,8,9,9,10,10,11,11,12,12,13,13,14,14,15,15,16,16,17,17,18,18,19,19,20,20,21,21,22,22,23,23,24,24,25,25,26,26,27,27,28,28,29,29,30,30,31,31,32,32,33,33,34,34,35,35,36,36,37,37,38,38,39,39,40,40,41,41,42,42,43,43,44,44,46,46,47,47,48,48,49,49,50,50,53,53,54,54,55,55,56,56,57,57,58,58,59,59,60,60,61,61,62,62],"right_children":[2,4,6,8,10,12,14,16,18,20,22,24,26,28,30,32,34,36,38,40,42,44,46,48,50,52,54,56,58,60,62,64,66,68,70,72,74,76,78,80,82,84,86,88,90,-1,92,94,96,98,100,-1,-1,102,104,106,108,110,112,114,116,118,120,-1,-1,-1,-1,-1,-1,-1,-1,-1,-1,-1,-1,-1,-1,-1,-1,-1,-1,-1,-1,-1,-1,-1,-1,-1,-1,-1,-1,-1,-1,-1,-1,-1,-1,-1,-1,-1,-1,-1,-1,-1,-1,-1,-1,-1,-1,-1,-1,-1,-1,-1,-1,-1,-1,-1,-1,-1,-1],"split_conditions":[5.6012106E-1,5.41967E-1,4.4744256E-1,6.3264614E-1,4.4191396E-1,4.774283E-1,4.1638368E-1,3.9976072E-1,4.282869E-1,5.3361994E-1,5.907268E-1,4.5108023E-1,3.5548455E-1,3.4208208E-1,4.4070154E-1,5.283988E-1,2.929259E-1,5.449766E-1,3.1095782E-1,3.1584084E-1,5.3792804E-1,3.7133524E-1,3.7333658E-1,6.040165E-1,3.7171093E-1,6.0512686E-1,2.5396448E-1,4.2543668E-1,6.571061E-1,8.433169E-1,5.219165E-1,5.0470793E-1,6.8922645E-1,5.990282E-1,3.0644208E-1,4.453287E-1,6.4062274E-1,3.774411E-1,3.990285E-1,3.2506537E-1,3.5845515E-1,2.8595227E-1,4.6150243E-1,4.5020983E-1,5.063727E-1,1.1426156E-1,7.4629205E-1,6.159362E-1,5.959167E-1,4.6371612E-1,4.878069E-1,-4.0256415E-2,1.3768733E-1,4.367728E-1,2.9179293E-1,7.631576E-1,3.7823337E-1,6.076473E-1,3.9875853E-1,4.52199E-1,4.6518508E-1,3.98541E-1,6.108012E-1,8.063539E-2,-4.8812717E-2,-8.529702E-2,8.7985344E-2,-7.3580794E-2,9.700083E-2,1.4965854E-2,-8.7073974E-2,-1.1711341E-2,1.2563513E-1,-5.5134304E-2,1.0177976E-1,1.4047173E-1,-3.29637E-2,6.0665872E-2,-9.5587604E-2,6.0271885E-2,-9.352811E-2,-8.207392E-2,1.2725335E-1,9.268538E-2,-7.2957665E-2,-7.64245E-2,1.19258426E-1,-4.9054112E-2,1.4078824E-1,4.1296102E-2,-6.569199E-2,-9.6782744E-2,4.8098218E-2,-9.2808776E-2,6.164774E-2,-2.9005611E-2,1.4381558E-1,-9.876731E-2,-2.0241527E-2,-1.0067976E-2,1.660471E-1,-2.9609958E-2,1.14609815E-1,-1.4345278E-3,-9.342631E-2,-7.739032E-2,9.436222E-2,-6.995732E-2,1.4466317E-1,-8.381697E-2,2.0685783E-2,-4.1319773E-2,1.6576512E-1,5.4206382E-2,1.2952033E-1,-9.141724E-2,5.3508796E-2,8.9337595E-2,-8.637366E-2,8.7515585E-2,-3.6057502E-2],"split_indices":[713,392,582,190,541,34,27,252,152,220,205,457,356,754,701,229,766,499,525,661,566,21,597,717,300,320,657,708,554,197,420,647,217,39,716,174,653,12,236,578,707,759,396,744,657,0,211,746,489,709,479,0,0,431,178,751,9,517,72,661,457,170,596,0,0,0,0,0,0,0,0,0,0,0,0,0,0,0,0,0,0,0,0,0,0,0,0,0,0,0,0,0,0,0,0,0,0,0,0,0,0,0,0,0,0,0,0,0,0,0,0,0,0,0,0,0,0,0,0,0,0],"split_type":[0,0,0,0,0,0,0,0,0,0,0,0,0,0,0,0,0,0,0,0,0,0,0,0,0,0,0,0,0,0,0,0,0,0,0,0,0,0,0,0,0,0,0,0,0,0,0,0,0,0,0,0,0,0,0,0,0,0,0,0,0,0,0,0,0,0,0,0,0,0,0,0,0,0,0,0,0,0,0,0,0,0,0,0,0,0,0,0,0,0,0,0,0,0,0,0,0,0,0,0,0,0,0,0,0,0,0,0,0,0,0,0,0,0,0,0,0,0,0,0,0],"sum_hessian":[7.789068E2,4.6062946E2,3.182773E2,3.167907E2,1.4383876E2,9.6460464E1,2.2181685E2,2.2749553E2,8.929517E1,6.441566E1,7.94231E1,4.019116E1,5.6269306E1,7.110234E1,1.507145E2,4.0697155E1,1.8679839E2,4.7336998E1,4.1958176E1,3.90606E1,2.5355053E1,5.033288E1,2.9090223E1,1.6607157E1,2.3584002E1,3.8552825E0,5.2414024E1,2.652874E1,4.4573605E1,8.531111E1,6.540339E1,2.1059374E1,1.9637781E1,1.4768334E1,1.7203004E2,2.6902552E1,2.0434448E1,7.4386253E0,3.451955E1,3.9663491E0,3.509425E1,1.603032E1,9.324734E0,1.3058715E1,3.7274166E1,1.4621041E0,2.762812E1,1.4023748E1,2.5834079E0,5.345439E0,1.8238562E1,1.0567775E0,2.798505E0,4.353669E0,4.8060352E1,1.0145038E1,1.6383701E1,4.031949E1,4.2541122E0,8.2443985E1,2.86713E0,1.6048067E1,4.935532E1,1.3911181E1,7.148193E0,1.7492205E1,2.145576E0,8.098977E0,6.6693583E0,8.477388E0,1.6355266E2,6.80806E0,2.0094492E1,1.7360975E1,3.0734727E0,2.774888E0,4.6637373E0,4.3837442E0,3.0135807E1,1.0018357E0,2.9645133E0,1.4639952E0,3.3630257E1,2.128905E0,1.3901415E1,1.5622367E0,7.7624974E0,2.8031902E0,1.0255525E1,1.8409739E1,1.8864428E1,2.5864117E1,1.7640022E0,1.2218145E1,1.8056034E0,1.1087227E0,1.4746851E0,4.344358E0,1.001081E0,4.996388E0,1.3242174E1,1.9764585E0,2.3772106E0,7.348438E0,4.0711914E1,8.214976E0,1.9300611E0,1.25531E0,1.5128391E1,2.8018328E1,1.2301162E1,1.4620113E0,2.792101E0,1.7181543E1,6.5262436E1,1.8636084E0,1.0035218E0,3.428205E0,1.2619863E1,4.0900875E1,8.454442E0],"tree_param":{"num_deleted":"0","num_feature":"768","num_nodes":"121","size_leaf_vector":"1"}},{"base_weights":[-2.7956326E-2,-2.2503963E-1,3.3731428E-1,1.09814286E-1,-4.3757778E-1,-2.6120713E-1,6.2348956E-1,-7.582053E-2,7.890003E-1,-1.8046139E-1,-6.5423816E-1,-6.2013483E-1,3.2986054E-1,2.298134E-1,9.5409507E-1,-4.8969242E-1,1.4464138E-1,-3.4827238E-1,1.1430331E0,-4.0884525E-1,2.8752914E-1,-7.252956E-1,1.9079086E-1,7.0519054E-1,-7.2241175E-1,7.6910996E-1,-2.762164E-1,-3.0524188E-1,6.0960644E-1,1.0647126E0,-1.4200656E-1,9.0176515E-2,-8.383676E-1,5.9888977E-1,-2.4901073E-1,-8.113101E-1,7.4995667E-1,-3.8207653E-1,1.2833703E0,-5.461345E-1,5.8584976E-1,-4.8078972E-1,6.8247336E-1,-8.173192E-1,-1.9762059E-1,8.3783096E-1,-7.3014534E-1,-4.1448716E-2,1.4397305E-1,9.226996E-2,-7.914194E-1,-8.037012E-2,9.6523327E-1,8.16528E-1,-5.780951E-1,-5.638229E-1,7.719257E-1,1.012546E0,-5.4289035E-2,-7.7762485E-2,1.1040759E0,7.771407E-1,-8.19931E-1,1.115041E-1,-3.620359E-2,7.845255E-2,-9.602105E-2,-3.9220944E-2,8.163016E-2,-4.5812033E-2,6.7361236E-2,-1.0411721E-1,2.5350258E-2,1.2312116E-1,-1.2634884E-2,2.5512978E-2,-7.556432E-2,1.4056179E-1,-3.187714E-2,-6.2229134E-2,1.0656219E-1,1.2685212E-1,-3.338218E-2,3.1956602E-2,-9.5706604E-2,1.19959235E-1,-2.8072221E-2,-8.526616E-2,6.191791E-2,3.1746108E-2,-9.059899E-2,1.7302184E-1,-1.7804727E-2,2.5252132E-2,-9.722687E-2,-8.93954E-2,5.302413E-2,1.5123217E-2,1.3613962E-1,1.17719285E-1,1.654249E-3,-1.0212809E-1,2.072716E-2,-7.580549E-2,3.418651E-2,-5.8853608E-2,1.2951823E-1,-9.345731E-2,1.1602284E-1,6.4931594E-2,-5.5780437E-2,5.7849478E-2,1.2528327E-1,1.4018787E-1,-2.7039984E-2,-1.0300114E-1,1.2549511E-2],"categories":[],"categories_nodes":[],"categories_segments":[],"categories_sizes":[],"default_left":[0,0,0,0,0,0,0,0,0,0,0,0,0,0,0,0,0,0,0,0,0,0,0,0,0,0,0,0,0,0,0,0,0,0,0,0,0,0,0,0,0,0,0,0,0,0,0,0,0,0,0,0,0,0,0,0,0,0,0,0,0,0,0,0,0,0,0,0,0,0,0,0,0,0,0,0,0,0,0,0,0,0,0,0,0,0,0,0,0,0,0,0,0,0,0,0,0,0,0,0,0,0,0,0,0,0,0,0,0,0,0,0,0,0,0,0,0],"id":12,"left_children":[1,3,5,7,9,11,13,15,17,19,21,23,25,27,29,31,33,35,37,39,41,43,45,47,49,51,53,55,57,59,61,63,65,67,69,71,73,75,77,79,81,83,85,87,89,91,93,-1,-1,-1,95,-1,97,99,101,103,105,107,109,-1,111,113,115,-1,-1,-1,-1,-1,-1,-1,-1,-1,-1,-1,-1,-1,-1,-1,-1,-1,-1,-1,-1,-1,-1,-1,-1,-1,-1,-1,-1,-1,-1,-1,-1,-1,-1,-1,-1,-1,-1,-1,-1,-1,-1,-1,-1,-1,-1,-1,-1,-1,-1,-1,-1,-1,-1],"loss_changes":[5.4784534E1,3.5221573E1,4.5850124E1,2.4354748E1,1.6734955E1,1.8658884E1,2.3305649E1,1.3962033E1,1.7087017E1,1.5052036E1,9.973892E0,7.892685E0,9.135626E0,1.7219666E1,1.20247345E1,1.0819813E1,1.8049278E1,6.0020866E0,7.305702E0,1.3199895E1,1.4411812E1,7.185562E0,8.654454E0,4.222351E0,6.526882E0,6.851901E0,5.3608704E0,1.0313388E1,1.3258663E1,7.317848E0,6.7805634E0,1.00702E1,7.3345814E0,1.0397697E1,1.0791458E1,2.2076278E0,1.7013195E0,1.0149282E0,6.2041893E0,1.0899563E1,7.908075E0,6.536228E0,1.5811508E1,7.052635E0,8.966759E0,7.9168687E0,1.6978369E0,0E0,0E0,0E0,7.187889E0,0E0,5.5885124E0,1.0257099E0,4.4572673E0,5.3918085E0,5.9500446E0,9.931364E0,7.30294E0,0E0,6.1255875E0,3.4538867E0,1.3528814E0,0E0,0E0,0E0,0E0,0E0,0E0,0E0,0E0,0E0,0E0,0E0,0E0,0E0,0E0,0E0,0E0,0E0,0E0,0E0,0E0,0E0,0E0,0E0,0E0,0E0,0E0,0E0,0E0,0E0,0E0,0E0,0E0,0E0,0E0,0E0,0E0,0E0,0E0,0E0,0E0,0E0,0E0,0E0,0E0,0E0,0E0,0E0,0E0,0E0,0E0,0E0,0E0,0E0,0E0],"parents":[2147483647,0,0,1,1,2,2,3,3,4,4,5,5,6,6,7,7,8,8,9,9,10,10,11,11,12,12,13,13,14,14,15,15,16,16,17,17,18,18,19,19,20,20,21,21,22,22,23,23,24,24,25,25,26,26,27,27,28,28,29,29,30,30,31,31,32,32,33,33,34,34,35,35,36,36,37,37,38,38,39,39,40,40,41,41,42,42,43,43,44,44,45,45,46,46,50,50,52,52,53,53,54,54,55,55,56,56,57,57,58,58,60,60,61,61,62,62],"right_children":[2,4,6,8,10,12,14,16,18,20,22,24,26,28,30,32,34,36,38,40,42,44,46,48,50,52,54,56,58,60,62,64,66,68,70,72,74,76,78,80,82,84,86,88,90,92,94,-1,-1,-1,96,-1,98,100,102,104,106,108,110,-1,112,114,116,-1,-1,-1,-1,-1,-1,-1,-1,-1,-1,-1,-1,-1,-1,-1,-1,-1,-1,-1,-1,-1,-1,-1,-1,-1,-1,-1,-1,-1,-1,-1,-1,-1,-1,-1,-1,-1,-1,-1,-1,-1,-1,-1,-1,-1,-1,-1,-1,-1,-1,-1,-1,-1,-1],"split_conditions":[5.887087E-1,4.51946E-1,3.9632052E-1,6.510001E-1,4.919827E-1,4.9937078E-1,5.080589E-1,4.138783E-1,4.5979005E-1,5.799665E-1,5.306745E-1,2.5469872E-1,5.099061E-1,4.1466203E-1,6.214056E-1,4.699011E-1,5.1611817E-1,6.7304254E-1,3.7778693E-1,6.324787E-1,4.9232602E-1,6.5098166E-1,5.081102E-1,4.029971E-1,2.737326E-1,3.595808E-1,4.7126502E-1,6.204819E-1,5.018561E-1,3.1590873E-1,4.2383993E-1,3.5653585E-1,2.3583138E-1,4.058556E-1,6.543277E-1,6.5844864E-1,4.249813E-1,5.388402E-1,6.734165E-1,8.132798E-1,4.3159285E-1,4.5831257E-1,5.2370745E-1,8.227365E-1,4.409796E-1,5.858333E-1,4.7528598E-1,-4.1448716E-2,1.4397305E-1,9.226996E-2,6.9934654E-1,-8.037012E-2,3.2392457E-1,6.103888E-1,6.357157E-1,6.6699576E-1,4.988942E-1,3.633655E-1,4.7174639E-1,-7.7762485E-2,3.9694604E-1,4.5025596E-1,6.4556205E-1,1.115041E-1,-3.620359E-2,7.845255E-2,-9.602105E-2,-3.9220944E-2,8.163016E-2,-4.5812033E-2,6.7361236E-2,-1.0411721E-1,2.5350258E-2,1.2312116E-1,-1.2634884E-2,2.5512978E-2,-7.556432E-2,1.4056179E-1,-3.187714E-2,-6.2229134E-2,1.0656219E-1,1.2685212E-1,-3.338218E-2,3.1956602E-2,-9.5706604E-2,1.19959235E-1,-2.8072221E-2,-8.526616E-2,6.191791E-2,3.1746108E-2,-9.059899E-2,1.7302184E-1,-1.7804727E-2,2.5252132E-2,-9.722687E-2,-8.93954E-2,5.302413E-2,1.5123217E-2,1.3613962E-1,1.17719285E-1,1.654249E-3,-1.0212809E-1,2.072716E-2,-7.580549E-2,3.418651E-2,-5.8853608E-2,1.2951823E-1,-9.345731E-2,1.1602284E-1,6.4931594E-2,-5.5780437E-2,5.7849478E-2,1.2528327E-1,1.4018787E-1,-2.7039984E-2,-1.0300114E-1,1.2549511E-2],"split_indices":[147,541,706,190,626,191,221,352,299,347,708,383,514,323,205,103,183,282,343,110,29,713,657,59,584,643,100,66,412,552,242,337,185,566,27,294,258,476,411,544,471,584,697,547,268,306,111,0,0,0,717,0,119,458,49,675,23,280,677,0,335,513,157,0,0,0,0,0,0,0,0,0,0,0,0,0,0,0,0,0,0,0,0,0,0,0,0,0,0,0,0,0,0,0,0,0,0,0,0,0,0,0,0,0,0,0,0,0,0,0,0,0,0,0,0,0,0],"split_type":[0,0,0,0,0,0,0,0,0,0,0,0,0,0,0,0,0,0,0,0,0,0,0,0,0,0,0,0,0,0,0,0,0,0,0,0,0,0,0,0,0,0,0,0,0,0,0,0,0,0,0,0,0,0,0,0,0,0,0,0,0,0,0,0,0,0,0,0,0,0,0,0,0,0,0,0,0,0,0,0,0,0,0,0,0,0,0,0,0,0,0,0,0,0,0,0,0,0,0,0,0,0,0,0,0,0,0,0,0,0,0,0,0,0,0,0,0],"sum_hessian":[7.589608E2,4.9322375E2,2.6573706E2,1.9169366E2,3.0153012E2,8.598693E1,1.7975014E2,1.5124406E2,4.0449593E1,1.3872939E2,1.6280074E2,5.346871E1,3.2518223E1,8.282248E1,9.692766E1,5.2140255E1,9.910381E1,9.606513E0,3.084308E1,9.3316444E1,4.5412933E1,1.5030359E2,1.2497148E1,3.4083042E0,5.0060406E1,1.8697998E1,1.3820222E1,3.4464676E1,4.8357803E1,8.8068504E1,8.859157E0,1.9857443E1,3.228281E1,4.5768562E1,5.333525E1,6.9412036E0,2.6653094E0,2.4538085E0,2.838927E1,8.23951E1,1.0921339E1,1.5344536E1,3.00684E1,1.2751651E2,2.2787071E1,7.393084E0,5.104063E0,1.5227923E0,1.8855119E0,1.5173137E0,4.8543095E1,1.7295921E0,1.6968407E1,2.6224873E0,1.1197735E1,2.8177141E1,6.2875366E0,2.9766436E1,1.859137E1,1.4499679E0,8.661854E1,3.6984076E0,5.1607485E0,5.6306834E0,1.4226759E1,1.8746371E0,3.0408175E1,8.089152E0,3.767941E1,4.389096E1,9.444288E0,5.727093E0,1.2141101E0,1.4590286E0,1.206281E0,1.0240656E0,1.4297429E0,2.6490631E1,1.8986408E0,7.926373E1,3.1313725E0,6.050637E0,4.8707023E0,5.8473773E0,9.497158E0,1.9404898E1,1.0663501E1,1.2485121E2,2.6653016E0,1.3513063E1,9.274009E0,3.5614188E0,3.8316653E0,1.0005101E0,4.1035533E0,4.534856E1,3.1945324E0,6.0071597E0,1.09612465E1,1.4825693E0,1.1399179E0,6.966258E0,4.2314773E0,2.3335634E1,4.8415055E0,1.7118883E0,4.5756483E0,1.7228779E0,2.8043558E1,7.634068E0,1.0957301E1,2.0186232E1,6.6432304E1,2.1048489E0,1.5935588E0,4.149281E0,1.0114678E0],"tree_param":{"num_deleted":"0","num_feature":"768","num_nodes":"117","size_leaf_vector":"1"}},{"base_weights":[-2.5702542E-2,-2.4774753E-1,2.707555E-1,-5.5486345E-1,-4.6433E-2,-1.6690983E-1,5.1086193E-1,5.536907E-3,-6.5941805E-1,-4.6434876E-1,1.9540235E-1,5.439855E-1,-4.1830835E-1,8.0382067E-1,1.19061224E-1,1.1348866E0,-2.7994245E-1,-6.936348E-1,8.047139E-1,4.9659133E-1,-5.974724E-1,-6.107483E-2,7.173946E-1,8.482149E-1,-5.790924E-1,-5.498728E-1,7.42499E-1,8.12514E-2,9.9957585E-1,-1.9945751E-1,9.349816E-1,1.7730148E-1,-2.0012554E-2,6.014998E-1,-7.021428E-1,-7.626467E-1,8.798978E-2,-2.5425527E-2,1.3583615E-1,-8.628717E-2,9.2864287E-1,3.100071E-1,-7.53151E-1,-2.684887E-1,5.1513064E-1,-7.586145E-1,8.517355E-1,1.0143367E0,-8.682579E-2,-9.459431E-1,7.547537E-2,-2.3118086E-1,-9.2223847E-1,1.1231735E0,-7.073841E-2,5.994598E-1,-6.308436E-1,1.1188611E0,1.0727315E-2,-8.167039E-1,5.1238377E-2,1.1257733E0,-4.9948004E-1,-6.416219E-2,1.16824985E-1,3.1038314E-2,-1.0462067E-1,7.0676856E-2,-8.03759E-2,1.2396091E-1,-5.454878E-2,-5.2692365E-2,1.3279562E-1,1.3397744E-1,-5.5476468E-2,6.508383E-2,-8.358206E-2,1.99539E-2,-5.791983E-2,2.059888E-3,1.2225839E-1,-9.931597E-3,-8.981492E-2,-6.417762E-3,1.0356265E-1,1.1560249E-1,-3.482592E-2,-1.0284003E-1,-2.730294E-2,-5.6679428E-2,4.6037268E-2,3.7167475E-2,-1.0391972E-1,-1.9530669E-2,1.3776398E-1,1.00984015E-1,-7.684867E-2,-9.4638586E-2,6.1957266E-2,1.1974193E-1,-1.650705E-2,-8.8948466E-2,6.373925E-2,7.0167765E-2,-9.838447E-2,2.7412528E-2,-8.227082E-2,-4.2571347E-2,1.22889236E-1,2.5434075E-2,-8.910663E-2],"categories":[],"categories_nodes":[],"categories_segments":[],"categories_sizes":[],"default_left":[0,0,0,0,0,0,0,0,0,0,0,0,0,0,0,0,0,0,0,0,0,0,0,0,0,0,0,0,0,0,0,0,0,0,0,0,0,0,0,0,0,0,0,0,0,0,0,0,0,0,0,0,0,0,0,0,0,0,0,0,0,0,0,0,0,0,0,0,0,0,0,0,0,0,0,0,0,0,0,0,0,0,0,0,0,0,0,0,0,0,0,0,0,0,0,0,0,0,0,0,0,0,0,0,0,0,0,0,0,0,0],"id":13,"left_children":[1,3,5,7,9,11,13,15,17,19,21,23,25,27,29,31,33,35,37,39,41,43,45,47,49,51,53,55,57,59,61,-1,-1,63,65,67,69,-1,-1,-1,71,73,75,77,79,81,83,85,-1,87,-1,89,91,93,-1,95,97,99,101,103,105,107,109,-1,-1,-1,-1,-1,-1,-1,-1,-1,-1,-1,-1,-1,-1,-1,-1,-1,-1,-1,-1,-1,-1,-1,-1,-1,-1,-1,-1,-1,-1,-1,-1,-1,-1,-1,-1,-1,-1,-1,-1,-1,-1,-1,-1,-1,-1,-1,-1],"loss_changes":[4.879207E1,2.6172497E1,3.3446136E1,9.828911E0,2.606972E1,2.0461523E1,2.3462555E1,9.138156E0,7.638504E0,1.2387854E1,2.1936964E1,1.07457075E1,1.32681E1,1.6505013E1,2.3311932E1,5.2261333E0,8.847744E0,7.545494E0,2.5090292E0,7.87716E0,1.2025921E1,1.3353326E1,1.1344858E1,7.7301903E0,4.1350245E0,8.830288E0,5.7605796E0,1.0003729E1,1.0860733E1,1.0072674E1,7.4481106E0,0E0,0E0,6.294912E0,5.818312E0,8.270203E0,9.535787E0,0E0,0E0,0E0,6.2930326E0,1.2258634E1,8.847462E0,1.2034805E1,1.0334148E1,3.7353897E-1,8.475292E0,4.72003E0,0E0,4.809332E-2,0E0,1.0101176E1,5.654125E0,2.78971E0,0E0,9.539392E0,5.113592E0,8.493141E0,6.7340784E0,5.4570427E0,9.388649E0,4.125046E0,1.3029501E0,0E0,0E0,0E0,0E0,0E0,0E0,0E0,0E0,0E0,0E0,0E0,0E0,0E0,0E0,0E0,0E0,0E0,0E0,0E0,0E0,0E0,0E0,0E0,0E0,0E0,0E0,0E0,0E0,0E0,0E0,0E0,0E0,0E0,0E0,0E0,0E0,0E0,0E0,0E0,0E0,0E0,0E0,0E0,0E0,0E0,0E0,0E0,0E0],"parents":[2147483647,0,0,1,1,2,2,3,3,4,4,5,5,6,6,7,7,8,8,9,9,10,10,11,11,12,12,13,13,14,14,15,15,16,16,17,17,18,18,19,19,20,20,21,21,22,22,23,23,24,24,25,25,26,26,27,27,28,28,29,29,30,30,33,33,34,34,35,35,36,36,40,40,41,41,42,42,43,43,44,44,45,45,46,46,47,47,49,49,51,51,52,52,53,53,55,55,56,56,57,57,58,58,59,59,60,60,61,61,62,62],"right_children":[2,4,6,8,10,12,14,16,18,20,22,24,26,28,30,32,34,36,38,40,42,44,46,48,50,52,54,56,58,60,62,-1,-1,64,66,68,70,-1,-1,-1,72,74,76,78,80,82,84,86,-1,88,-1,90,92,94,-1,96,98,100,102,104,106,108,110,-1,-1,-1,-1,-1,-1,-1,-1,-1,-1,-1,-1,-1,-1,-1,-1,-1,-1,-1,-1,-1,-1,-1,-1,-1,-1,-1,-1,-1,-1,-1,-1,-1,-1,-1,-1,-1,-1,-1,-1,-1,-1,-1,-1,-1,-1,-1,-1],"split_conditions":[4.802229E-1,5.456876E-1,4.928875E-1,3.9193603E-1,3.9260194E-1,4.155584E-1,5.2099395E-1,2.6778883E-1,7.674325E-1,2.6214546E-1,5.189593E-1,5.554714E-1,7.0929766E-1,4.079421E-1,6.192736E-1,6.054948E-1,4.0146032E-1,6.838018E-1,4.8122352E-1,3.188811E-1,3.475823E-1,6.4079016E-1,3.2192284E-1,5.42468E-1,6.3955903E-1,5.877117E-1,5.7479626E-1,4.370799E-1,6.3618875E-1,4.39722E-1,5.9047806E-1,1.7730148E-1,-2.0012554E-2,4.5440298E-1,5.097592E-1,3.173191E-1,4.9283582E-1,-2.5425527E-2,1.3583615E-1,-8.628717E-2,4.0826586E-1,4.015637E-1,2.7160272E-1,4.3494543E-1,6.0431045E-1,5.11797E-1,3.982149E-1,6.355709E-1,-8.682579E-2,5.5960584E-1,7.547537E-2,5.930336E-1,2.7601373E-1,4.438767E-1,-7.073841E-2,6.259614E-1,6.694677E-1,6.850775E-1,5.05865E-1,3.1959736E-1,4.655186E-1,3.313179E-1,4.4214228E-1,-6.416219E-2,1.16824985E-1,3.1038314E-2,-1.0462067E-1,7.0676856E-2,-8.03759E-2,1.2396091E-1,-5.454878E-2,-5.2692365E-2,1.3279562E-1,1.3397744E-1,-5.5476468E-2,6.508383E-2,-8.358206E-2,1.99539E-2,-5.791983E-2,2.059888E-3,1.2225839E-1,-9.931597E-3,-8.981492E-2,-6.417762E-3,1.0356265E-1,1.1560249E-1,-3.482592E-2,-1.0284003E-1,-2.730294E-2,-5.6679428E-2,4.6037268E-2,3.7167475E-2,-1.0391972E-1,-1.9530669E-2,1.3776398E-1,1.00984015E-1,-7.684867E-2,-9.4638586E-2,6.1957266E-2,1.1974193E-1,-1.650705E-2,-8.8948466E-2,6.373925E-2,7.0167765E-2,-9.838447E-2,2.7412528E-2,-8.227082E-2,-4.2571347E-2,1.22889236E-1,2.5434075E-2,-8.910663E-2],"split_indices":[110,359,299,31,737,657,103,383,223,337,335,666,571,203,27,292,179,717,116,711,380,744,392,105,171,660,67,307,550,640,673,0,0,342,210,419,760,0,0,0,360,219,550,541,410,33,713,205,0,360,0,282,286,651,0,60,188,411,698,652,368,683,301,0,0,0,0,0,0,0,0,0,0,0,0,0,0,0,0,0,0,0,0,0,0,0,0,0,0,0,0,0,0,0,0,0,0,0,0,0,0,0,0,0,0,0,0,0,0,0,0],"split_type":[0,0,0,0,0,0,0,0,0,0,0,0,0,0,0,0,0,0,0,0,0,0,0,0,0,0,0,0,0,0,0,0,0,0,0,0,0,0,0,0,0,0,0,0,0,0,0,0,0,0,0,0,0,0,0,0,0,0,0,0,0,0,0,0,0,0,0,0,0,0,0,0,0,0,0,0,0,0,0,0,0,0,0,0,0,0,0,0,0,0,0,0,0,0,0,0,0,0,0,0,0,0,0,0,0,0,0,0,0,0,0],"sum_hessian":[7.3919745E2,4.2273572E2,3.1646176E2,1.6668806E2,2.5604764E2,1.1221728E2,2.0424448E2,2.6358212E1,1.4032985E2,9.351838E1,1.6252925E2,2.9012625E1,8.320465E1,1.1626143E2,8.798305E1,4.718109E0,2.1640102E1,1.3763947E2,2.6903877E0,1.10469265E1,8.247146E1,1.095739E2,5.295536E1,2.3021181E1,5.9914446E0,7.520708E1,7.9975767E0,2.5084578E1,9.117685E1,6.382328E1,2.415977E1,2.9702554E0,1.7478536E0,6.87087E0,1.4769233E1,1.2649514E2,1.1144332E1,1.1093268E0,1.5810609E0,2.4236598E0,8.623267E0,1.1931159E1,7.05403E1,8.09638E1,2.8610102E1,4.030052E0,4.8925304E1,2.1362734E1,1.6584469E0,4.927138E0,1.0643067E0,4.139753E1,3.3809547E1,6.5129123E0,1.4846642E0,1.461041E1,1.0474168E1,8.1244774E1,9.9320755E0,1.7782549E1,4.6040733E1,2.1513538E1,2.6462297E0,2.1102016E0,4.7606683E0,3.770662E0,1.099857E1,3.00217E0,1.23492966E2,3.6152396E0,7.529093E0,1.7875952E0,6.8356724E0,5.195315E0,6.735844E0,3.5403998E0,6.69999E1,3.244663E1,4.8517166E1,1.7444777E1,1.1165324E1,1.0029414E0,3.0271108E0,8.289332E0,4.0635975E1,1.9487904E1,1.8748294E0,3.9186738E0,1.0084641E0,2.7992886E1,1.3404643E1,2.622213E0,3.1187336E1,1.0912491E0,5.4216633E0,1.1440173E1,3.1702373E0,8.557762E0,1.9164062E0,7.662387E1,4.6209016E0,3.9042213E0,6.027854E0,1.4462295E0,1.6336319E1,3.723169E1,8.809045E0,1.1458086E0,2.0367731E1,1.0245028E0,1.6217271E0],"tree_param":{"num_deleted":"0","num_feature":"768","num_nodes":"111","size_leaf_vector":"1"}},{"base_weights":[-2.419974E-2,2.8148124E-1,-2.2553043E-1,-1.5507354E-1,5.303906E-1,-3.9729396E-1,1.70406E-1,3.4177953E-1,-4.9762172E-1,6.928107E-2,7.778064E-1,-4.859212E-1,4.3037215E-1,-1.4651997E-1,5.383535E-1,6.181884E-1,-8.424658E-1,-6.165527E-1,7.4138707E-1,-2.3006304E-1,7.542064E-1,8.6088645E-1,-4.4782493E-1,-6.383827E-1,-1.1385082E-1,-3.4228426E-1,9.1592246E-1,-5.09905E-1,2.731342E-1,-4.19767E-1,7.9494953E-1,-6.6896826E-1,8.8190556E-1,-1.0411973E-1,1.961859E-2,-7.595456E-1,8.375471E-2,1.2951413E-1,-2.6928414E-2,6.410643E-1,-4.8397076E-1,1.1429178E0,-2.1907626E-1,